################################################################################
# Neural network connection values (weights and biases).
################################################################################
# Col  Name       Description
################################################################################
# 1    connection Neural network connection value.
# 2    t          Connection type (a = weight, b = bias).
# 3    index      Index enumerating weights.
# 4    l_s        Starting point layer (end point layer for biases).
# 5    n_s        Starting point neuron in starting layer (end point neuron for biases).
# 6    l_e        End point layer.
# 7    n_e        End point neuron in end layer.
################################################################################
#                      1 2         3     4     5     6     7
#             connection t     index   l_s   n_s   l_e   n_e
############################################################
 -1.3021491758219422E-01 a         1     0     1     1     1
 -8.2614698794659625E-01 a         2     0     1     1     2
 -7.8859375586654468E-01 a         3     0     1     1     3
 -1.0304840273612201E+00 a         4     0     1     1     4
  7.9413927136485130E-01 a         5     0     1     1     5
  1.4235170889357091E-01 a         6     0     1     1     6
 -3.3870741895118256E-01 a         7     0     1     1     7
 -1.1270763704700417E+00 a         8     0     1     1     8
  3.5359483506496886E-01 a         9     0     1     1     9
 -9.6810362455297938E-01 a        10     0     1     1    10
  2.3636800904544958E-01 a        11     0     1     1    11
 -1.4449470797171493E-01 a        12     0     1     1    12
 -8.0320625017133207E-01 a        13     0     1     1    13
 -4.9584842789858607E-01 a        14     0     1     1    14
 -5.7805037690974836E-01 a        15     0     1     1    15
  2.7071776447961426E-01 a        16     0     1     1    16
  4.1377698927917955E-01 a        17     0     1     1    17
 -2.0404124054609890E-01 a        18     0     1     1    18
  1.1611436067683280E-01 a        19     0     1     1    19
  6.2921341466151592E-01 a        20     0     1     1    20
 -7.0367798779658974E-01 a        21     0     1     1    21
 -8.1216528286830625E-01 a        22     0     1     1    22
 -4.5067664613341035E-01 a        23     0     1     1    23
 -9.3499076015815819E-01 a        24     0     1     1    24
 -3.4337966912946327E-01 a        25     0     1     1    25
  1.4757906483322305E+00 a        26     0     2     1     1
 -5.3178305761556133E-01 a        27     0     2     1     2
  1.2275565892096065E+00 a        28     0     2     1     3
  8.2058983642590155E-01 a        29     0     2     1     4
  4.2850604036817119E-01 a        30     0     2     1     5
 -2.5267655398403178E-02 a        31     0     2     1     6
  1.3437252845411971E+00 a        32     0     2     1     7
  1.3231646938763344E+00 a        33     0     2     1     8
  8.0840690625341924E-02 a        34     0     2     1     9
  9.7967744380151112E-01 a        35     0     2     1    10
  1.3038882006906002E-01 a        36     0     2     1    11
  7.8742483723834300E-02 a        37     0     2     1    12
 -4.7029212274337218E-01 a        38     0     2     1    13
  6.2862201675368556E-01 a        39     0     2     1    14
  3.8601863865462827E-01 a        40     0     2     1    15
  4.2757270618325655E-01 a        41     0     2     1    16
  4.3099707190416675E-01 a        42     0     2     1    17
  1.0407411877136968E-01 a        43     0     2     1    18
  8.3022138959478381E-02 a        44     0     2     1    19
  5.3653141504314106E-01 a        45     0     2     1    20
  1.1504481776854843E-02 a        46     0     2     1    21
  7.4342451727992365E-01 a        47     0     2     1    22
  1.4138272531133125E-03 a        48     0     2     1    23
  1.5969698403728902E+00 a        49     0     2     1    24
  1.5405493997040802E+00 a        50     0     2     1    25
  4.8396740345213440E-01 a        51     0     3     1     1
 -3.6845806418719748E-02 a        52     0     3     1     2
  7.1169410823751222E-01 a        53     0     3     1     3
  2.7648267250138259E-01 a        54     0     3     1     4
 -1.6903566256652571E+00 a        55     0     3     1     5
 -5.9500957215524053E-01 a        56     0     3     1     6
  3.5994492904421679E-02 a        57     0     3     1     7
 -4.7932226601030781E-01 a        58     0     3     1     8
  1.0755376504927240E-01 a        59     0     3     1     9
 -9.3908633470502201E-01 a        60     0     3     1    10
  4.8507981171817836E-02 a        61     0     3     1    11
  1.7274209155513478E+00 a        62     0     3     1    12
 -5.6772933948591120E-01 a        63     0     3     1    13
  5.2870722504559309E-01 a        64     0     3     1    14
  3.8939010900328408E-01 a        65     0     3     1    15
  2.3708276989757082E-01 a        66     0     3     1    16
 -7.4862759526367861E-01 a        67     0     3     1    17
  5.5282673705880969E-02 a        68     0     3     1    18
 -6.8597573616829388E-01 a        69     0     3     1    19
  8.7015860000981871E-01 a        70     0     3     1    20
  3.1119189658729551E-01 a        71     0     3     1    21
  3.6921515963341156E-01 a        72     0     3     1    22
 -6.3977379727020511E-01 a        73     0     3     1    23
  1.5039360701268447E+00 a        74     0     3     1    24
  1.9979146052775709E-01 a        75     0     3     1    25
  4.7838157838335194E-01 a        76     0     4     1     1
  4.0483217090523294E-01 a        77     0     4     1     2
  3.9820098707523421E-01 a        78     0     4     1     3
  4.7696542863782487E-01 a        79     0     4     1     4
 -2.2819893088117199E-01 a        80     0     4     1     5
  1.1183078515522372E-01 a        81     0     4     1     6
  3.9730326556005280E-01 a        82     0     4     1     7
  6.8000179371005676E-01 a        83     0     4     1     8
 -3.4358142342177839E-01 a        84     0     4     1     9
  6.9547692237776926E-01 a        85     0     4     1    10
 -8.2533044417331374E-03 a        86     0     4     1    11
 -4.1116791004252778E-02 a        87     0     4     1    12
  9.3231175334990568E-01 a        88     0     4     1    13
  2.9769564910230700E-01 a        89     0     4     1    14
  1.6208128268540137E-01 a        90     0     4     1    15
 -7.5893948425998919E-02 a        91     0     4     1    16
 -2.1175822446009931E-01 a        92     0     4     1    17
  2.3416650916567724E-01 a        93     0     4     1    18
  9.8041888427912137E-03 a        94     0     4     1    19
 -1.6456766913146631E-01 a        95     0     4     1    20
 -3.5872279016568621E-02 a        96     0     4     1    21
  1.7917826534507447E-01 a        97     0     4     1    22
  3.0244872216875307E-01 a        98     0     4     1    23
  3.5219425181960179E-01 a        99     0     4     1    24
  4.2272815522621543E-01 a       100     0     4     1    25
 -1.0107259602793761E+00 a       101     0     5     1     1
  5.5548414000726221E-01 a       102     0     5     1     2
  3.6687189493178279E-01 a       103     0     5     1     3
  7.4448850246193277E-01 a       104     0     5     1     4
  2.0243791683490311E-01 a       105     0     5     1     5
  6.5820657268428129E-01 a       106     0     5     1     6
 -9.2494002421132065E-02 a       107     0     5     1     7
 -1.2501392415122972E+00 a       108     0     5     1     8
 -1.1770539617937356E-01 a       109     0     5     1     9
 -1.7693203670436275E-01 a       110     0     5     1    10
 -1.4928623877554406E-01 a       111     0     5     1    11
  4.2303172547945650E-01 a       112     0     5     1    12
  9.7081915408495045E-01 a       113     0     5     1    13
 -1.3221255860967245E+00 a       114     0     5     1    14
 -7.3872254006056970E-01 a       115     0     5     1    15
  1.0739590595008613E-01 a       116     0     5     1    16
  7.3414059080743610E-01 a       117     0     5     1    17
  1.1319762144204867E-01 a       118     0     5     1    18
 -2.8020104973245147E-01 a       119     0     5     1    19
  4.5446147789055213E-01 a       120     0     5     1    20
  7.4487385369900472E-01 a       121     0     5     1    21
 -8.5827695918190050E-01 a       122     0     5     1    22
  1.0266476804431074E-01 a       123     0     5     1    23
  3.9364987341125479E-02 a       124     0     5     1    24
  2.0250307039269647E-01 a       125     0     5     1    25
  9.8131754082591582E-01 a       126     0     6     1     1
 -1.7859963865139303E-01 a       127     0     6     1     2
 -3.3573212242040568E-01 a       128     0     6     1     3
 -3.9469716054035819E-02 a       129     0     6     1     4
  6.5260569366353005E-01 a       130     0     6     1     5
  4.6334052770691908E-01 a       131     0     6     1     6
  4.4866718806373146E-01 a       132     0     6     1     7
  1.4650020049104104E-04 a       133     0     6     1     8
 -3.9968270891473107E-01 a       134     0     6     1     9
  3.5698054879024843E-01 a       135     0     6     1    10
  4.9332726074781375E-01 a       136     0     6     1    11
 -2.1833960999683927E-01 a       137     0     6     1    12
 -1.7012916533011122E-01 a       138     0     6     1    13
 -7.2335004557138649E-01 a       139     0     6     1    14
 -3.8625967474915091E-01 a       140     0     6     1    15
  6.8149237326966941E-02 a       141     0     6     1    16
  4.9658247552950507E-01 a       142     0     6     1    17
 -2.5910566040402305E-01 a       143     0     6     1    18
 -1.8916091950851924E-01 a       144     0     6     1    19
  1.0292373008586255E+00 a       145     0     6     1    20
  1.8945059026712208E-01 a       146     0     6     1    21
 -2.1802647629341274E-01 a       147     0     6     1    22
 -3.3467603758739856E-01 a       148     0     6     1    23
 -2.4204486326826397E-01 a       149     0     6     1    24
  7.4517548953170465E-01 a       150     0     6     1    25
  8.9016586222903749E-01 a       151     0     7     1     1
  6.7045213850836194E-01 a       152     0     7     1     2
  4.6824601873452155E-04 a       153     0     7     1     3
  5.5025164805129190E-01 a       154     0     7     1     4
 -6.2395346166610605E-03 a       155     0     7     1     5
 -4.2180473077007646E-02 a       156     0     7     1     6
 -4.2888674389281195E-01 a       157     0     7     1     7
  5.1119326962250788E-01 a       158     0     7     1     8
  6.5543056914092712E-01 a       159     0     7     1     9
  1.5293767339210744E+00 a       160     0     7     1    10
 -8.3809432609639745E-01 a       161     0     7     1    11
  3.6637998034328506E-01 a       162     0     7     1    12
  8.5363136212453983E-01 a       163     0     7     1    13
  7.4453827642545967E-01 a       164     0     7     1    14
  7.3181241337691627E-01 a       165     0     7     1    15
 -1.5962868973350466E-01 a       166     0     7     1    16
  5.7463459040126119E-01 a       167     0     7     1    17
  7.4543153642908222E-01 a       168     0     7     1    18
 -2.1886021434240169E-01 a       169     0     7     1    19
 -4.2669061503517264E-02 a       170     0     7     1    20
  8.0483367931238503E-01 a       171     0     7     1    21
  7.0656905218743693E-01 a       172     0     7     1    22
 -7.8752775797940688E-01 a       173     0     7     1    23
 -1.5973380400670961E-01 a       174     0     7     1    24
 -2.5183290830270949E-01 a       175     0     7     1    25
 -1.1179540275581026E+00 a       176     0     8     1     1
  1.1170495012580908E+00 a       177     0     8     1     2
  2.0236870387815706E+00 a       178     0     8     1     3
  1.4824703470213793E-01 a       179     0     8     1     4
  1.2274491531129248E+00 a       180     0     8     1     5
  1.2067214696369448E-01 a       181     0     8     1     6
 -2.0845256470051626E-01 a       182     0     8     1     7
 -5.5134662616475438E-01 a       183     0     8     1     8
  9.9133120213596282E-01 a       184     0     8     1     9
 -2.0690918370540201E-01 a       185     0     8     1    10
  3.6914825763081038E-01 a       186     0     8     1    11
 -5.9386113956208275E-01 a       187     0     8     1    12
  9.7007848547243503E-01 a       188     0     8     1    13
 -3.2815327067711042E-01 a       189     0     8     1    14
  1.0374189190462167E-01 a       190     0     8     1    15
  6.1562385507252593E-01 a       191     0     8     1    16
  1.2227055332054446E+00 a       192     0     8     1    17
  5.8536801117221780E-02 a       193     0     8     1    18
  6.0927402529263353E-01 a       194     0     8     1    19
  3.2719521540264901E-01 a       195     0     8     1    20
  6.3213094746921983E-01 a       196     0     8     1    21
  2.0444433071333393E-01 a       197     0     8     1    22
  6.5875384615907406E-01 a       198     0     8     1    23
  8.4137224748258288E-01 a       199     0     8     1    24
 -2.1694160662137646E-01 a       200     0     8     1    25
  2.3505982887077970E-03 b       201     1     1
 -1.2549753034174654E-01 b       202     1     2
  7.8956194360900633E-01 b       203     1     3
  1.3767582826367017E+00 b       204     1     4
 -5.5670079850095944E-01 b       205     1     5
 -4.7312681688703721E-02 b       206     1     6
 -3.7487863485695722E-01 b       207     1     7
  1.7661739943195429E+00 b       208     1     8
 -1.1479569500647419E-01 b       209     1     9
  8.1773788177297824E-01 b       210     1    10
 -2.8880844829536234E-01 b       211     1    11
 -2.1151770516158266E-02 b       212     1    12
  4.2564796039740088E-01 b       213     1    13
  8.2274404717182770E-01 b       214     1    14
  6.1903729420073705E-01 b       215     1    15
  7.6921801704234205E-01 b       216     1    16
 -4.9936107026055843E-01 b       217     1    17
  5.7238931055954034E-01 b       218     1    18
 -4.3729778377407397E-01 b       219     1    19
  3.4408403576680080E-01 b       220     1    20
  2.2343563276080378E-01 b       221     1    21
  5.9427076754960051E-01 b       222     1    22
  6.5039892556482981E-01 b       223     1    23
 -2.1556350965763124E-02 b       224     1    24
 -2.0554248721987625E-01 b       225     1    25
  1.2995406219873765E-01 a       226     1     1     2     1
  3.2608626788728706E-01 a       227     1     1     2     2
  1.3380318310352035E+00 a       228     1     1     2     3
 -4.6303131353293064E-01 a       229     1     1     2     4
 -1.5468901813127778E-01 a       230     1     1     2     5
 -1.8826391890049904E-01 a       231     1     1     2     6
  3.8284897738594242E-01 a       232     1     1     2     7
 -5.1814088788390067E-01 a       233     1     1     2     8
  2.7648435366668084E-01 a       234     1     1     2     9
 -3.7526727684311584E-01 a       235     1     1     2    10
 -3.8195165905541717E-01 a       236     1     1     2    11
 -3.6262790154059765E-01 a       237     1     1     2    12
 -9.0979774116245926E-01 a       238     1     1     2    13
 -7.5933591138916841E+00 a       239     1     1     2    14
  1.9459819096180575E-01 a       240     1     1     2    15
 -2.5300771868382510E-01 a       241     1     1     2    16
  2.0856603475626273E-01 a       242     1     1     2    17
  1.3434907613673499E+00 a       243     1     1     2    18
  3.1721935099784127E-01 a       244     1     1     2    19
 -1.0660922728478603E+00 a       245     1     1     2    20
 -1.2771845210793853E-01 a       246     1     1     2    21
 -3.0062753760101596E-01 a       247     1     1     2    22
 -1.2952670744235945E-02 a       248     1     1     2    23
 -2.6053262761777435E-01 a       249     1     1     2    24
  8.2234535439249712E-01 a       250     1     1     2    25
  2.4833596380859522E-03 a       251     1     2     2     1
  1.4322688009739353E+00 a       252     1     2     2     2
  4.4029517332948381E-01 a       253     1     2     2     3
 -5.7162095594962625E-01 a       254     1     2     2     4
  5.2269906830042540E-02 a       255     1     2     2     5
 -1.1418230274715313E+00 a       256     1     2     2     6
 -2.5054241658744072E+00 a       257     1     2     2     7
 -6.9110001783362629E-01 a       258     1     2     2     8
 -1.2156868414726330E+00 a       259     1     2     2     9
 -2.5366004347541449E-01 a       260     1     2     2    10
 -1.0984227736244130E+00 a       261     1     2     2    11
  1.6682132765163321E-01 a       262     1     2     2    12
  1.8308568959262126E+00 a       263     1     2     2    13
 -6.8249465323212233E+00 a       264     1     2     2    14
  7.5288235165058795E-02 a       265     1     2     2    15
  4.6376625204523381E-01 a       266     1     2     2    16
 -2.4678184057179595E-01 a       267     1     2     2    17
  6.0723428394835044E-01 a       268     1     2     2    18
 -1.9747808275648673E-01 a       269     1     2     2    19
 -6.3377307799491700E-01 a       270     1     2     2    20
 -1.2011028156107193E+00 a       271     1     2     2    21
 -1.2637939091701028E-01 a       272     1     2     2    22
  2.1679326583174547E+00 a       273     1     2     2    23
 -1.3758162504682779E-02 a       274     1     2     2    24
 -8.7536166315579325E-02 a       275     1     2     2    25
 -3.0720027387161580E-01 a       276     1     3     2     1
  2.4097400193281500E-02 a       277     1     3     2     2
 -8.2783854795267042E-01 a       278     1     3     2     3
 -3.8492427871107354E-01 a       279     1     3     2     4
  6.8038212905011719E-01 a       280     1     3     2     5
 -7.0975237724412155E-01 a       281     1     3     2     6
  5.1443117570192254E-01 a       282     1     3     2     7
  4.5979405086799130E-01 a       283     1     3     2     8
  4.0415070664606353E-02 a       284     1     3     2     9
 -1.1668697097619797E-01 a       285     1     3     2    10
 -7.2867435723789620E-01 a       286     1     3     2    11
  6.7191723038123430E-01 a       287     1     3     2    12
 -1.0522408538247094E+00 a       288     1     3     2    13
 -1.8292823310684916E+01 a       289     1     3     2    14
  3.6239163713425609E-01 a       290     1     3     2    15
 -2.3822022833563987E+00 a       291     1     3     2    16
 -5.2097228733806333E-01 a       292     1     3     2    17
 -4.1831816082649875E-01 a       293     1     3     2    18
 -4.0013004928648725E-02 a       294     1     3     2    19
 -1.9301176317405416E-01 a       295     1     3     2    20
  1.0833618110613495E-01 a       296     1     3     2    21
  6.1228110669484903E-01 a       297     1     3     2    22
 -4.4152352569214121E-01 a       298     1     3     2    23
 -5.5606010095617309E-01 a       299     1     3     2    24
  7.4469777675590820E-01 a       300     1     3     2    25
  3.0133907467404730E-01 a       301     1     4     2     1
  8.0115630731496490E-01 a       302     1     4     2     2
  1.2624756595347051E+00 a       303     1     4     2     3
  1.6545784378720407E-01 a       304     1     4     2     4
 -1.2621419846947632E+00 a       305     1     4     2     5
  8.2059988667814621E-01 a       306     1     4     2     6
 -6.2838500867258240E-01 a       307     1     4     2     7
  3.2824112759418411E+00 a       308     1     4     2     8
  2.8345301430357732E-02 a       309     1     4     2     9
 -1.0168327788115266E+00 a       310     1     4     2    10
 -4.8292850866495912E-01 a       311     1     4     2    11
 -1.3150580689654230E+00 a       312     1     4     2    12
 -3.7213605535255667E-01 a       313     1     4     2    13
  9.7854400343935382E+00 a       314     1     4     2    14
 -4.9058158176180960E-01 a       315     1     4     2    15
  1.0485037227948839E+00 a       316     1     4     2    16
  6.1863382227505370E-01 a       317     1     4     2    17
  1.9147710979126704E+00 a       318     1     4     2    18
  6.0926816251649285E-01 a       319     1     4     2    19
 -7.0911505614571713E-02 a       320     1     4     2    20
  9.0498927607971602E-01 a       321     1     4     2    21
 -1.3238784435348783E+00 a       322     1     4     2    22
 -4.8714127285772174E-01 a       323     1     4     2    23
 -2.2270999229945060E-01 a       324     1     4     2    24
 -1.8948254509824878E+00 a       325     1     4     2    25
 -1.1046983326645405E-03 a       326     1     5     2     1
 -2.5248673881721706E-01 a       327     1     5     2     2
 -2.6242635655382696E+00 a       328     1     5     2     3
  2.1662933695916914E-01 a       329     1     5     2     4
  8.0525650145232130E-01 a       330     1     5     2     5
 -8.0860402405488396E-01 a       331     1     5     2     6
 -7.4105616771548832E-01 a       332     1     5     2     7
  1.7224653758980817E+00 a       333     1     5     2     8
 -6.8572433809049860E-01 a       334     1     5     2     9
 -3.5260004388691019E-01 a       335     1     5     2    10
  5.6322659384906626E-01 a       336     1     5     2    11
 -1.6878578645826352E+00 a       337     1     5     2    12
 -1.0407340757742481E-01 a       338     1     5     2    13
 -1.6567040267176556E+00 a       339     1     5     2    14
 -3.0169819260666086E-01 a       340     1     5     2    15
 -5.4260518919089806E-01 a       341     1     5     2    16
 -3.8717963863308502E-01 a       342     1     5     2    17
  3.1333370648817391E+00 a       343     1     5     2    18
  3.2583204288832995E-01 a       344     1     5     2    19
 -6.4939456263945691E-02 a       345     1     5     2    20
 -6.6046151422699388E-04 a       346     1     5     2    21
  9.1792192003966744E-01 a       347     1     5     2    22
 -9.1027040660989078E-01 a       348     1     5     2    23
 -3.4704246721266785E-01 a       349     1     5     2    24
 -1.4024677153744873E+00 a       350     1     5     2    25
 -4.6005979518231871E-01 a       351     1     6     2     1
 -1.4390454157892069E-01 a       352     1     6     2     2
  1.7305056619205299E+00 a       353     1     6     2     3
 -3.0941814803170986E-01 a       354     1     6     2     4
  5.4402305421153395E-02 a       355     1     6     2     5
 -1.6716837389617187E-02 a       356     1     6     2     6
  4.4494828809712911E-01 a       357     1     6     2     7
 -1.9696783460938594E+00 a       358     1     6     2     8
 -1.1984967513142247E-01 a       359     1     6     2     9
 -3.4256652995241615E-01 a       360     1     6     2    10
 -1.7612297313181109E+00 a       361     1     6     2    11
  6.2718002969098108E-01 a       362     1     6     2    12
 -7.5165578265551092E-01 a       363     1     6     2    13
 -4.5187966990800748E+00 a       364     1     6     2    14
  9.8471454359783495E-01 a       365     1     6     2    15
  6.2706668105715846E-02 a       366     1     6     2    16
 -3.7815930717090183E-02 a       367     1     6     2    17
 -3.3573506676330533E-01 a       368     1     6     2    18
  1.4878367643506760E-01 a       369     1     6     2    19
 -1.4966794407424191E+00 a       370     1     6     2    20
  1.1066061029114357E-01 a       371     1     6     2    21
  1.5437616583563915E-01 a       372     1     6     2    22
  6.8370094406237925E-01 a       373     1     6     2    23
 -9.7308435730284037E-01 a       374     1     6     2    24
  1.7315167542105618E+00 a       375     1     6     2    25
 -9.7412039243449577E-01 a       376     1     7     2     1
  5.7850891652679870E-01 a       377     1     7     2     2
 -2.7330620206124268E-01 a       378     1     7     2     3
  2.9936788392639513E-01 a       379     1     7     2     4
  7.1543300345197602E-01 a       380     1     7     2     5
  8.2377659788725588E-01 a       381     1     7     2     6
 -7.4064017378149438E-01 a       382     1     7     2     7
  3.7902128694841672E+00 a       383     1     7     2     8
  9.0621581141744467E-01 a       384     1     7     2     9
  1.4268585920547519E-01 a       385     1     7     2    10
  1.9520160473046937E+00 a       386     1     7     2    11
  1.4099410055730821E-01 a       387     1     7     2    12
  1.3070414045112591E+00 a       388     1     7     2    13
 -1.9275066289641543E+01 a       389     1     7     2    14
  8.0561188278226947E-01 a       390     1     7     2    15
  1.5628221247310921E+00 a       391     1     7     2    16
 -1.6471061473528832E+00 a       392     1     7     2    17
 -9.2326884093005335E-01 a       393     1     7     2    18
 -2.4234174207238549E-01 a       394     1     7     2    19
  1.0396341560624442E+00 a       395     1     7     2    20
  3.5800279742073591E+00 a       396     1     7     2    21
 -1.2148741525442142E+00 a       397     1     7     2    22
 -2.9124556959177204E+00 a       398     1     7     2    23
  1.7154797242929858E+00 a       399     1     7     2    24
  1.0316762804698580E+00 a       400     1     7     2    25
 -3.1945008343039477E-01 a       401     1     8     2     1
 -9.5088382157063100E-01 a       402     1     8     2     2
 -3.3022628917143528E+00 a       403     1     8     2     3
 -3.2846100958252755E-01 a       404     1     8     2     4
  3.6025308905901937E-01 a       405     1     8     2     5
 -2.3951736378843061E-01 a       406     1     8     2     6
 -1.0078534827437677E+00 a       407     1     8     2     7
  7.7272618143464422E-01 a       408     1     8     2     8
 -6.1202462747995001E-01 a       409     1     8     2     9
 -6.3840217697441959E-01 a       410     1     8     2    10
 -4.7021186614284166E-01 a       411     1     8     2    11
 -1.8263151380813145E+00 a       412     1     8     2    12
  9.9575977283689998E-02 a       413     1     8     2    13
 -2.9218571206726068E+01 a       414     1     8     2    14
 -4.0098203813859712E-01 a       415     1     8     2    15
 -1.7751056952782071E-01 a       416     1     8     2    16
  1.7740067175904126E-01 a       417     1     8     2    17
  1.0489913797599923E+00 a       418     1     8     2    18
 -1.6636426705711124E-01 a       419     1     8     2    19
 -1.2612215959824508E-01 a       420     1     8     2    20
  8.8753655067032311E-02 a       421     1     8     2    21
 -1.7646618305710118E-01 a       422     1     8     2    22
 -1.5482237519508799E+00 a       423     1     8     2    23
 -1.0261972981039142E+00 a       424     1     8     2    24
 -3.4958386039051659E-01 a       425     1     8     2    25
  4.5013565921383514E-01 a       426     1     9     2     1
 -2.6325030796819310E-01 a       427     1     9     2     2
  2.1035250714758607E+00 a       428     1     9     2     3
  2.1596722858310338E-01 a       429     1     9     2     4
 -2.6079335012237148E-01 a       430     1     9     2     5
 -1.0090297433114531E-01 a       431     1     9     2     6
  1.2922575122924915E+00 a       432     1     9     2     7
 -1.1241923856557920E+00 a       433     1     9     2     8
 -2.7848443253383856E-02 a       434     1     9     2     9
  1.3128203531217444E+00 a       435     1     9     2    10
 -2.2290617049256638E+00 a       436     1     9     2    11
  3.0551881931733921E-01 a       437     1     9     2    12
 -5.8171509489391870E-02 a       438     1     9     2    13
  8.0368400747960713E+00 a       439     1     9     2    14
 -2.8716116951006360E-01 a       440     1     9     2    15
  1.5986572551419695E+00 a       441     1     9     2    16
  7.0886190028201174E-03 a       442     1     9     2    17
 -1.1863190972091129E+00 a       443     1     9     2    18
 -1.0605006791105471E+00 a       444     1     9     2    19
  6.8617640203701791E-01 a       445     1     9     2    20
 -8.0493967549910861E-01 a       446     1     9     2    21
 -4.7981900994670651E-01 a       447     1     9     2    22
  1.9635164238005263E+00 a       448     1     9     2    23
 -4.8348796539633165E-01 a       449     1     9     2    24
  4.6084228793960896E-01 a       450     1     9     2    25
  7.3770264210332204E-01 a       451     1    10     2     1
 -2.1511835420696879E-01 a       452     1    10     2     2
  2.2740159988208362E-02 a       453     1    10     2     3
  7.5665639658076922E-01 a       454     1    10     2     4
  3.8339782038855841E-01 a       455     1    10     2     5
 -8.5421566587032227E-01 a       456     1    10     2     6
 -2.9828813723545489E-01 a       457     1    10     2     7
  1.2749013333108841E+00 a       458     1    10     2     8
 -1.4476080457322724E-01 a       459     1    10     2     9
  1.2952964013130737E+00 a       460     1    10     2    10
  2.1729154895909128E-01 a       461     1    10     2    11
  1.7644683725117766E-01 a       462     1    10     2    12
  7.2454033127036827E-02 a       463     1    10     2    13
  7.8211030417411980E+00 a       464     1    10     2    14
 -7.4667422137205799E-02 a       465     1    10     2    15
 -9.4199591544334138E-01 a       466     1    10     2    16
 -1.2682877395229901E+00 a       467     1    10     2    17
 -1.3072078082466152E+00 a       468     1    10     2    18
 -7.3539605612543940E-02 a       469     1    10     2    19
  1.0223462255372322E+00 a       470     1    10     2    20
  5.9036115714309345E-01 a       471     1    10     2    21
  1.4853632067002279E-01 a       472     1    10     2    22
  8.7525520126556611E-01 a       473     1    10     2    23
 -2.2962228855719299E-01 a       474     1    10     2    24
 -3.1363311498323992E-01 a       475     1    10     2    25
  1.6351284849715533E+00 a       476     1    11     2     1
  5.5909677790524537E-01 a       477     1    11     2     2
 -1.9283141474937635E+00 a       478     1    11     2     3
  1.1755147195307600E-01 a       479     1    11     2     4
  2.6839192317041727E-01 a       480     1    11     2     5
  1.0073230045723165E-01 a       481     1    11     2     6
  8.8226651522932686E-01 a       482     1    11     2     7
 -4.1804251552311227E+00 a       483     1    11     2     8
  6.2133162094333794E-01 a       484     1    11     2     9
  3.9013061764892467E+00 a       485     1    11     2    10
  1.0467053520853704E+00 a       486     1    11     2    11
  7.3995158604231859E-01 a       487     1    11     2    12
  1.4988581796274094E+00 a       488     1    11     2    13
  4.7482197012795995E+00 a       489     1    11     2    14
 -6.4450893622462324E-01 a       490     1    11     2    15
 -6.7228005349059328E-01 a       491     1    11     2    16
  2.9462554446535137E-02 a       492     1    11     2    17
 -5.3606964074252890E+00 a       493     1    11     2    18
 -5.3113191354540323E-01 a       494     1    11     2    19
  1.0544370491112232E+00 a       495     1    11     2    20
 -1.0310242484509398E+00 a       496     1    11     2    21
  6.5333557928759511E-01 a       497     1    11     2    22
  3.5892595762934452E+00 a       498     1    11     2    23
 -4.2000984001169922E-01 a       499     1    11     2    24
  9.9382845234975270E-01 a       500     1    11     2    25
 -6.2286818874954387E-02 a       501     1    12     2     1
 -3.7187472177087050E-01 a       502     1    12     2     2
 -1.4540228888520264E+00 a       503     1    12     2     3
 -2.6671196469975944E-01 a       504     1    12     2     4
  8.2919160363478683E-01 a       505     1    12     2     5
 -4.3373042446425886E-01 a       506     1    12     2     6
  3.7297794294395842E-01 a       507     1    12     2     7
 -2.5022005030172325E+00 a       508     1    12     2     8
  1.5068295526305550E-01 a       509     1    12     2     9
  8.4022314830023359E-01 a       510     1    12     2    10
 -2.4007622848203636E-01 a       511     1    12     2    11
 -8.8542510954048947E-01 a       512     1    12     2    12
  3.2098019187330462E-01 a       513     1    12     2    13
 -1.4305078324684828E+01 a       514     1    12     2    14
  2.9617411429705165E-01 a       515     1    12     2    15
 -1.3007317962912646E+00 a       516     1    12     2    16
 -6.2774938006288239E-01 a       517     1    12     2    17
  1.9138770130323818E-01 a       518     1    12     2    18
 -4.4539155529642072E-01 a       519     1    12     2    19
 -5.6102429129064746E-01 a       520     1    12     2    20
 -7.1735654144920530E-02 a       521     1    12     2    21
  2.6550181117280611E-02 a       522     1    12     2    22
  1.1059598395443719E+00 a       523     1    12     2    23
 -9.9646322385016461E-01 a       524     1    12     2    24
  1.2156418706055622E-01 a       525     1    12     2    25
  2.4919797481683134E-01 a       526     1    13     2     1
 -1.1719435388794097E+00 a       527     1    13     2     2
  3.8794043707166947E-01 a       528     1    13     2     3
  2.7370472810922419E-01 a       529     1    13     2     4
 -2.2741677238661157E-01 a       530     1    13     2     5
  6.0994149634104722E-01 a       531     1    13     2     6
  9.5884659577513270E-02 a       532     1    13     2     7
 -5.3826654705850863E-01 a       533     1    13     2     8
  5.3703762549986100E-01 a       534     1    13     2     9
  5.9594562156449871E-01 a       535     1    13     2    10
  4.5666058363471673E-01 a       536     1    13     2    11
 -9.3520962561387266E-01 a       537     1    13     2    12
 -9.6354043844057297E-02 a       538     1    13     2    13
 -5.0151228847476259E-01 a       539     1    13     2    14
  2.9391630749142302E-02 a       540     1    13     2    15
 -1.4234735572092596E+00 a       541     1    13     2    16
  3.5135264260012775E-02 a       542     1    13     2    17
  2.9713959028398773E-01 a       543     1    13     2    18
  3.2453240938083182E-02 a       544     1    13     2    19
  8.1385211980239880E-01 a       545     1    13     2    20
  1.0224480102955673E+00 a       546     1    13     2    21
 -2.1754604506473463E-01 a       547     1    13     2    22
 -7.7741934449980954E-01 a       548     1    13     2    23
 -1.0030711135396370E-01 a       549     1    13     2    24
  1.2039381560861448E-01 a       550     1    13     2    25
  9.4929736636187667E-01 a       551     1    14     2     1
  1.1729157523410958E+00 a       552     1    14     2     2
  1.3194388063806914E-01 a       553     1    14     2     3
  7.9667404598018488E-01 a       554     1    14     2     4
  2.1894863554730629E-01 a       555     1    14     2     5
 -3.7591988515135910E-01 a       556     1    14     2     6
  1.4161520369972540E+00 a       557     1    14     2     7
  6.7526048330122335E-01 a       558     1    14     2     8
  6.8264737311708223E-01 a       559     1    14     2     9
  2.1244234315737986E+00 a       560     1    14     2    10
 -3.6429666028847724E-01 a       561     1    14     2    11
  1.5320417495200565E+00 a       562     1    14     2    12
 -1.3934503204313811E-01 a       563     1    14     2    13
  3.0095407393232957E+01 a       564     1    14     2    14
 -7.1242555958270415E-01 a       565     1    14     2    15
 -1.0983425602180312E+00 a       566     1    14     2    16
 -6.7654801410628096E-01 a       567     1    14     2    17
 -1.9302022725126755E+00 a       568     1    14     2    18
  5.1332704950278218E-01 a       569     1    14     2    19
  1.5460843794910539E+00 a       570     1    14     2    20
 -4.3057936332344871E-01 a       571     1    14     2    21
 -9.7735050083918718E-01 a       572     1    14     2    22
  7.4458679520364079E-01 a       573     1    14     2    23
  6.3368349027963333E-01 a       574     1    14     2    24
  2.0959753062356448E-02 a       575     1    14     2    25
 -1.8485498312221544E+00 a       576     1    15     2     1
 -8.5371972969036469E-01 a       577     1    15     2     2
  2.1853170964149538E+00 a       578     1    15     2     3
  8.2024845352843867E-01 a       579     1    15     2     4
 -3.8560228727568990E-01 a       580     1    15     2     5
 -6.3728128997083050E-02 a       581     1    15     2     6
 -2.4129654783971222E+00 a       582     1    15     2     7
 -3.0680964818879775E-01 a       583     1    15     2     8
 -2.1806532663589051E-01 a       584     1    15     2     9
 -2.8664465264835974E+00 a       585     1    15     2    10
  6.7434308355675987E-01 a       586     1    15     2    11
 -9.3945684766183724E-01 a       587     1    15     2    12
 -6.0289032436078227E-01 a       588     1    15     2    13
 -3.1776319896447649E+01 a       589     1    15     2    14
  2.6318161302198724E+00 a       590     1    15     2    15
  1.2721464457194067E+00 a       591     1    15     2    16
  3.3360376202220068E+00 a       592     1    15     2    17
 -2.1898529378441212E+00 a       593     1    15     2    18
 -2.0279541039338000E-01 a       594     1    15     2    19
 -2.2023083060987658E+00 a       595     1    15     2    20
  1.4061572844522325E+00 a       596     1    15     2    21
  1.2101270287217267E+00 a       597     1    15     2    22
 -2.0358320619441868E+00 a       598     1    15     2    23
  3.2837128402703625E-01 a       599     1    15     2    24
  1.3426103548643866E+00 a       600     1    15     2    25
  1.5178137564810761E+00 a       601     1    16     2     1
  1.1560440895140123E+00 a       602     1    16     2     2
 -2.3107751888718968E+00 a       603     1    16     2     3
  1.3175847712741302E+00 a       604     1    16     2     4
  1.1248553667417256E+00 a       605     1    16     2     5
 -1.3022008734772204E+00 a       606     1    16     2     6
 -4.0940989465717220E-01 a       607     1    16     2     7
  8.5714750229010528E-01 a       608     1    16     2     8
 -1.9836954489240147E-01 a       609     1    16     2     9
 -2.7212499618050551E-01 a       610     1    16     2    10
  6.2199751306662499E-01 a       611     1    16     2    11
 -4.7220850912767212E+00 a       612     1    16     2    12
 -4.3818906546760900E-01 a       613     1    16     2    13
  1.9459314067730428E+01 a       614     1    16     2    14
  1.6843673552404932E+00 a       615     1    16     2    15
 -1.8145900554625378E+00 a       616     1    16     2    16
  8.7553456639827076E-01 a       617     1    16     2    17
  2.8325405281869211E+00 a       618     1    16     2    18
  5.7820037602580521E-01 a       619     1    16     2    19
 -1.2234448268161893E+00 a       620     1    16     2    20
  2.6341116561868634E+00 a       621     1    16     2    21
  6.3564431444436131E-01 a       622     1    16     2    22
 -2.6772023770031477E+00 a       623     1    16     2    23
 -1.2966739439298705E+00 a       624     1    16     2    24
 -3.0411436866693244E+00 a       625     1    16     2    25
 -1.3408834041648340E-01 a       626     1    17     2     1
  3.3225759066885874E-01 a       627     1    17     2     2
  1.6383826946005864E+00 a       628     1    17     2     3
 -6.9680600397055717E-02 a       629     1    17     2     4
 -1.0177582360617410E+00 a       630     1    17     2     5
  1.1489235829257165E+00 a       631     1    17     2     6
 -5.4950588580161253E-01 a       632     1    17     2     7
 -5.1624967457490112E-01 a       633     1    17     2     8
  1.3298253221838097E-01 a       634     1    17     2     9
 -8.4239542092038266E-02 a       635     1    17     2    10
  3.9725807377437150E-01 a       636     1    17     2    11
  1.1370638875386156E+00 a       637     1    17     2    12
  1.7198254969683247E+00 a       638     1    17     2    13
 -8.2401131095495543E+00 a       639     1    17     2    14
 -2.7056060508418489E-01 a       640     1    17     2    15
 -2.1990261534253688E+00 a       641     1    17     2    16
  7.3207106946583583E-02 a       642     1    17     2    17
 -3.2998224712064550E+00 a       643     1    17     2    18
  1.4994796301940719E-01 a       644     1    17     2    19
 -2.7871765226559442E-01 a       645     1    17     2    20
 -1.1978584120470455E-01 a       646     1    17     2    21
 -1.3474254989360970E+00 a       647     1    17     2    22
  8.3457649043489202E-01 a       648     1    17     2    23
  1.5308816845406801E+00 a       649     1    17     2    24
  1.4293375298055122E-01 a       650     1    17     2    25
  1.0284869169790414E+00 a       651     1    18     2     1
 -9.7825476978466741E-01 a       652     1    18     2     2
 -2.4162300432204571E+00 a       653     1    18     2     3
 -2.9011315250443113E-02 a       654     1    18     2     4
  5.6503529333571134E-01 a       655     1    18     2     5
 -9.8585127722182253E-02 a       656     1    18     2     6
  2.0534690567468421E+00 a       657     1    18     2     7
 -3.4601584147732902E+00 a       658     1    18     2     8
  5.2142686885259609E-02 a       659     1    18     2     9
  2.2278142782707824E+00 a       660     1    18     2    10
 -7.0604998392449758E-01 a       661     1    18     2    11
  2.9766369998370856E+00 a       662     1    18     2    12
 -3.1088010589523374E-01 a       663     1    18     2    13
  6.7684552025202667E+00 a       664     1    18     2    14
 -8.2829295549507731E-01 a       665     1    18     2    15
 -5.3251353722773080E+00 a       666     1    18     2    16
 -2.9564511552871725E-01 a       667     1    18     2    17
 -3.8365054147418687E+00 a       668     1    18     2    18
 -4.9840483439749977E-01 a       669     1    18     2    19
  3.7154140827620336E-01 a       670     1    18     2    20
 -1.5791605595755438E+00 a       671     1    18     2    21
  6.0201414986056045E-01 a       672     1    18     2    22
  5.6243490024356957E-01 a       673     1    18     2    23
  3.0427153671681567E-01 a       674     1    18     2    24
  2.4542957525586266E+00 a       675     1    18     2    25
 -2.0690067903881171E-01 a       676     1    19     2     1
  5.0771858654992508E-02 a       677     1    19     2     2
  1.5520155444564547E+00 a       678     1    19     2     3
 -4.3380450454481634E-01 a       679     1    19     2     4
 -2.1903788786185192E+00 a       680     1    19     2     5
  8.7347898856645767E-01 a       681     1    19     2     6
 -3.9912222705680125E+00 a       682     1    19     2     7
  1.7126099797647945E+00 a       683     1    19     2     8
 -8.9734674394215036E-02 a       684     1    19     2     9
 -1.7807000070247294E+00 a       685     1    19     2    10
  1.8479524664033561E-01 a       686     1    19     2    11
  1.3867585674987426E+00 a       687     1    19     2    12
  4.9027504812634015E-01 a       688     1    19     2    13
  8.0250533867118783E+00 a       689     1    19     2    14
 -3.3461674402515085E-01 a       690     1    19     2    15
  2.3234044600731121E+00 a       691     1    19     2    16
  4.2910900313553507E-01 a       692     1    19     2    17
  1.1036581889067880E+00 a       693     1    19     2    18
  3.3597914248208299E-01 a       694     1    19     2    19
 -3.4804119303625686E-01 a       695     1    19     2    20
  3.4461429301031893E-01 a       696     1    19     2    21
 -1.3318687852882489E+00 a       697     1    19     2    22
  1.1431990164194890E+00 a       698     1    19     2    23
  7.0749566112696982E-01 a       699     1    19     2    24
 -1.1707122791450601E-01 a       700     1    19     2    25
  1.0512165690560447E+00 a       701     1    20     2     1
 -6.0885137993449157E-01 a       702     1    20     2     2
  1.6415853206204254E+00 a       703     1    20     2     3
  6.1672996532311553E-01 a       704     1    20     2     4
 -6.1187047601563260E-01 a       705     1    20     2     5
  3.1804203740725689E-01 a       706     1    20     2     6
 -1.5169317278087986E+00 a       707     1    20     2     7
 -4.8724738980398041E-01 a       708     1    20     2     8
  1.6537447677067624E-02 a       709     1    20     2     9
  1.4165981170729514E+00 a       710     1    20     2    10
 -1.4166283143545477E-01 a       711     1    20     2    11
 -8.0004790818115246E-01 a       712     1    20     2    12
  8.4828341257506157E-01 a       713     1    20     2    13
  5.6563925013117240E+00 a       714     1    20     2    14
 -1.1568511068299807E+00 a       715     1    20     2    15
  5.1232848589855406E-01 a       716     1    20     2    16
 -4.5536939049951086E-01 a       717     1    20     2    17
  1.5026117759554454E+00 a       718     1    20     2    18
 -7.6737558739960487E-01 a       719     1    20     2    19
  1.7004925852788892E+00 a       720     1    20     2    20
  5.8730974152498816E-01 a       721     1    20     2    21
 -1.4542045018369687E+00 a       722     1    20     2    22
 -2.0740835322126903E+00 a       723     1    20     2    23
 -6.9645887834157219E-02 a       724     1    20     2    24
 -1.4600118152647146E+00 a       725     1    20     2    25
 -2.5654185851723788E-01 a       726     1    21     2     1
 -2.5681354225449227E-01 a       727     1    21     2     2
 -4.0743869581857268E+00 a       728     1    21     2     3
  2.3290450646897290E-01 a       729     1    21     2     4
  1.3739710232829230E+00 a       730     1    21     2     5
 -9.8407214645410634E-01 a       731     1    21     2     6
  3.0910295698895993E+00 a       732     1    21     2     7
  6.3636258431119752E-01 a       733     1    21     2     8
  8.0094359584029728E-01 a       734     1    21     2     9
  7.8375977209875047E-01 a       735     1    21     2    10
  2.1336199837286860E+00 a       736     1    21     2    11
  2.7993419554695098E-01 a       737     1    21     2    12
 -1.7287838172729928E+00 a       738     1    21     2    13
  4.4221440886634739E-01 a       739     1    21     2    14
  4.5981254443403605E-02 a       740     1    21     2    15
  2.7478289376654579E+00 a       741     1    21     2    16
 -5.5986618013361444E-01 a       742     1    21     2    17
 -6.5075048259925328E-01 a       743     1    21     2    18
 -5.5267157091328367E-01 a       744     1    21     2    19
  1.9759028329156900E-01 a       745     1    21     2    20
 -1.8712545472925704E-01 a       746     1    21     2    21
  1.1732313747255756E+00 a       747     1    21     2    22
 -7.5176252947003630E-01 a       748     1    21     2    23
  6.3314175707546536E-02 a       749     1    21     2    24
  1.2293462504700627E-01 a       750     1    21     2    25
  8.9004199178557131E-01 a       751     1    22     2     1
 -1.0626001051113567E+00 a       752     1    22     2     2
  3.1260435376595114E-01 a       753     1    22     2     3
 -9.0765626651234410E-01 a       754     1    22     2     4
 -5.5095657400954468E-01 a       755     1    22     2     5
  1.2731484420577210E+00 a       756     1    22     2     6
  1.1948610856526296E+00 a       757     1    22     2     7
  2.4000179159977553E-01 a       758     1    22     2     8
  2.5591567749220578E-01 a       759     1    22     2     9
  4.6899555314252633E-01 a       760     1    22     2    10
  1.4730969969578240E+00 a       761     1    22     2    11
  5.3201032284337502E-01 a       762     1    22     2    12
  6.0455205487488706E-01 a       763     1    22     2    13
  1.7899515069835271E+01 a       764     1    22     2    14
 -1.0153281293838772E+00 a       765     1    22     2    15
  4.5434436425526598E-03 a       766     1    22     2    16
 -2.9664049048623653E+00 a       767     1    22     2    17
  1.6132503224890282E+00 a       768     1    22     2    18
  5.9859288662888685E-02 a       769     1    22     2    19
  8.2122945193884178E-01 a       770     1    22     2    20
 -8.2156248349550653E-02 a       771     1    22     2    21
  2.8673089552235104E-02 a       772     1    22     2    22
 -2.1539968976895382E-01 a       773     1    22     2    23
  1.6168251896798580E-01 a       774     1    22     2    24
 -9.1126940135027679E-01 a       775     1    22     2    25
 -1.8929922439937855E-01 a       776     1    23     2     1
 -1.3008796056777781E+00 a       777     1    23     2     2
 -3.2685230405353816E-01 a       778     1    23     2     3
  6.2065340838485428E-01 a       779     1    23     2     4
  2.2138450165625886E-01 a       780     1    23     2     5
  1.7006962658506031E-01 a       781     1    23     2     6
  2.5098988522530550E+00 a       782     1    23     2     7
  5.0424898935294427E-01 a       783     1    23     2     8
  5.7866912184090868E-01 a       784     1    23     2     9
  6.3672831860553192E-01 a       785     1    23     2    10
  1.0186673708723333E+00 a       786     1    23     2    11
  3.9686012093689782E-01 a       787     1    23     2    12
 -6.1203498678786472E-01 a       788     1    23     2    13
 -7.7090314534466406E+00 a       789     1    23     2    14
 -5.2367096959089654E-01 a       790     1    23     2    15
 -1.7512316903410710E+00 a       791     1    23     2    16
 -1.5194319896332037E-01 a       792     1    23     2    17
 -1.7708124811243942E+00 a       793     1    23     2    18
  1.5438099088670817E-02 a       794     1    23     2    19
  1.0658368167582821E+00 a       795     1    23     2    20
  2.0540142764723648E-01 a       796     1    23     2    21
 -2.9201202243920893E-01 a       797     1    23     2    22
 -1.5809050032354344E+00 a       798     1    23     2    23
 -7.0848782128057575E-01 a       799     1    23     2    24
  4.6659931242137777E-02 a       800     1    23     2    25
  1.0296614234917344E-01 a       801     1    24     2     1
 -7.9738640730518906E-01 a       802     1    24     2     2
  1.4237897524120695E+00 a       803     1    24     2     3
 -7.3210631169315560E-02 a       804     1    24     2     4
 -6.7607244881107209E-01 a       805     1    24     2     5
  6.6714382314895848E-01 a       806     1    24     2     6
 -8.6410911592939421E-01 a       807     1    24     2     7
 -3.1070575663228128E-01 a       808     1    24     2     8
 -2.6768275929513791E-01 a       809     1    24     2     9
 -3.9402326123388604E-01 a       810     1    24     2    10
  6.0851676685632450E-01 a       811     1    24     2    11
  3.2521972928368276E-01 a       812     1    24     2    12
  8.7094940467577575E-01 a       813     1    24     2    13
 -5.2784818655882777E+00 a       814     1    24     2    14
 -1.0381629183223449E+00 a       815     1    24     2    15
  2.0283861569705675E+00 a       816     1    24     2    16
  3.9977392737965328E-01 a       817     1    24     2    17
  1.7338541433490759E+00 a       818     1    24     2    18
 -7.9064642548307071E-03 a       819     1    24     2    19
 -3.0067251216957736E-01 a       820     1    24     2    20
 -1.1805262896289812E+00 a       821     1    24     2    21
 -3.5084212107723012E-01 a       822     1    24     2    22
  5.1298597858450301E-01 a       823     1    24     2    23
  1.0757500479455153E+00 a       824     1    24     2    24
  1.6272933797190078E-01 a       825     1    24     2    25
 -1.3065349358703207E-01 a       826     1    25     2     1
 -8.9290850242069753E-01 a       827     1    25     2     2
 -3.1645265203045314E+00 a       828     1    25     2     3
 -1.0889057875147359E+00 a       829     1    25     2     4
  3.8924479422075225E-01 a       830     1    25     2     5
 -1.7204574889964028E+00 a       831     1    25     2     6
  1.9463394637846805E+00 a       832     1    25     2     7
  2.0175141724392973E+00 a       833     1    25     2     8
 -1.1779908714403258E+00 a       834     1    25     2     9
 -1.5371628562431709E+00 a       835     1    25     2    10
 -1.3871540749210702E+00 a       836     1    25     2    11
  2.4502457550385386E+00 a       837     1    25     2    12
 -1.7225810697010475E+00 a       838     1    25     2    13
  1.5189435085439382E-02 a       839     1    25     2    14
  2.4258425040958512E-01 a       840     1    25     2    15
 -1.3772486014403393E+00 a       841     1    25     2    16
  1.1166839765985350E+00 a       842     1    25     2    17
 -3.0622685958021911E+00 a       843     1    25     2    18
  7.6772900931994659E-01 a       844     1    25     2    19
 -7.1129535182175430E-01 a       845     1    25     2    20
 -2.2942240915105803E+00 a       846     1    25     2    21
  2.1955925043765605E+00 a       847     1    25     2    22
  2.2809938664015794E+00 a       848     1    25     2    23
 -1.2730059119239368E+00 a       849     1    25     2    24
  1.2828058798273407E+00 a       850     1    25     2    25
 -2.6665507927687715E+00 b       851     2     1
 -1.8230511570786884E-01 b       852     2     2
  5.2459597792505015E+00 b       853     2     3
 -2.2708469467061470E+00 b       854     2     4
 -1.2708661366850387E+00 b       855     2     5
  4.7359141814001193E-01 b       856     2     6
 -9.4336820705479399E-02 b       857     2     7
 -1.1700748894211734E+00 b       858     2     8
 -9.3533085818095008E-01 b       859     2     9
 -2.3603852352073429E+00 b       860     2    10
 -3.0653255114451290E+00 b       861     2    11
  1.7840947745251006E+00 b       862     2    12
  1.4564514799406518E+00 b       863     2    13
  4.6130062194045323E+00 b       864     2    14
  2.0602355897802687E+00 b       865     2    15
  3.0175730622527452E+00 b       866     2    16
  7.4300977599819351E-01 b       867     2    17
  3.7702945625395490E+00 b       868     2    18
 -3.2429915685319449E-01 b       869     2    19
 -8.2971259238484019E-01 b       870     2    20
 -1.6294970374804427E-01 b       871     2    21
 -5.9507945028651070E+00 b       872     2    22
  6.5926540643294622E+00 b       873     2    23
  1.4093129607375516E+00 b       874     2    24
 -1.3618813600760822E+00 b       875     2    25
  4.0262815303865447E-02 a       876     2     1     3     1
  1.3229049837757420E-01 a       877     2     2     3     1
 -1.5732935424441472E-02 a       878     2     3     3     1
  1.9908551560828252E-02 a       879     2     4     3     1
  6.5055878429296526E-02 a       880     2     5     3     1
 -1.6083593311330158E-01 a       881     2     6     3     1
  6.2188813612600894E-03 a       882     2     7     3     1
 -1.3371971803157506E-02 a       883     2     8     3     1
  4.2678647184861619E-02 a       884     2     9     3     1
 -4.6553818459556265E-02 a       885     2    10     3     1
  2.1541239291647266E-02 a       886     2    11     3     1
  1.4671775515530887E-02 a       887     2    12     3     1
 -7.7234342108803040E-03 a       888     2    13     3     1
 -8.5545120625033055E-01 a       889     2    14     3     1
 -3.4106620790407709E-02 a       890     2    15     3     1
 -6.7383361863688651E-02 a       891     2    16     3     1
  5.7728090689638835E-02 a       892     2    17     3     1
 -8.3758121277513562E-03 a       893     2    18     3     1
  3.2274382964808161E-02 a       894     2    19     3     1
  2.2659037013425413E-02 a       895     2    20     3     1
  8.5090518208953587E-03 a       896     2    21     3     1
 -4.3867188190367177E+00 a       897     2    22     3     1
  6.0098080263438275E-03 a       898     2    23     3     1
  9.4219612498584113E-02 a       899     2    24     3     1
 -1.0983751586728761E-02 a       900     2    25     3     1
  3.5985592261396260E-01 b       901     3     1
