################################################################################
# Neural network connection values (weights and biases).
################################################################################
# Col  Name       Description
################################################################################
# 1    connection Neural network connection value.
# 2    t          Connection type (a = weight, b = bias).
# 3    index      Index enumerating weights.
# 4    l_s        Starting point layer (end point layer for biases).
# 5    n_s        Starting point neuron in starting layer (end point neuron for biases).
# 6    l_e        End point layer.
# 7    n_e        End point neuron in end layer.
################################################################################
#                      1 2         3     4     5     6     7
#             connection t     index   l_s   n_s   l_e   n_e
############################################################
 -1.3168835185154073E+00 a         1     0     1     1     1
  1.0495446830380746E+00 a         2     0     1     1     2
  3.4521462476788254E+00 a         3     0     1     1     3
 -6.7788268939845935E+00 a         4     0     1     1     4
  4.0497168621444075E+00 a         5     0     1     1     5
  3.9445719495053422E-01 a         6     0     1     1     6
 -3.3894547520296139E+00 a         7     0     1     1     7
 -2.9229601215218790E+00 a         8     0     1     1     8
 -4.6531377713042952E+00 a         9     0     1     1     9
 -2.1280328274762170E+00 a        10     0     1     1    10
  6.8404213512642187E+00 a        11     0     1     1    11
  1.6195330350647601E+00 a        12     0     1     1    12
  2.3829294111155934E+00 a        13     0     1     1    13
  3.8259201634125746E+00 a        14     0     1     1    14
 -2.2962145418182847E-01 a        15     0     1     1    15
 -5.3032850156392879E+00 a        16     0     1     1    16
  6.3345559095103354E+00 a        17     0     1     1    17
 -7.4675290510505210E-01 a        18     0     1     1    18
  2.8613714150933922E+00 a        19     0     1     1    19
 -1.8858868065523631E+00 a        20     0     1     1    20
 -4.2701840739093200E-01 a        21     0     1     1    21
  1.9348136701274983E+00 a        22     0     1     1    22
  3.9651358926852192E+00 a        23     0     1     1    23
 -6.6784748515295578E-01 a        24     0     1     1    24
  6.6577322914390091E+00 a        25     0     1     1    25
  5.4053415189060788E-02 a        26     0     2     1     1
  1.4508088133135164E-01 a        27     0     2     1     2
  1.1322408224667231E+00 a        28     0     2     1     3
  4.6009306184957482E-01 a        29     0     2     1     4
 -5.7382385311041695E-01 a        30     0     2     1     5
 -2.8071055484753804E-01 a        31     0     2     1     6
  1.2304401452224163E+00 a        32     0     2     1     7
  4.9043917357588631E+00 a        33     0     2     1     8
 -8.6474561902228309E-01 a        34     0     2     1     9
  3.2051751067543743E+00 a        35     0     2     1    10
 -1.1564509180455929E+00 a        36     0     2     1    11
  2.8300498637778313E+00 a        37     0     2     1    12
 -1.7755217110553376E-01 a        38     0     2     1    13
 -3.0712665042999693E-01 a        39     0     2     1    14
  1.0954523817138804E+00 a        40     0     2     1    15
  4.2553442248732214E+00 a        41     0     2     1    16
  7.4584566595479518E-01 a        42     0     2     1    17
  7.9172966573133596E-01 a        43     0     2     1    18
 -1.6260809661274354E+00 a        44     0     2     1    19
 -1.4383504903437508E-01 a        45     0     2     1    20
 -4.2914992105649480E-01 a        46     0     2     1    21
 -1.0722224751235370E+00 a        47     0     2     1    22
  1.5014910161967105E+00 a        48     0     2     1    23
  1.2881571395254052E+00 a        49     0     2     1    24
 -1.3383991648199498E+00 a        50     0     2     1    25
  2.6406968278305382E-01 a        51     0     3     1     1
  9.2487183813404572E-01 a        52     0     3     1     2
 -1.7395405253208753E+00 a        53     0     3     1     3
  1.8946185263431037E+00 a        54     0     3     1     4
 -3.2500794965668360E+00 a        55     0     3     1     5
 -2.4211176916876989E+00 a        56     0     3     1     6
  2.8793257834898012E+00 a        57     0     3     1     7
 -1.7098014543060840E+00 a        58     0     3     1     8
 -5.1144523934594448E-02 a        59     0     3     1     9
  1.1565308144293041E+00 a        60     0     3     1    10
 -3.1984188036239960E+00 a        61     0     3     1    11
 -1.6300465130123276E+00 a        62     0     3     1    12
 -4.0852690311090649E+00 a        63     0     3     1    13
 -3.4131859351528293E+00 a        64     0     3     1    14
 -3.7524786815373873E-01 a        65     0     3     1    15
  2.2292395428889278E+00 a        66     0     3     1    16
 -5.2057459347080108E+00 a        67     0     3     1    17
  5.1722160989388666E-01 a        68     0     3     1    18
  1.6947234018856823E+00 a        69     0     3     1    19
 -2.7461536044120571E-01 a        70     0     3     1    20
 -5.8390690268289902E-01 a        71     0     3     1    21
 -3.7062749790312135E+00 a        72     0     3     1    22
 -2.4191990147350602E+00 a        73     0     3     1    23
 -1.4122380295573911E+00 a        74     0     3     1    24
 -3.9573198811469390E+00 a        75     0     3     1    25
  5.3093916773014227E-01 a        76     0     4     1     1
 -6.1867245962081863E-01 a        77     0     4     1     2
 -1.6673226008052160E+00 a        78     0     4     1     3
  1.4114621546172199E+00 a        79     0     4     1     4
 -1.7272712627577305E-01 a        80     0     4     1     5
  7.7908023475469168E-01 a        81     0     4     1     6
 -4.2739818232664789E-02 a        82     0     4     1     7
  3.4651116341430227E-01 a        83     0     4     1     8
  1.6770275724547861E+00 a        84     0     4     1     9
 -3.0537114977218732E-01 a        85     0     4     1    10
 -1.4667103371862751E+00 a        86     0     4     1    11
 -2.2139666791515680E+00 a        87     0     4     1    12
  1.1726672400458731E+00 a        88     0     4     1    13
  9.1644239420526949E-02 a        89     0     4     1    14
 -4.0205131391516785E-01 a        90     0     4     1    15
 -3.7621967092267095E-01 a        91     0     4     1    16
 -1.5464496671464019E+00 a        92     0     4     1    17
  1.8438035444991432E-01 a        93     0     4     1    18
 -6.4779913224372687E-01 a        94     0     4     1    19
  1.0645685236335909E+00 a        95     0     4     1    20
  1.9663370462743229E-01 a        96     0     4     1    21
  9.5968568046649261E-01 a        97     0     4     1    22
 -2.0642276395888048E+00 a        98     0     4     1    23
 -7.5517106007423807E-01 a        99     0     4     1    24
 -1.7085996235927750E+00 a       100     0     4     1    25
  1.3687896768421206E+00 a       101     0     5     1     1
  1.8010288887681227E+00 a       102     0     5     1     2
  4.7172256431378595E-01 a       103     0     5     1     3
 -1.0501854061638434E+00 a       104     0     5     1     4
 -5.3737286182074284E-01 a       105     0     5     1     5
 -6.8411326573560949E-01 a       106     0     5     1     6
  1.6738561321915843E-01 a       107     0     5     1     7
 -2.0914588617730237E-01 a       108     0     5     1     8
 -4.2761185589776435E-01 a       109     0     5     1     9
 -5.9795480970420556E-01 a       110     0     5     1    10
  3.7436980834614712E-02 a       111     0     5     1    11
  5.0249700988037183E-01 a       112     0     5     1    12
 -9.6367060546329353E-01 a       113     0     5     1    13
  4.8515752733653528E-01 a       114     0     5     1    14
 -4.3434229967716503E-01 a       115     0     5     1    15
 -9.5799229355591442E-01 a       116     0     5     1    16
  1.3032264421046118E+00 a       117     0     5     1    17
 -1.1711881660388433E-01 a       118     0     5     1    18
  1.9403483148677165E+00 a       119     0     5     1    19
  3.5908149228814207E-01 a       120     0     5     1    20
  5.9253621717082083E-01 a       121     0     5     1    21
 -2.0194036243981153E-01 a       122     0     5     1    22
 -8.3848907765246162E-03 a       123     0     5     1    23
 -4.5898868938820586E-02 a       124     0     5     1    24
  1.7711435954933972E+00 a       125     0     5     1    25
 -8.6407566667642732E-01 a       126     0     6     1     1
 -5.1314014998853219E-01 a       127     0     6     1     2
  7.7202013407992076E-01 a       128     0     6     1     3
  1.7313608513253396E+00 a       129     0     6     1     4
  1.2412904546336301E-01 a       130     0     6     1     5
  1.0657372288687837E-01 a       131     0     6     1     6
  4.3455628054284895E-01 a       132     0     6     1     7
 -9.2267414533546310E-01 a       133     0     6     1     8
  9.6500839503532332E-01 a       134     0     6     1     9
 -7.2567033800393377E-01 a       135     0     6     1    10
 -1.9721705310238156E+00 a       136     0     6     1    11
 -6.9302203970665199E-01 a       137     0     6     1    12
  1.1536488418071802E+00 a       138     0     6     1    13
 -1.6613551521554215E+00 a       139     0     6     1    14
 -1.2274602736254534E+00 a       140     0     6     1    15
 -4.7246708137538611E-02 a       141     0     6     1    16
 -1.2454521793030209E+00 a       142     0     6     1    17
 -8.1952599395072367E-01 a       143     0     6     1    18
  3.3991022232688234E-01 a       144     0     6     1    19
  3.9773399727805159E-01 a       145     0     6     1    20
 -2.2428246325937744E-02 a       146     0     6     1    21
  5.9162535607009581E-01 a       147     0     6     1    22
 -1.2679345838062657E+00 a       148     0     6     1    23
  5.9434630553626251E-02 a       149     0     6     1    24
 -2.3110550180133407E+00 a       150     0     6     1    25
 -2.7975180654658788E-01 a       151     0     7     1     1
 -1.5539979136455349E+00 a       152     0     7     1     2
  1.2886706140344395E+00 a       153     0     7     1     3
 -2.0856152232728040E+00 a       154     0     7     1     4
  1.4737415561438509E+00 a       155     0     7     1     5
 -3.1749093590144423E-01 a       156     0     7     1     6
 -6.9298468390723211E-01 a       157     0     7     1     7
 -4.4446761465478337E+00 a       158     0     7     1     8
 -7.9848080326418025E-01 a       159     0     7     1     9
 -1.9650781241072479E+00 a       160     0     7     1    10
  2.0855081964252031E+00 a       161     0     7     1    11
 -4.5966903518645313E-01 a       162     0     7     1    12
 -1.3991447285051963E+00 a       163     0     7     1    13
  1.3328154724197758E+00 a       164     0     7     1    14
 -3.3314288985247281E-01 a       165     0     7     1    15
 -2.7914321669884274E+00 a       166     0     7     1    16
  2.4813658159309027E+00 a       167     0     7     1    17
 -3.4457617067607471E-02 a       168     0     7     1    18
 -7.4815201110071627E-01 a       169     0     7     1    19
  1.6233986294782890E-01 a       170     0     7     1    20
  1.3174918119724954E+00 a       171     0     7     1    21
 -3.9676261711605709E-01 a       172     0     7     1    22
  1.2639997298362866E+00 a       173     0     7     1    23
  1.5337190827253119E-03 a       174     0     7     1    24
  3.3758142348859690E+00 a       175     0     7     1    25
 -5.6432778582664522E-01 a       176     0     8     1     1
 -6.1043736525566306E-01 a       177     0     8     1     2
  8.0693845106536000E-01 a       178     0     8     1     3
 -3.4884208187475708E-02 a       179     0     8     1     4
 -9.5200169792846556E-01 a       180     0     8     1     5
 -3.3078709030156261E-01 a       181     0     8     1     6
 -9.0652999561408865E-01 a       182     0     8     1     7
 -2.3597235903284880E-01 a       183     0     8     1     8
  1.0717728409932491E-01 a       184     0     8     1     9
 -1.4690959668473624E-01 a       185     0     8     1    10
 -4.4229262282659282E-01 a       186     0     8     1    11
  4.0442568432322423E-01 a       187     0     8     1    12
  3.3138536781342887E-01 a       188     0     8     1    13
 -1.1859953649239701E+00 a       189     0     8     1    14
  2.0258565917047064E-01 a       190     0     8     1    15
 -2.7830461734741124E-01 a       191     0     8     1    16
 -9.9203031882641068E-01 a       192     0     8     1    17
  5.5897791691965137E-01 a       193     0     8     1    18
 -4.3279258670445625E-01 a       194     0     8     1    19
 -1.7134653795893318E-01 a       195     0     8     1    20
 -4.4498654347175960E-02 a       196     0     8     1    21
  1.3545781541949123E-01 a       197     0     8     1    22
 -4.4991883064107696E-01 a       198     0     8     1    23
 -2.0254747160173678E-01 a       199     0     8     1    24
 -1.1688591777324395E+00 a       200     0     8     1    25
 -3.8876767752545327E-01 a       201     0     9     1     1
  7.1983571553012815E-01 a       202     0     9     1     2
 -1.4532647092213516E-01 a       203     0     9     1     3
 -8.9124626317788413E-01 a       204     0     9     1     4
 -1.3678564278139768E-01 a       205     0     9     1     5
  5.7647812325981862E-01 a       206     0     9     1     6
 -9.0547918851226961E-01 a       207     0     9     1     7
  6.1714267912072407E-01 a       208     0     9     1     8
  4.4203182518195794E-01 a       209     0     9     1     9
 -3.1053465913518663E-01 a       210     0     9     1    10
  2.0932206600267493E+00 a       211     0     9     1    11
 -3.0349757122504428E-01 a       212     0     9     1    12
  8.8806548446667322E-01 a       213     0     9     1    13
  1.6089851285706054E+00 a       214     0     9     1    14
 -5.7644543017082606E-01 a       215     0     9     1    15
 -3.5739634526950048E-01 a       216     0     9     1    16
  1.5885507910254610E+00 a       217     0     9     1    17
 -7.4032855303271294E-01 a       218     0     9     1    18
 -4.3321801549405337E-01 a       219     0     9     1    19
  3.0396416890622885E-01 a       220     0     9     1    20
  4.0444888350161906E-01 a       221     0     9     1    21
  8.8400075799806532E-01 a       222     0     9     1    22
  1.6167162417724803E+00 a       223     0     9     1    23
 -8.4601551795268182E-01 a       224     0     9     1    24
  2.2035800908353687E+00 a       225     0     9     1    25
  5.1228296188163824E-01 a       226     0    10     1     1
  2.7956510309732771E-02 a       227     0    10     1     2
 -6.9628811516718303E-01 a       228     0    10     1     3
  3.1626300726542857E-02 a       229     0    10     1     4
  1.0363789887433608E+00 a       230     0    10     1     5
  7.1701574592341266E-01 a       231     0    10     1     6
  8.5560672360796529E-03 a       232     0    10     1     7
 -5.3387794836227476E-01 a       233     0    10     1     8
  5.9620857223728541E-01 a       234     0    10     1     9
 -1.1278119684378256E+00 a       235     0    10     1    10
  1.1720400805049311E+00 a       236     0    10     1    11
 -6.1538551121567908E-01 a       237     0    10     1    12
  1.3512173682484546E-01 a       238     0    10     1    13
  9.6165081837844679E-01 a       239     0    10     1    14
  8.4070795580928226E-01 a       240     0    10     1    15
 -1.7837177437049781E-01 a       241     0    10     1    16
  1.4888791839557856E+00 a       242     0    10     1    17
 -3.2974767459294757E-01 a       243     0    10     1    18
 -4.9426694681328892E-01 a       244     0    10     1    19
  4.8824302569293004E-01 a       245     0    10     1    20
  5.1494546868356632E-02 a       246     0    10     1    21
  3.0781423704592215E-01 a       247     0    10     1    22
  1.0467368104143573E+00 a       248     0    10     1    23
  8.1935512195257243E-01 a       249     0    10     1    24
  1.5148220459693189E+00 a       250     0    10     1    25
  1.0694053065774500E+00 a       251     0    11     1     1
 -5.7038268114732915E-01 a       252     0    11     1     2
 -8.2710327780916498E-02 a       253     0    11     1     3
 -7.4457688387730403E-01 a       254     0    11     1     4
 -9.9973417270215581E-02 a       255     0    11     1     5
 -6.1751011250127197E-01 a       256     0    11     1     6
  2.8978192609836517E-01 a       257     0    11     1     7
 -1.1297996525186935E+00 a       258     0    11     1     8
 -4.3198720188686629E-01 a       259     0    11     1     9
  5.4705430285823908E-01 a       260     0    11     1    10
  2.7246862421279527E-01 a       261     0    11     1    11
 -7.0487635041292129E-01 a       262     0    11     1    12
 -6.8962642050006029E-01 a       263     0    11     1    13
  2.8744898053313833E-01 a       264     0    11     1    14
  7.5936320119649825E-01 a       265     0    11     1    15
 -4.9785934652820202E-01 a       266     0    11     1    16
  2.9653236469023941E-01 a       267     0    11     1    17
  6.0709253627385740E-01 a       268     0    11     1    18
 -9.3512529336762640E-01 a       269     0    11     1    19
  1.2008416716707515E-02 a       270     0    11     1    20
  1.4377040706370955E-01 a       271     0    11     1    21
 -6.2162214340336941E-01 a       272     0    11     1    22
 -7.7498407755205290E-01 a       273     0    11     1    23
 -1.0840774741431187E+00 a       274     0    11     1    24
  9.8042147718807049E-01 a       275     0    11     1    25
 -2.2442941952487372E-01 a       276     0    12     1     1
  8.7573045231810531E-01 a       277     0    12     1     2
 -2.7732178559313230E+00 a       278     0    12     1     3
  2.4363900876679431E-01 a       279     0    12     1     4
 -1.8798651983194106E+00 a       280     0    12     1     5
 -2.8927554440726388E+00 a       281     0    12     1     6
 -4.9596302697124750E-01 a       282     0    12     1     7
  3.2613616998233058E-01 a       283     0    12     1     8
  1.6164575926200833E-01 a       284     0    12     1     9
  2.5790529743725521E-01 a       285     0    12     1    10
 -1.5574789616749130E-01 a       286     0    12     1    11
  1.3337176778843160E-01 a       287     0    12     1    12
 -1.7209689322720165E+00 a       288     0    12     1    13
  4.6075490225082921E-01 a       289     0    12     1    14
 -2.8152464903679713E+00 a       290     0    12     1    15
 -1.7868797477098963E+00 a       291     0    12     1    16
 -3.4198798613426756E-01 a       292     0    12     1    17
  8.4917572780962819E-02 a       293     0    12     1    18
  2.5117804120685810E-01 a       294     0    12     1    19
  9.9926005263618112E-02 a       295     0    12     1    20
 -8.2575791233733042E-01 a       296     0    12     1    21
  5.9234109540814017E-01 a       297     0    12     1    22
 -5.2438278864787503E-02 a       298     0    12     1    23
  2.5073134992021795E-01 a       299     0    12     1    24
 -3.1777192375306212E-01 a       300     0    12     1    25
  1.3572465291060429E-01 b       301     1     1
  4.5458425590777229E-01 b       302     1     2
  1.8473104323590905E+00 b       303     1     3
  1.9693391366691042E+00 b       304     1     4
  1.3059447834728555E+00 b       305     1     5
  2.4083110638687595E+00 b       306     1     6
 -7.9272278701949389E-02 b       307     1     7
 -3.7628858264613624E-01 b       308     1     8
  1.2183184089729715E+00 b       309     1     9
  1.2624421760641746E+00 b       310     1    10
  4.5078737854069123E-01 b       311     1    11
  3.6216468661392226E-01 b       312     1    12
  1.1962709851602409E+00 b       313     1    13
  5.5978659476671555E-01 b       314     1    14
  1.3629256078597083E+00 b       315     1    15
  2.2118516124132372E+00 b       316     1    16
  2.7975051521586858E-01 b       317     1    17
  1.4807019914280268E+00 b       318     1    18
  8.9073634691790737E-01 b       319     1    19
  2.5086580749902567E+00 b       320     1    20
  1.1136901292183907E+00 b       321     1    21
  1.4704921466475809E+00 b       322     1    22
  6.7631864751433024E-01 b       323     1    23
  1.3266670895167514E+00 b       324     1    24
  1.0009464557078196E+00 b       325     1    25
 -1.1515876591046115E+00 a       326     1     1     2     1
  3.8581497419540312E-02 a       327     1     1     2     2
  3.2227803875959177E-01 a       328     1     1     2     3
  4.6865913757168681E-01 a       329     1     1     2     4
 -2.5663463561180481E-02 a       330     1     1     2     5
 -2.1571142231748897E+00 a       331     1     1     2     6
 -1.2296684149196884E+00 a       332     1     1     2     7
  2.0399311368189174E-01 a       333     1     1     2     8
  4.1423873381136117E-03 a       334     1     1     2     9
  2.5631095315072472E-01 a       335     1     1     2    10
 -9.8910219372405017E-02 a       336     1     1     2    11
  8.7587098603231239E-01 a       337     1     1     2    12
 -8.1020511713846532E-01 a       338     1     1     2    13
 -1.1790944346062222E+00 a       339     1     1     2    14
 -4.4993285015883022E-01 a       340     1     1     2    15
  5.8767351148115676E-01 a       341     1     1     2    16
  2.5978812701743770E-01 a       342     1     1     2    17
 -1.8178579747905972E+00 a       343     1     1     2    18
 -1.3156584525385808E+00 a       344     1     1     2    19
 -5.3653913362355221E-01 a       345     1     1     2    20
 -2.4592111919583375E+00 a       346     1     1     2    21
 -5.7976390915147646E-01 a       347     1     1     2    22
 -1.1236546597670534E+00 a       348     1     1     2    23
 -3.9701721305808013E-02 a       349     1     1     2    24
  1.2362800836658339E-01 a       350     1     1     2    25
  1.8755388527462863E-02 a       351     1     2     2     1
 -4.5142924145833213E-01 a       352     1     2     2     2
 -7.0064485484599659E-01 a       353     1     2     2     3
  5.3054790309406130E-01 a       354     1     2     2     4
  1.3232578544078524E-02 a       355     1     2     2     5
 -7.0972085798508402E-02 a       356     1     2     2     6
 -6.0847542751481121E-01 a       357     1     2     2     7
 -2.5125698344668096E-01 a       358     1     2     2     8
 -1.5231816147467733E-01 a       359     1     2     2     9
 -6.4493752235614565E-01 a       360     1     2     2    10
 -6.6681273256061535E-01 a       361     1     2     2    11
  2.5728680418017558E-01 a       362     1     2     2    12
 -1.1656772571319605E-01 a       363     1     2     2    13
 -2.4036657348078809E+00 a       364     1     2     2    14
 -4.0884623058818598E-01 a       365     1     2     2    15
 -2.7048367350571273E-01 a       366     1     2     2    16
  1.0854307095924016E-01 a       367     1     2     2    17
 -1.0514751512975011E-01 a       368     1     2     2    18
 -5.9347413707242613E-01 a       369     1     2     2    19
  3.2782138071967398E-01 a       370     1     2     2    20
  1.3921075618176406E+00 a       371     1     2     2    21
 -2.6559255955011579E-01 a       372     1     2     2    22
 -8.2265066522200991E-01 a       373     1     2     2    23
 -8.8440109431779990E-02 a       374     1     2     2    24
  1.3484647089093987E-01 a       375     1     2     2    25
 -4.5284725753572369E-01 a       376     1     3     2     1
 -1.9720600547063729E-02 a       377     1     3     2     2
 -1.3980397042696282E+00 a       378     1     3     2     3
  6.2659338641742640E-02 a       379     1     3     2     4
 -2.7745200031842621E-01 a       380     1     3     2     5
 -3.4568130840387268E-01 a       381     1     3     2     6
 -5.0860219493930059E-01 a       382     1     3     2     7
 -7.1590413235617678E-01 a       383     1     3     2     8
 -1.3428931643042967E+00 a       384     1     3     2     9
 -1.0185900137934167E+00 a       385     1     3     2    10
 -3.9375743538158142E-01 a       386     1     3     2    11
  4.2543139976971855E-01 a       387     1     3     2    12
  1.2582598669462741E-01 a       388     1     3     2    13
 -7.8450284433478223E-01 a       389     1     3     2    14
 -2.3918131750555349E-01 a       390     1     3     2    15
  2.8665598446967666E-01 a       391     1     3     2    16
  8.7596427525821099E-02 a       392     1     3     2    17
 -4.4074945346888444E-01 a       393     1     3     2    18
  2.9216214345509262E-01 a       394     1     3     2    19
 -5.8342629801519408E-01 a       395     1     3     2    20
  1.6488301353214480E-01 a       396     1     3     2    21
 -3.2322334631697935E-01 a       397     1     3     2    22
 -2.0422934991886513E-01 a       398     1     3     2    23
  2.7124343871498702E-01 a       399     1     3     2    24
 -1.8410658175264910E-01 a       400     1     3     2    25
  3.3113891936120399E-01 a       401     1     4     2     1
  1.1433340615529923E+00 a       402     1     4     2     2
 -1.0109394618146574E+00 a       403     1     4     2     3
 -5.6791114769075246E-01 a       404     1     4     2     4
 -8.7904986181329858E-02 a       405     1     4     2     5
 -2.5583655204383349E-01 a       406     1     4     2     6
 -2.0680420489587488E+00 a       407     1     4     2     7
  2.0204488954732955E+00 a       408     1     4     2     8
  5.1683369431084625E-01 a       409     1     4     2     9
 -4.3578921160188440E+00 a       410     1     4     2    10
 -8.3962998893111607E-01 a       411     1     4     2    11
 -1.5708187933407380E-01 a       412     1     4     2    12
 -8.0583306548213174E-01 a       413     1     4     2    13
 -9.5586490621524056E-01 a       414     1     4     2    14
 -3.6452752356443491E-01 a       415     1     4     2    15
 -4.5733138451661220E-01 a       416     1     4     2    16
 -2.7354568080573427E-03 a       417     1     4     2    17
 -1.2026694912382279E+00 a       418     1     4     2    18
  4.7690771404243032E-01 a       419     1     4     2    19
  1.3951981393455224E+00 a       420     1     4     2    20
  9.7095153197834316E-01 a       421     1     4     2    21
  2.1175209504791731E-01 a       422     1     4     2    22
 -2.5159948863917294E+00 a       423     1     4     2    23
 -5.7895847473785944E-01 a       424     1     4     2    24
 -8.2044589711667948E-01 a       425     1     4     2    25
  4.0714079181449647E-02 a       426     1     5     2     1
 -9.3514650212501757E-02 a       427     1     5     2     2
 -2.3098411446832308E+00 a       428     1     5     2     3
  5.6604443143466532E-01 a       429     1     5     2     4
  1.3262815264797251E-01 a       430     1     5     2     5
 -2.1475609876712483E+00 a       431     1     5     2     6
  2.7544059569754992E-01 a       432     1     5     2     7
 -5.2894224840779636E-01 a       433     1     5     2     8
 -1.4316436367848762E+00 a       434     1     5     2     9
 -2.1808860232003617E+00 a       435     1     5     2    10
  1.4659205550619723E-02 a       436     1     5     2    11
  9.0350427568694036E-01 a       437     1     5     2    12
 -5.4274025735802467E-01 a       438     1     5     2    13
  1.2134662321665630E+00 a       439     1     5     2    14
 -7.2021129875557732E-01 a       440     1     5     2    15
 -3.3354186253971457E-01 a       441     1     5     2    16
  2.6422097490520269E-01 a       442     1     5     2    17
 -3.6647805708725656E+00 a       443     1     5     2    18
  1.1589077443627131E-01 a       444     1     5     2    19
 -1.2013768554630262E+00 a       445     1     5     2    20
  1.7760856069032533E+00 a       446     1     5     2    21
 -1.0989445487829415E+00 a       447     1     5     2    22
 -2.8026086308822999E+00 a       448     1     5     2    23
 -6.5770386978930812E-02 a       449     1     5     2    24
 -8.8678009578218731E-01 a       450     1     5     2    25
  1.0216426373998815E+00 a       451     1     6     2     1
  6.5833596863629895E-01 a       452     1     6     2     2
 -6.3367617873343418E+00 a       453     1     6     2     3
 -9.5329623550844589E-01 a       454     1     6     2     4
 -8.8175237453263133E-01 a       455     1     6     2     5
  1.2092235429132965E+00 a       456     1     6     2     6
  6.2698860946345636E-01 a       457     1     6     2     7
  4.0749587513351215E-01 a       458     1     6     2     8
  4.5561856043827031E+00 a       459     1     6     2     9
 -4.5110604209666176E+00 a       460     1     6     2    10
 -7.5175604155886844E-01 a       461     1     6     2    11
  1.5073137487484847E-01 a       462     1     6     2    12
 -7.1957609346378926E-01 a       463     1     6     2    13
 -3.1850478062421175E+00 a       464     1     6     2    14
 -4.0022183056705340E-01 a       465     1     6     2    15
 -7.6097936570171199E-01 a       466     1     6     2    16
  7.2175287471447391E-01 a       467     1     6     2    17
  2.7739239044153602E-01 a       468     1     6     2    18
  1.5974806512907238E+00 a       469     1     6     2    19
 -6.3197120932053386E-01 a       470     1     6     2    20
 -4.7419530362152928E-01 a       471     1     6     2    21
  1.4063936585925345E+00 a       472     1     6     2    22
 -1.9610031402321839E+00 a       473     1     6     2    23
 -6.4507145286763556E-01 a       474     1     6     2    24
 -5.9788104543428744E-01 a       475     1     6     2    25
  1.3685737173349164E+00 a       476     1     7     2     1
  3.5688432525673060E-02 a       477     1     7     2     2
 -2.1808151596327665E+00 a       478     1     7     2     3
 -2.8140901655290690E-01 a       479     1     7     2     4
 -2.0320954603370744E-01 a       480     1     7     2     5
  2.1213683018167564E+00 a       481     1     7     2     6
 -1.0616909261717314E-01 a       482     1     7     2     7
  1.1451153691854219E+00 a       483     1     7     2     8
  3.7558067073141010E-01 a       484     1     7     2     9
 -2.1179345341768601E+00 a       485     1     7     2    10
  3.6995072480165103E-01 a       486     1     7     2    11
 -1.4422375232949536E+00 a       487     1     7     2    12
  1.1224384306410105E+00 a       488     1     7     2    13
 -1.4414007462254564E-02 a       489     1     7     2    14
 -3.1375370328886171E-01 a       490     1     7     2    15
  3.3542759292998203E-01 a       491     1     7     2    16
 -1.8902992018824966E-01 a       492     1     7     2    17
  1.3592906821320239E+00 a       493     1     7     2    18
 -2.0445288573972276E+00 a       494     1     7     2    19
  1.3454588632695448E+00 a       495     1     7     2    20
  3.0521069560335210E+00 a       496     1     7     2    21
  1.6727726807439429E+00 a       497     1     7     2    22
  7.8382737357505694E-01 a       498     1     7     2    23
  2.8443348235241837E-02 a       499     1     7     2    24
 -3.0875749590297935E-01 a       500     1     7     2    25
  1.1383016510525665E+00 a       501     1     8     2     1
  5.4827248748784463E-01 a       502     1     8     2     2
 -2.5711963633592587E+00 a       503     1     8     2     3
 -3.9150545883681598E-01 a       504     1     8     2     4
  2.2811963002562923E-02 a       505     1     8     2     5
 -1.5161420286061608E-01 a       506     1     8     2     6
  1.1510543134002203E-01 a       507     1     8     2     7
  1.1328260049889816E-01 a       508     1     8     2     8
  1.4915910025387466E-01 a       509     1     8     2     9
  1.0145731200011530E+00 a       510     1     8     2    10
 -2.0728020801815694E-01 a       511     1     8     2    11
  4.5701141771257026E-01 a       512     1     8     2    12
  2.1080681801088339E+00 a       513     1     8     2    13
 -2.8823424712316723E+00 a       514     1     8     2    14
  2.7380232562427564E-01 a       515     1     8     2    15
  2.8415423371029358E-01 a       516     1     8     2    16
  8.6689063291963298E-01 a       517     1     8     2    17
 -5.7081140833940236E-01 a       518     1     8     2    18
 -5.3054866000021084E-01 a       519     1     8     2    19
 -8.9536825306801515E-01 a       520     1     8     2    20
 -7.1790873053776560E-01 a       521     1     8     2    21
 -3.4036775076045483E-01 a       522     1     8     2    22
 -1.0810685959941502E+00 a       523     1     8     2    23
  1.0041560584928122E-01 a       524     1     8     2    24
 -1.1605272744688457E+00 a       525     1     8     2    25
 -1.8639660692059512E+00 a       526     1     9     2     1
 -1.9344627369561251E+00 a       527     1     9     2     2
  1.4289181943637064E+00 a       528     1     9     2     3
  8.7998173760986542E-01 a       529     1     9     2     4
  6.2536128213218101E-01 a       530     1     9     2     5
 -1.7856035176696042E-01 a       531     1     9     2     6
  3.0381714094773247E+00 a       532     1     9     2     7
 -2.3219174726900005E+00 a       533     1     9     2     8
 -1.2421717278214224E+00 a       534     1     9     2     9
  1.9096380002200080E+00 a       535     1     9     2    10
  2.6369671884803147E+00 a       536     1     9     2    11
 -3.4231452474926950E-03 a       537     1     9     2    12
 -1.0126981209211112E+00 a       538     1     9     2    13
 -8.2920710003929776E-01 a       539     1     9     2    14
  6.0970403512032711E-01 a       540     1     9     2    15
  1.7052714117235785E+00 a       541     1     9     2    16
 -3.6040693756094322E-01 a       542     1     9     2    17
  9.7599868353023900E-01 a       543     1     9     2    18
  1.3132405816952404E+00 a       544     1     9     2    19
 -2.6254762673317944E+00 a       545     1     9     2    20
  3.0680687290549744E+00 a       546     1     9     2    21
 -1.4043812743187853E+00 a       547     1     9     2    22
  2.9952597879703031E+00 a       548     1     9     2    23
  9.9408479391661753E-01 a       549     1     9     2    24
  4.1647830955667697E-01 a       550     1     9     2    25
 -2.3875457192913800E+00 a       551     1    10     2     1
  1.6824960541134686E-02 a       552     1    10     2     2
  7.9356117547435179E-01 a       553     1    10     2     3
  3.5093787676620086E-01 a       554     1    10     2     4
  3.1796516978567495E-02 a       555     1    10     2     5
  1.4250248519803697E+00 a       556     1    10     2     6
  4.4257547112593160E-01 a       557     1    10     2     7
  9.7353124482031173E-01 a       558     1    10     2     8
  9.8644474642794466E-01 a       559     1    10     2     9
  7.6523475387849571E-01 a       560     1    10     2    10
  6.1072304980007881E-02 a       561     1    10     2    11
 -6.1181005478762529E-01 a       562     1    10     2    12
 -1.6755753746460529E+00 a       563     1    10     2    13
  4.4521415207235564E-02 a       564     1    10     2    14
 -1.0482161955779186E+00 a       565     1    10     2    15
  1.6374985847378373E-01 a       566     1    10     2    16
 -1.5051400964754049E+00 a       567     1    10     2    17
  1.0514425935828373E+00 a       568     1    10     2    18
  6.4365526734342648E-01 a       569     1    10     2    19
 -1.1875856422359647E+00 a       570     1    10     2    20
  4.9680991888711618E-01 a       571     1    10     2    21
  9.3434189117747857E-01 a       572     1    10     2    22
 -1.3258577366893594E-02 a       573     1    10     2    23
 -9.3116612489270878E-01 a       574     1    10     2    24
  2.6847267388511969E-01 a       575     1    10     2    25
  1.8966045108499765E+00 a       576     1    11     2     1
  8.0888884909809045E-01 a       577     1    11     2     2
 -2.0271316823767083E+00 a       578     1    11     2     3
 -1.7155416162726089E-01 a       579     1    11     2     4
 -1.9747769186368253E-01 a       580     1    11     2     5
 -1.3400289837982884E+00 a       581     1    11     2     6
 -9.5974343994742994E-01 a       582     1    11     2     7
  8.7003871600406268E-01 a       583     1    11     2     8
 -4.9884233665975519E-01 a       584     1    11     2     9
 -1.9816615952749932E+00 a       585     1    11     2    10
 -9.0779721798218216E-01 a       586     1    11     2    11
  4.8981999380164681E-01 a       587     1    11     2    12
 -8.7627031879449080E-01 a       588     1    11     2    13
 -8.1973981917068450E-01 a       589     1    11     2    14
 -3.0010222374073914E-01 a       590     1    11     2    15
 -2.5560928999668203E-01 a       591     1    11     2    16
  8.0688163625785214E-01 a       592     1    11     2    17
 -2.3436618341990578E+00 a       593     1    11     2    18
  7.7391997222358833E-01 a       594     1    11     2    19
 -3.7509260281816192E-01 a       595     1    11     2    20
 -4.8370938158856464E-01 a       596     1    11     2    21
  7.9170318229010450E-01 a       597     1    11     2    22
 -1.4056121367777321E+00 a       598     1    11     2    23
 -8.8300424784074383E-01 a       599     1    11     2    24
 -1.1625413348585381E+00 a       600     1    11     2    25
 -1.8277390147749686E-01 a       601     1    12     2     1
 -7.2669334227744561E-02 a       602     1    12     2     2
  6.8406527759730007E-01 a       603     1    12     2     3
  2.3061811999874965E-01 a       604     1    12     2     4
  9.4526009359958529E-02 a       605     1    12     2     5
  1.2841571150564576E-01 a       606     1    12     2     6
  1.1426020354554032E+00 a       607     1    12     2     7
  3.2229331418378010E-01 a       608     1    12     2     8
  2.9174402797284954E-01 a       609     1    12     2     9
  1.6085603680951494E-01 a       610     1    12     2    10
  7.6184488673275416E-02 a       611     1    12     2    11
 -1.5232110226461887E-01 a       612     1    12     2    12
  9.7949803943885427E-01 a       613     1    12     2    13
 -2.3003399295739011E+00 a       614     1    12     2    14
  9.8749829029236208E-02 a       615     1    12     2    15
 -6.7156188801554528E-01 a       616     1    12     2    16
 -1.3258882911224862E-01 a       617     1    12     2    17
  5.7585918301543110E-02 a       618     1    12     2    18
  1.6367378433528863E+00 a       619     1    12     2    19
 -1.5066449321096126E-01 a       620     1    12     2    20
  3.2969626732075512E+00 a       621     1    12     2    21
 -4.4230622147501714E-01 a       622     1    12     2    22
  2.1038071515907270E-02 a       623     1    12     2    23
 -3.9050448571064550E-01 a       624     1    12     2    24
  3.1195862514428241E-01 a       625     1    12     2    25
 -1.9550202394928009E+00 a       626     1    13     2     1
 -1.1190322762424074E+00 a       627     1    13     2     2
  5.6638074299542457E-02 a       628     1    13     2     3
  7.0972119188893801E-01 a       629     1    13     2     4
  1.8509940671346037E-01 a       630     1    13     2     5
 -1.9139897916146084E-01 a       631     1    13     2     6
  3.7930096454029560E-01 a       632     1    13     2     7
  6.9225204473367052E-01 a       633     1    13     2     8
 -4.2428195098621019E-01 a       634     1    13     2     9
 -1.3381431420453910E-01 a       635     1    13     2    10
 -2.3133584979623954E-02 a       636     1    13     2    11
 -3.4425206384494283E-01 a       637     1    13     2    12
 -2.4517490416225156E+00 a       638     1    13     2    13
 -9.8812870502406458E-01 a       639     1    13     2    14
 -2.8831136948379016E-01 a       640     1    13     2    15
  4.8898130311749433E-01 a       641     1    13     2    16
 -1.6860784265563547E-01 a       642     1    13     2    17
  6.2423481506736123E-01 a       643     1    13     2    18
  3.9959029487685135E-02 a       644     1    13     2    19
 -1.0168364103421703E+00 a       645     1    13     2    20
  2.1571889116878418E+00 a       646     1    13     2    21
  5.7687704680475449E-01 a       647     1    13     2    22
 -9.1941654456260014E-02 a       648     1    13     2    23
 -4.3382647614373310E-01 a       649     1    13     2    24
  1.8488125563714614E-01 a       650     1    13     2    25
 -2.1310092348113687E+00 a       651     1    14     2     1
 -3.3401722521820137E-02 a       652     1    14     2     2
  3.1467050011020881E-01 a       653     1    14     2     3
 -5.2615924757600796E-01 a       654     1    14     2     4
  5.5481707769401367E-01 a       655     1    14     2     5
  7.8219424696051709E-01 a       656     1    14     2     6
  7.6676903450786316E-01 a       657     1    14     2     7
  1.8948182575500933E-01 a       658     1    14     2     8
 -1.2275450070501503E+00 a       659     1    14     2     9
  2.6458098720358175E-01 a       660     1    14     2    10
  1.1574916835464810E+00 a       661     1    14     2    11
 -9.7690563284040988E-01 a       662     1    14     2    12
  8.6282374794268213E-01 a       663     1    14     2    13
  4.5106748615976255E-01 a       664     1    14     2    14
  1.0879744042522503E+00 a       665     1    14     2    15
  9.4596278832959879E-01 a       666     1    14     2    16
 -6.1623679000298337E-01 a       667     1    14     2    17
  1.4970236730090973E+00 a       668     1    14     2    18
 -2.2834404268676747E-02 a       669     1    14     2    19
 -2.4475579335612530E-01 a       670     1    14     2    20
 -4.9807835333574885E-02 a       671     1    14     2    21
 -3.4822560519962545E-03 a       672     1    14     2    22
  3.9458032443314701E-02 a       673     1    14     2    23
  8.1831249492203473E-01 a       674     1    14     2    24
  2.2155004358519376E-02 a       675     1    14     2    25
  4.8678612347668335E-02 a       676     1    15     2     1
 -8.6970070212998782E-02 a       677     1    15     2     2
 -9.3180648852315828E-01 a       678     1    15     2     3
 -7.4982662428680424E-01 a       679     1    15     2     4
  2.1432356513665432E-01 a       680     1    15     2     5
  1.5007223714379365E+00 a       681     1    15     2     6
  6.2877188663556083E-01 a       682     1    15     2     7
 -1.3185624751167586E+00 a       683     1    15     2     8
  7.6068828347650164E-01 a       684     1    15     2     9
 -8.5649186794804977E-01 a       685     1    15     2    10
 -2.3869362054154700E-01 a       686     1    15     2    11
 -3.4164380038103814E-01 a       687     1    15     2    12
 -1.2364221480157027E+00 a       688     1    15     2    13
 -3.6561913397375485E+00 a       689     1    15     2    14
  9.9143135234507251E-01 a       690     1    15     2    15
  5.0829876517079903E-04 a       691     1    15     2    16
 -2.9805381884619053E-01 a       692     1    15     2    17
  1.3800917620899260E+00 a       693     1    15     2    18
  1.0618406286164641E+00 a       694     1    15     2    19
 -1.7537039326365886E-01 a       695     1    15     2    20
  8.5487155239007606E-01 a       696     1    15     2    21
  2.2134411495601983E-01 a       697     1    15     2    22
 -1.4846822031842577E-01 a       698     1    15     2    23
  4.1891905680861241E-01 a       699     1    15     2    24
 -3.0700825739919385E-01 a       700     1    15     2    25
  2.7464975621130250E-01 a       701     1    16     2     1
 -6.0933372515206108E-01 a       702     1    16     2     2
  3.4240219775902974E+00 a       703     1    16     2     3
  8.4718403376658058E-01 a       704     1    16     2     4
  3.4619681202780295E-01 a       705     1    16     2     5
 -1.5923838268001638E+00 a       706     1    16     2     6
 -2.2615792631784198E-01 a       707     1    16     2     7
 -2.7111933801312698E+00 a       708     1    16     2     8
 -2.2000593293730271E+00 a       709     1    16     2     9
  1.8967473980265872E+00 a       710     1    16     2    10
  1.6135696886045151E-01 a       711     1    16     2    11
 -3.6995312812436454E-02 a       712     1    16     2    12
  7.5269888776388116E-01 a       713     1    16     2    13
  4.3647776041113664E+00 a       714     1    16     2    14
  1.8768913414123972E-01 a       715     1    16     2    15
 -9.6907674993390069E-01 a       716     1    16     2    16
 -3.8019845793091545E-01 a       717     1    16     2    17
 -1.2700381428313243E+00 a       718     1    16     2    18
 -4.3379818563267908E-01 a       719     1    16     2    19
  1.0650008469104970E+00 a       720     1    16     2    20
 -2.3918488494611290E+00 a       721     1    16     2    21
 -5.6942015162923143E-01 a       722     1    16     2    22
  2.1292194699887466E+00 a       723     1    16     2    23
  3.5335356360458692E-01 a       724     1    16     2    24
  1.7321685132988871E+00 a       725     1    16     2    25
 -3.6895431105124404E-01 a       726     1    17     2     1
 -8.2626204487987698E-01 a       727     1    17     2     2
 -8.4113179287760098E-01 a       728     1    17     2     3
  3.8260084509978448E-01 a       729     1    17     2     4
  2.3828671951007133E-02 a       730     1    17     2     5
  9.3025904260821801E-01 a       731     1    17     2     6
  7.3135092413864322E-01 a       732     1    17     2     7
  1.4488643507769883E+00 a       733     1    17     2     8
  1.9303136580570004E-01 a       734     1    17     2     9
 -8.5364523382180379E-01 a       735     1    17     2    10
  7.7089874234370714E-01 a       736     1    17     2    11
 -6.6035660680907868E-02 a       737     1    17     2    12
 -9.0103758916194587E-01 a       738     1    17     2    13
 -1.1749870416733879E+00 a       739     1    17     2    14
 -4.0382284169292604E-01 a       740     1    17     2    15
 -1.0407752084985368E-01 a       741     1    17     2    16
  2.5830131960504515E-02 a       742     1    17     2    17
 -7.3840085052638016E-01 a       743     1    17     2    18
  9.1578631054420756E-01 a       744     1    17     2    19
  9.5383117495860215E-01 a       745     1    17     2    20
 -1.6597474888641595E+00 a       746     1    17     2    21
  1.8550858703630460E+00 a       747     1    17     2    22
  4.9389281418493081E-01 a       748     1    17     2    23
 -1.2229462736729206E-03 a       749     1    17     2    24
  4.8922507692452816E-01 a       750     1    17     2    25
  1.8587722245982665E+00 a       751     1    18     2     1
 -1.7287838599146058E-01 a       752     1    18     2     2
 -7.2038895273878245E-01 a       753     1    18     2     3
 -2.1605443386227961E-02 a       754     1    18     2     4
 -3.9155570316295096E-01 a       755     1    18     2     5
 -1.4215776497794568E+00 a       756     1    18     2     6
  8.3996077141846237E-01 a       757     1    18     2     7
  7.8229632357901635E-01 a       758     1    18     2     8
 -1.4369252129334438E+00 a       759     1    18     2     9
 -7.1734551226915400E-01 a       760     1    18     2    10
 -9.0668892076769855E-02 a       761     1    18     2    11
  9.5297483061890664E-01 a       762     1    18     2    12
  1.6260005948962846E+00 a       763     1    18     2    13
  1.2179240415052917E+00 a       764     1    18     2    14
  4.9507459481171034E-01 a       765     1    18     2    15
 -6.6855311170198706E-01 a       766     1    18     2    16
  1.5724156794352948E+00 a       767     1    18     2    17
 -1.3364601568059076E+00 a       768     1    18     2    18
 -1.8929867008527439E+00 a       769     1    18     2    19
  7.5565352837661670E-01 a       770     1    18     2    20
 -2.7770748024066898E+00 a       771     1    18     2    21
 -4.2627872819263812E-01 a       772     1    18     2    22
  1.0719746150265979E+00 a       773     1    18     2    23
  2.7010910162545032E-01 a       774     1    18     2    24
 -2.9007970160391866E-01 a       775     1    18     2    25
  2.8201745191152750E-02 a       776     1    19     2     1
  4.3256608117820082E-02 a       777     1    19     2     2
 -5.5727949437194690E-01 a       778     1    19     2     3
 -7.6722406131259557E-01 a       779     1    19     2     4
 -4.1680262120817463E-01 a       780     1    19     2     5
 -7.4676593090180432E-01 a       781     1    19     2     6
  9.5043750026964413E-01 a       782     1    19     2     7
  2.9455078492475550E-01 a       783     1    19     2     8
  4.1005902266460274E-02 a       784     1    19     2     9
 -2.9281897172853288E-01 a       785     1    19     2    10
  4.8842242986858403E-01 a       786     1    19     2    11
  1.4414837306681116E-01 a       787     1    19     2    12
 -1.0115385441602298E+00 a       788     1    19     2    13
  1.9004588498069914E+00 a       789     1    19     2    14
  6.9340345276043802E-01 a       790     1    19     2    15
  5.6368784121331494E-01 a       791     1    19     2    16
  8.1001998141342091E-01 a       792     1    19     2    17
 -1.4360433349786442E-01 a       793     1    19     2    18
  1.6984684554980004E-01 a       794     1    19     2    19
 -2.4848180054422458E-01 a       795     1    19     2    20
 -8.8050327061922795E-01 a       796     1    19     2    21
  6.3188101744520087E-01 a       797     1    19     2    22
 -6.8073428841912942E-01 a       798     1    19     2    23
 -2.2117635064102864E-01 a       799     1    19     2    24
 -2.4549455222592034E-01 a       800     1    19     2    25
  8.0170601073802727E-01 a       801     1    20     2     1
  1.3383536436910781E+00 a       802     1    20     2     2
 -6.5979736382448495E-01 a       803     1    20     2     3
  1.1776393493658475E+00 a       804     1    20     2     4
  9.9007852168756003E-02 a       805     1    20     2     5
  4.8146942081174809E-01 a       806     1    20     2     6
 -1.5243519169928401E+00 a       807     1    20     2     7
 -1.7372421539885527E-01 a       808     1    20     2     8
 -1.0074823224391172E+00 a       809     1    20     2     9
 -5.6038283632182062E-01 a       810     1    20     2    10
 -2.2443408007486889E+00 a       811     1    20     2    11
  1.5687076116947685E+00 a       812     1    20     2    12
  3.2979991031834244E-01 a       813     1    20     2    13
 -2.1217436383131987E+00 a       814     1    20     2    14
  1.0378014110339564E+00 a       815     1    20     2    15
 -1.5779704372874055E+00 a       816     1    20     2    16
  3.6873838341188703E-01 a       817     1    20     2    17
 -4.4797595672427259E-01 a       818     1    20     2    18
 -4.7226418453029217E-01 a       819     1    20     2    19
 -8.5856915744044904E-01 a       820     1    20     2    20
 -7.3974671902369127E-01 a       821     1    20     2    21
 -6.7636247463444132E-01 a       822     1    20     2    22
 -2.3936983529158787E-01 a       823     1    20     2    23
 -1.0210505819062268E+00 a       824     1    20     2    24
  1.8410311219844435E+00 a       825     1    20     2    25
  1.1223515924694540E+00 a       826     1    21     2     1
  1.4368923706238550E+00 a       827     1    21     2     2
  9.9278010448119647E-01 a       828     1    21     2     3
 -9.3222181890088618E-01 a       829     1    21     2     4
  1.0660476231731963E+00 a       830     1    21     2     5
 -4.7774347508532655E-01 a       831     1    21     2     6
  5.1807795277533719E-01 a       832     1    21     2     7
  4.4172295555730412E-01 a       833     1    21     2     8
  7.1010939131621542E-02 a       834     1    21     2     9
  8.5551370260751392E-01 a       835     1    21     2    10
  1.2320189655899927E+00 a       836     1    21     2    11
 -1.7621976800464501E+00 a       837     1    21     2    12
 -1.5486090499609877E+00 a       838     1    21     2    13
  8.9037958680915053E-01 a       839     1    21     2    14
  1.2727440908597267E+00 a       840     1    21     2    15
 -9.1857096732484933E-01 a       841     1    21     2    16
 -1.1672551712804337E-01 a       842     1    21     2    17
  4.1975502520441860E-01 a       843     1    21     2    18
 -1.5410746636922282E-01 a       844     1    21     2    19
  1.3445357024858247E+00 a       845     1    21     2    20
 -1.0747340212203020E+00 a       846     1    21     2    21
  7.7835757965086239E-01 a       847     1    21     2    22
 -4.6947078122625951E-01 a       848     1    21     2    23
 -6.8300275566133961E-01 a       849     1    21     2    24
 -2.6457065808389452E-01 a       850     1    21     2    25
  2.0594204065492199E+00 a       851     1    22     2     1
  1.0208657210324716E+00 a       852     1    22     2     2
  6.7802364671201443E-01 a       853     1    22     2     3
 -9.8232461583839947E-01 a       854     1    22     2     4
  6.8396690818436537E-02 a       855     1    22     2     5
 -1.1729177053768713E+00 a       856     1    22     2     6
 -1.7993970166495723E+00 a       857     1    22     2     7
 -9.7063423526610493E-01 a       858     1    22     2     8
 -3.0578173305172718E+00 a       859     1    22     2     9
  6.7910333919652710E-01 a       860     1    22     2    10
 -2.2913921963634384E-01 a       861     1    22     2    11
  1.4447852260313424E-01 a       862     1    22     2    12
  5.9527751605458101E-01 a       863     1    22     2    13
 -2.7932391715079441E-01 a       864     1    22     2    14
  1.0142910624521686E+00 a       865     1    22     2    15
  1.5961515217518749E-01 a       866     1    22     2    16
  1.1738405219221956E-03 a       867     1    22     2    17
 -1.6205742196897628E+00 a       868     1    22     2    18
 -3.4658346627742778E+00 a       869     1    22     2    19
  1.5809237434944796E+00 a       870     1    22     2    20
 -2.7094943463201084E+00 a       871     1    22     2    21
  1.9085516772928912E-01 a       872     1    22     2    22
  8.4372019960797617E-01 a       873     1    22     2    23
  1.4062552412535803E+00 a       874     1    22     2    24
  1.6546578735942666E-01 a       875     1    22     2    25
 -3.4806928611578647E-01 a       876     1    23     2     1
 -1.7533457018478846E-02 a       877     1    23     2     2
  2.7517363877959888E+00 a       878     1    23     2     3
  4.5983467291454927E-01 a       879     1    23     2     4
  4.8024716479731849E-01 a       880     1    23     2     5
  6.9366401242061648E-01 a       881     1    23     2     6
 -3.3370832557106317E-01 a       882     1    23     2     7
 -6.3708624560997562E-01 a       883     1    23     2     8
 -7.9241952874338328E-01 a       884     1    23     2     9
  1.6961895556176363E+00 a       885     1    23     2    10
  7.4223600599264333E-02 a       886     1    23     2    11
 -1.1216503714515834E-01 a       887     1    23     2    12
  1.2219695805846047E+00 a       888     1    23     2    13
  1.4198313496428719E-01 a       889     1    23     2    14
  1.5234758985840233E-01 a       890     1    23     2    15
 -4.7072950382567827E-02 a       891     1    23     2    16
 -5.9887838979465768E-01 a       892     1    23     2    17
  8.7717998619364346E-01 a       893     1    23     2    18
 -1.4390820069042560E+00 a       894     1    23     2    19
  3.1992273889545225E-01 a       895     1    23     2    20
  1.5884656386234997E+00 a       896     1    23     2    21
 -1.4542018611295946E+00 a       897     1    23     2    22
  1.0170540901922067E+00 a       898     1    23     2    23
  7.8617201904973566E-01 a       899     1    23     2    24
  8.2237924158372788E-01 a       900     1    23     2    25
 -5.0094275798069687E-01 a       901     1    24     2     1
 -6.7118780809606404E-01 a       902     1    24     2     2
  1.2772796380976612E+00 a       903     1    24     2     3
  3.6070711133751759E-01 a       904     1    24     2     4
 -4.4095850664006411E-02 a       905     1    24     2     5
  6.3559793347099669E-01 a       906     1    24     2     6
 -6.1471827800703682E-01 a       907     1    24     2     7
 -4.8350131269367748E-02 a       908     1    24     2     8
 -1.5088369130737881E-02 a       909     1    24     2     9
  8.2742026528719992E-01 a       910     1    24     2    10
 -3.8102211754058746E-01 a       911     1    24     2    11
  1.5498188571874708E-01 a       912     1    24     2    12
 -2.5170554070485995E-01 a       913     1    24     2    13
  2.4195027938855365E+00 a       914     1    24     2    14
  1.5108384038912537E-01 a       915     1    24     2    15
  5.3709950561198072E-01 a       916     1    24     2    16
  2.0155612659394218E-01 a       917     1    24     2    17
  1.2076249997098976E+00 a       918     1    24     2    18
 -9.8862847547269261E-01 a       919     1    24     2    19
 -1.2133489076731188E-01 a       920     1    24     2    20
 -3.5726356129061401E+00 a       921     1    24     2    21
 -1.6448951823598466E-03 a       922     1    24     2    22
  8.5870158671755059E-01 a       923     1    24     2    23
  7.4640179873996571E-02 a       924     1    24     2    24
  6.7425193497522595E-01 a       925     1    24     2    25
 -4.2849094099548443E-02 a       926     1    25     2     1
 -2.6808324870649819E-01 a       927     1    25     2     2
  1.8140163371501827E+00 a       928     1    25     2     3
  3.5941049324768500E-02 a       929     1    25     2     4
  2.1397012504987351E-02 a       930     1    25     2     5
  7.9992600105150424E-01 a       931     1    25     2     6
  3.5191817770973682E-01 a       932     1    25     2     7
 -1.6092908956511325E+00 a       933     1    25     2     8
 -9.5277927966954423E-01 a       934     1    25     2     9
  1.8384148433728709E+00 a       935     1    25     2    10
 -4.9660700700266999E-02 a       936     1    25     2    11
 -3.5293142347886181E-01 a       937     1    25     2    12
  7.3926557344506738E-01 a       938     1    25     2    13
  7.3562430035446946E-01 a       939     1    25     2    14
  2.4564626801004366E-01 a       940     1    25     2    15
 -3.2043465862324738E-01 a       941     1    25     2    16
 -6.2799701950950393E-01 a       942     1    25     2    17
  1.0151039676169296E+00 a       943     1    25     2    18
 -5.3888798335486099E-01 a       944     1    25     2    19
 -1.9388074995511789E-01 a       945     1    25     2    20
 -4.3201681670495456E-01 a       946     1    25     2    21
 -1.0079948841175088E+00 a       947     1    25     2    22
  1.2354567753221761E+00 a       948     1    25     2    23
  2.1753281422786294E-01 a       949     1    25     2    24
  8.5312496933705528E-01 a       950     1    25     2    25
 -1.0004823192052754E+00 b       951     2     1
 -7.6850656303462761E-01 b       952     2     2
  4.9570826860751778E+00 b       953     2     3
  3.1366912394461899E-01 b       954     2     4
  3.7857078086978846E-01 b       955     2     5
 -2.5487930152102017E-01 b       956     2     6
  1.2065287979980257E+00 b       957     2     7
  1.1385119848504373E+00 b       958     2     8
  2.3129480905385686E+00 b       959     2     9
  4.5869613543608967E+00 b       960     2    10
  5.2522412458693815E+00 b       961     2    11
 -2.1577743076831712E+00 b       962     2    12
  1.5864391283661707E+00 b       963     2    13
 -9.0344196452405667E-01 b       964     2    14
 -2.7472231286280562E+00 b       965     2    15
  3.8764632550273754E+00 b       966     2    16
  2.8835212358845225E-01 b       967     2    17
  3.1167549893783848E+00 b       968     2    18
  2.2109179746663186E+00 b       969     2    19
  1.6132797672649042E+00 b       970     2    20
  2.1009398550675571E+00 b       971     2    21
  2.6187694356827113E-01 b       972     2    22
 -8.5567481229056566E-02 b       973     2    23
 -3.1587545701627473E-01 b       974     2    24
 -3.0204123764254200E+00 b       975     2    25
  1.5041239954076420E-03 a       976     2     1     3     1
  3.5361938643289725E-03 a       977     2     2     3     1
 -5.3242122978204298E-01 a       978     2     3     3     1
  1.6278249770767812E-02 a       979     2     4     3     1
 -1.5086757140474449E-02 a       980     2     5     3     1
  4.2620526356181672E-03 a       981     2     6     3     1
 -1.4269193368631693E-03 a       982     2     7     3     1
  1.1454107595526562E-02 a       983     2     8     3     1
 -1.5711491484198281E-03 a       984     2     9     3     1
  5.5452484169547012E-01 a       985     2    10     3     1
  6.1286712787083034E-03 a       986     2    11     3     1
  6.0951647262931759E-03 a       987     2    12     3     1
 -1.0566363525949359E-02 a       988     2    13     3     1
 -3.4848055478614777E+00 a       989     2    14     3     1
  1.3954729348117086E-02 a       990     2    15     3     1
 -2.0842127798156415E-03 a       991     2    16     3     1
 -7.4165732920635366E-03 a       992     2    17     3     1
  1.6672886699797934E-01 a       993     2    18     3     1
 -4.0799158342583040E-04 a       994     2    19     3     1
  4.8254557658537886E-03 a       995     2    20     3     1
 -2.1945349955423679E-03 a       996     2    21     3     1
  3.2162114548945201E-03 a       997     2    22     3     1
  1.8222849220341023E-03 a       998     2    23     3     1
 -3.6793504908801357E-03 a       999     2    24     3     1
 -4.8927373438030870E-03 a      1000     2    25     3     1
  6.8457241919860645E-01 b      1001     3     1
