################################################################################
# Neural network connection values (weights and biases).
################################################################################
# Col  Name       Description
################################################################################
# 1    connection Neural network connection value.
# 2    t          Connection type (a = weight, b = bias).
# 3    index      Index enumerating weights.
# 4    l_s        Starting point layer (end point layer for biases).
# 5    n_s        Starting point neuron in starting layer (end point neuron for biases).
# 6    l_e        End point layer.
# 7    n_e        End point neuron in end layer.
################################################################################
#                      1 2         3     4     5     6     7
#             connection t     index   l_s   n_s   l_e   n_e
############################################################
  5.5719666176440941E-01 a         1     0     1     1     1
  2.0936126162882007E+00 a         2     0     1     1     2
  3.4879267307277044E+00 a         3     0     1     1     3
  1.1450024976245272E+00 a         4     0     1     1     4
 -5.3662570934013620E-01 a         5     0     1     1     5
 -6.5439921081675057E-01 a         6     0     1     1     6
  2.2429517031149132E-01 a         7     0     1     1     7
 -5.5307630241977614E+00 a         8     0     1     1     8
  2.7911680747461914E-01 a         9     0     1     1     9
 -3.2356362548132439E-01 a        10     0     1     1    10
  9.4135053326750406E-01 a        11     0     1     1    11
  6.5931100891402961E-01 a        12     0     1     1    12
  2.9641899022762017E-02 a        13     0     1     1    13
 -2.4007096019853019E-01 a        14     0     1     1    14
  6.6403393565795654E-01 a        15     0     1     1    15
  6.6066170006216440E-01 a        16     0     1     1    16
  8.8996559287187127E-01 a        17     0     1     1    17
  5.5621072528371085E-01 a        18     0     1     1    18
  4.2869548904691546E-01 a        19     0     1     1    19
  1.1268112410841342E+00 a        20     0     1     1    20
 -9.1175808469954722E-03 a        21     0     1     1    21
  4.9685853079203907E-01 a        22     0     1     1    22
 -8.0199604150725923E-01 a        23     0     1     1    23
 -1.0076337052393627E+00 a        24     0     1     1    24
  6.4957423979313056E-01 a        25     0     1     1    25
  4.7880009943188230E-02 a        26     0     2     1     1
 -9.8975359723797018E-01 a        27     0     2     1     2
 -4.8469764752678907E-01 a        28     0     2     1     3
  4.4758652228836826E-01 a        29     0     2     1     4
  1.0419470038509214E-01 a        30     0     2     1     5
  1.7099055462933097E+00 a        31     0     2     1     6
  4.8952859376282348E-01 a        32     0     2     1     7
 -1.7412429863523454E-01 a        33     0     2     1     8
 -6.1529407367422528E-01 a        34     0     2     1     9
  1.0011502036701068E+00 a        35     0     2     1    10
 -1.0596718189364389E+00 a        36     0     2     1    11
 -8.6799749356140010E-01 a        37     0     2     1    12
 -5.2604886222694092E-01 a        38     0     2     1    13
  6.6832264372060768E-01 a        39     0     2     1    14
  6.9730881867872285E-01 a        40     0     2     1    15
 -2.7908292384870931E-01 a        41     0     2     1    16
 -4.8279112685667852E-01 a        42     0     2     1    17
  1.6110623032388760E+00 a        43     0     2     1    18
 -2.2117485330960462E-01 a        44     0     2     1    19
  3.8953125932837784E-01 a        45     0     2     1    20
 -5.7570294911829900E-01 a        46     0     2     1    21
  3.2281450554505424E-02 a        47     0     2     1    22
 -5.8427637897520635E-01 a        48     0     2     1    23
  4.3695731123826437E-01 a        49     0     2     1    24
 -8.8978720803209554E-01 a        50     0     2     1    25
 -4.1505934882900236E-01 a        51     0     3     1     1
 -1.5442249894343416E+00 a        52     0     3     1     2
  4.2543281136020528E-01 a        53     0     3     1     3
 -1.2800522721698460E-01 a        54     0     3     1     4
 -1.2811831233030221E-01 a        55     0     3     1     5
  1.2727364274970028E+00 a        56     0     3     1     6
  6.0551556168614118E-01 a        57     0     3     1     7
  9.4760754656327562E-01 a        58     0     3     1     8
  8.2494374786983360E-01 a        59     0     3     1     9
  3.4996271020208630E-01 a        60     0     3     1    10
  6.4820068495724670E-01 a        61     0     3     1    11
 -4.6823732738609891E-01 a        62     0     3     1    12
 -8.9730082861015567E-02 a        63     0     3     1    13
  3.3007875270896303E-01 a        64     0     3     1    14
  7.6414714903243253E-02 a        65     0     3     1    15
  6.5401549851140950E-01 a        66     0     3     1    16
 -6.0424537413775947E-01 a        67     0     3     1    17
  1.3009404871215693E+00 a        68     0     3     1    18
  3.7072046063451897E-01 a        69     0     3     1    19
  5.5589092768678891E-02 a        70     0     3     1    20
  4.9893569838151902E-01 a        71     0     3     1    21
 -8.9555286467755235E-01 a        72     0     3     1    22
  1.8256953835159123E-01 a        73     0     3     1    23
  3.5915148015081971E-01 a        74     0     3     1    24
 -5.1744587321570290E-01 a        75     0     3     1    25
 -5.4317467298606004E-01 a        76     0     4     1     1
  4.5926067214862920E-01 a        77     0     4     1     2
 -8.3423104786278623E-01 a        78     0     4     1     3
  6.7607577969557509E-01 a        79     0     4     1     4
 -2.5631564156287086E-03 a        80     0     4     1     5
  1.0111184802541054E-01 a        81     0     4     1     6
 -3.9032660369444933E-01 a        82     0     4     1     7
 -8.3099930074022211E-03 a        83     0     4     1     8
  3.8221228370841714E-01 a        84     0     4     1     9
  8.8722625500148422E-02 a        85     0     4     1    10
  4.2785403778627074E-01 a        86     0     4     1    11
  2.5708108987424277E-01 a        87     0     4     1    12
 -1.4960920118871116E-01 a        88     0     4     1    13
 -5.6161100350214110E-01 a        89     0     4     1    14
 -2.7671838290914091E-01 a        90     0     4     1    15
  4.7778709607373299E-01 a        91     0     4     1    16
 -8.1614473344368152E-02 a        92     0     4     1    17
  1.4266060665030171E+00 a        93     0     4     1    18
 -6.9497448500700187E-01 a        94     0     4     1    19
  4.8845435955776234E-01 a        95     0     4     1    20
  2.8488236026604480E-01 a        96     0     4     1    21
  6.0755403307059563E-01 a        97     0     4     1    22
  1.6813142004297074E-01 a        98     0     4     1    23
 -7.0394520839736607E-01 a        99     0     4     1    24
  1.4192702690438210E+00 a       100     0     4     1    25
  3.1740097641676140E-01 a       101     0     5     1     1
 -1.2828802445104129E-02 a       102     0     5     1     2
  1.9476159806922033E-01 a       103     0     5     1     3
  5.4878233836703511E-02 a       104     0     5     1     4
 -6.4663598802636002E-01 a       105     0     5     1     5
 -7.6203728684633842E-01 a       106     0     5     1     6
  4.5448761979884011E-02 a       107     0     5     1     7
 -9.5484462142307922E-02 a       108     0     5     1     8
  2.7781957589716205E-01 a       109     0     5     1     9
 -3.6031688360265504E-02 a       110     0     5     1    10
 -6.6867779436913188E-01 a       111     0     5     1    11
  6.8974614040415272E-01 a       112     0     5     1    12
  2.4226211565307304E-01 a       113     0     5     1    13
  1.2657635358156523E+00 a       114     0     5     1    14
  2.0998385521155846E-02 a       115     0     5     1    15
 -2.6456924107421231E-02 a       116     0     5     1    16
  1.3821016253929103E-01 a       117     0     5     1    17
  9.3419370663040957E-02 a       118     0     5     1    18
 -4.5460339046036918E-01 a       119     0     5     1    19
 -7.5753208579248854E-01 a       120     0     5     1    20
 -4.5736929572029467E-01 a       121     0     5     1    21
 -1.9772430631678362E-01 a       122     0     5     1    22
 -8.7604713550621521E-02 a       123     0     5     1    23
 -1.6731394368366476E-01 a       124     0     5     1    24
  8.2272546777221267E-01 a       125     0     5     1    25
  2.5199443674893274E-01 a       126     0     6     1     1
 -1.5862258110807703E+00 a       127     0     6     1     2
 -3.1176640364788821E+00 a       128     0     6     1     3
 -7.7973018997923560E-01 a       129     0     6     1     4
  1.5887094141925293E+00 a       130     0     6     1     5
  1.6167751668255928E-01 a       131     0     6     1     6
 -1.5942715420354372E+00 a       132     0     6     1     7
 -2.1304804748090977E+00 a       133     0     6     1     8
  6.5982389903699246E-01 a       134     0     6     1     9
 -2.2712628054543129E-02 a       135     0     6     1    10
 -1.5052648313305050E+00 a       136     0     6     1    11
 -5.8912260961079199E-01 a       137     0     6     1    12
  6.8902573698396696E-01 a       138     0     6     1    13
  1.7983121300619207E+00 a       139     0     6     1    14
  5.7194123755046389E-01 a       140     0     6     1    15
 -2.0991272472544639E-01 a       141     0     6     1    16
  6.6846861863204643E-01 a       142     0     6     1    17
 -1.0718193873333643E+00 a       143     0     6     1    18
 -1.3821062832190749E+00 a       144     0     6     1    19
 -1.0885038514768484E+00 a       145     0     6     1    20
  9.5001807686490025E-01 a       146     0     6     1    21
 -8.4398913899212880E-01 a       147     0     6     1    22
  1.1864004950190710E+00 a       148     0     6     1    23
 -9.4446736583121149E-01 a       149     0     6     1    24
 -1.2625864050966689E+00 a       150     0     6     1    25
 -2.7872367099594560E-02 a       151     0     7     1     1
 -6.6508106223678909E-01 a       152     0     7     1     2
 -1.1478759573669330E+00 a       153     0     7     1     3
 -4.4749224630563916E-01 a       154     0     7     1     4
  4.6187348436717385E-01 a       155     0     7     1     5
  1.3027463385064979E+00 a       156     0     7     1     6
  3.3208504723261850E-01 a       157     0     7     1     7
 -1.0967031874750925E+00 a       158     0     7     1     8
  3.0293300843008208E-01 a       159     0     7     1     9
 -4.2136251003261938E-01 a       160     0     7     1    10
 -1.1956353592182922E+00 a       161     0     7     1    11
  3.5772104758874157E-01 a       162     0     7     1    12
 -5.7214127722313268E-01 a       163     0     7     1    13
 -2.9596925289703133E+00 a       164     0     7     1    14
  1.2211889440966865E+00 a       165     0     7     1    15
  1.8060191301911757E-01 a       166     0     7     1    16
  8.9159080499282978E-02 a       167     0     7     1    17
 -2.7809634916671477E-01 a       168     0     7     1    18
 -2.0666585540684834E+00 a       169     0     7     1    19
 -1.4958877866375778E-01 a       170     0     7     1    20
  8.5748789920290017E-02 a       171     0     7     1    21
  1.7465433284255319E-01 a       172     0     7     1    22
  3.5529952158799155E-01 a       173     0     7     1    23
  1.6939398679354765E+00 a       174     0     7     1    24
  4.5702775114087485E-01 a       175     0     7     1    25
  2.0572316293000156E-01 a       176     0     8     1     1
  6.6456148460736519E-01 a       177     0     8     1     2
 -5.7628932985193793E-01 a       178     0     8     1     3
  6.2083043038752361E-01 a       179     0     8     1     4
  8.8620170722586966E-01 a       180     0     8     1     5
  1.1472409285949523E+00 a       181     0     8     1     6
  3.8470357408304995E-01 a       182     0     8     1     7
 -4.4312171582013454E-01 a       183     0     8     1     8
  1.6500897123626255E+00 a       184     0     8     1     9
  4.1284710160342308E-01 a       185     0     8     1    10
 -2.0761772192579728E-01 a       186     0     8     1    11
  6.5384670404291501E-01 a       187     0     8     1    12
  1.0442372098695600E+00 a       188     0     8     1    13
 -2.9690895970281739E+00 a       189     0     8     1    14
  6.0307481591363468E-02 a       190     0     8     1    15
 -1.4321950343284966E+00 a       191     0     8     1    16
 -3.6070482086273076E-01 a       192     0     8     1    17
 -8.1016409043534354E-01 a       193     0     8     1    18
 -9.2613858863151433E-01 a       194     0     8     1    19
  2.7984166280174211E-01 a       195     0     8     1    20
  9.3801079421017919E-01 a       196     0     8     1    21
 -8.8093704552326291E-01 a       197     0     8     1    22
  2.2403859606738568E+00 a       198     0     8     1    23
  2.3377388674141106E+00 a       199     0     8     1    24
  1.1244885927313053E+00 a       200     0     8     1    25
  1.5875185558396907E+00 a       201     0     9     1     1
  1.7241305212887490E+00 a       202     0     9     1     2
  3.3934571023728419E+00 a       203     0     9     1     3
 -1.9608596444548594E+00 a       204     0     9     1     4
  5.6939801575567539E-01 a       205     0     9     1     5
  1.1003283354964859E+00 a       206     0     9     1     6
  8.6516933426101575E-03 a       207     0     9     1     7
  1.7383143014877533E+00 a       208     0     9     1     8
  7.3582220717016755E-02 a       209     0     9     1     9
 -1.7964340575913527E+00 a       210     0     9     1    10
 -1.3920778116456718E+00 a       211     0     9     1    11
  3.9750284642511780E+00 a       212     0     9     1    12
 -3.3913003940118241E-01 a       213     0     9     1    13
 -6.4186591314270647E+00 a       214     0     9     1    14
 -1.3954550756514581E+00 a       215     0     9     1    15
 -7.2182248324176024E-01 a       216     0     9     1    16
  2.7884342608572332E+00 a       217     0     9     1    17
 -3.0232191132407098E+00 a       218     0     9     1    18
  3.5435637427783200E+00 a       219     0     9     1    19
  1.1980620210505815E+00 a       220     0     9     1    20
  5.3021042918821215E-01 a       221     0     9     1    21
 -1.4499526401930869E+00 a       222     0     9     1    22
  9.2496127888254853E-01 a       223     0     9     1    23
 -2.9831831057176745E+00 a       224     0     9     1    24
 -4.6409671943439096E-01 a       225     0     9     1    25
  5.8823435279828473E-01 a       226     0    10     1     1
 -1.8108308207377669E-01 a       227     0    10     1     2
 -1.1727000891420674E+00 a       228     0    10     1     3
 -2.2084023396746880E-01 a       229     0    10     1     4
 -6.2864350507794442E-01 a       230     0    10     1     5
  2.1104965403541729E+00 a       231     0    10     1     6
  8.5460544883011325E-01 a       232     0    10     1     7
 -1.5178486096285888E+00 a       233     0    10     1     8
 -1.0632560457098708E+00 a       234     0    10     1     9
  5.8576324760414922E-01 a       235     0    10     1    10
 -1.0764091987278044E-03 a       236     0    10     1    11
 -4.0656788805526087E+00 a       237     0    10     1    12
 -5.3660253625924392E-01 a       238     0    10     1    13
  2.0349705744406408E+00 a       239     0    10     1    14
  4.0708606880419079E-01 a       240     0    10     1    15
  3.6319296926733247E-01 a       241     0    10     1    16
  1.9036577583952119E-01 a       242     0    10     1    17
  1.4980696707310233E+00 a       243     0    10     1    18
  1.4641950745322980E+00 a       244     0    10     1    19
 -7.2125842342367885E-01 a       245     0    10     1    20
  7.7465520292369072E-01 a       246     0    10     1    21
 -4.6857195069061136E-01 a       247     0    10     1    22
  1.5718879229622335E-01 a       248     0    10     1    23
  4.8989476482767380E-01 a       249     0    10     1    24
 -8.5461654522833341E-01 a       250     0    10     1    25
  4.2342252761891275E-01 a       251     0    11     1     1
 -2.1327713828167927E-01 a       252     0    11     1     2
  5.3155611972358026E-02 a       253     0    11     1     3
  4.5501713731747262E-01 a       254     0    11     1     4
 -3.2817676153690967E-01 a       255     0    11     1     5
 -1.1209383960565225E+00 a       256     0    11     1     6
 -2.4123820426759346E-01 a       257     0    11     1     7
  2.0534497435594962E-02 a       258     0    11     1     8
 -1.5780069720584552E-01 a       259     0    11     1     9
  1.0282523729633786E+00 a       260     0    11     1    10
  2.1413804830228082E-02 a       261     0    11     1    11
 -3.7859645049209917E-01 a       262     0    11     1    12
  1.3020658263403662E-01 a       263     0    11     1    13
 -3.6458163220732864E-01 a       264     0    11     1    14
  3.0971038256547745E-01 a       265     0    11     1    15
  3.8925358382867997E-01 a       266     0    11     1    16
 -3.5611669578120536E-01 a       267     0    11     1    17
 -1.1172340314984275E+00 a       268     0    11     1    18
 -2.2327888572881056E+00 a       269     0    11     1    19
  7.3944214577090150E-01 a       270     0    11     1    20
  1.7915684866782849E-01 a       271     0    11     1    21
  1.0084568565932008E+00 a       272     0    11     1    22
 -1.9206968216148347E-02 a       273     0    11     1    23
  1.9460029536176652E-02 a       274     0    11     1    24
 -2.4032395040694582E-01 a       275     0    11     1    25
 -2.1561483838150775E-01 a       276     0    12     1     1
  6.8058583464808886E-01 a       277     0    12     1     2
  8.1574677095635795E-01 a       278     0    12     1     3
 -1.4240164128311246E+00 a       279     0    12     1     4
 -4.5911225680523948E-01 a       280     0    12     1     5
  5.5389098499829337E-01 a       281     0    12     1     6
 -4.8767990757715463E-01 a       282     0    12     1     7
  6.8888767223462921E-01 a       283     0    12     1     8
  2.2349039190249900E-01 a       284     0    12     1     9
 -9.9662341678414437E-02 a       285     0    12     1    10
  9.5512230778789828E-02 a       286     0    12     1    11
  1.0559207714996619E+00 a       287     0    12     1    12
  4.0536966785950562E-01 a       288     0    12     1    13
  5.2265546033448886E-02 a       289     0    12     1    14
 -1.0060835396009340E+00 a       290     0    12     1    15
 -1.0593754122073755E+00 a       291     0    12     1    16
  3.0849126681504296E-01 a       292     0    12     1    17
 -1.7278618708353282E+00 a       293     0    12     1    18
 -1.7882716140830035E+00 a       294     0    12     1    19
  8.8654738239707959E-02 a       295     0    12     1    20
  8.2534578257303393E-01 a       296     0    12     1    21
  2.3786449584642860E-01 a       297     0    12     1    22
 -5.5629807114773266E-01 a       298     0    12     1    23
 -9.3795345526914742E-01 a       299     0    12     1    24
 -1.1311825736051653E+00 a       300     0    12     1    25
 -5.7486069306235510E-01 a       301     0    13     1     1
  2.5629227347952616E-01 a       302     0    13     1     2
 -2.0873703743947686E-01 a       303     0    13     1     3
  1.3954224935179615E-01 a       304     0    13     1     4
 -6.9311925352295231E-02 a       305     0    13     1     5
 -1.4483302344970803E-01 a       306     0    13     1     6
  7.9166612373933742E-01 a       307     0    13     1     7
 -4.4110368091833130E-01 a       308     0    13     1     8
 -6.8168499732356402E-01 a       309     0    13     1     9
 -6.2677832018444080E-01 a       310     0    13     1    10
 -4.9969580932774482E-01 a       311     0    13     1    11
  7.4188391870338724E-02 a       312     0    13     1    12
 -9.1046509898815731E-01 a       313     0    13     1    13
 -5.0108355572668767E-02 a       314     0    13     1    14
  9.3441309128356820E-01 a       315     0    13     1    15
  6.5813410491991142E-01 a       316     0    13     1    16
 -1.8636804922697403E-01 a       317     0    13     1    17
  1.8980625199493530E-02 a       318     0    13     1    18
  5.3937336010055840E-02 a       319     0    13     1    19
  3.3090501690792745E-01 a       320     0    13     1    20
  6.5346754803969442E-01 a       321     0    13     1    21
 -8.3539031385552920E-01 a       322     0    13     1    22
  2.2975291349280412E-02 a       323     0    13     1    23
  7.1683408796157189E-01 a       324     0    13     1    24
 -1.3383620443712609E+00 a       325     0    13     1    25
  7.4107210187743666E-01 a       326     0    14     1     1
 -1.0468941808549339E+00 a       327     0    14     1     2
  1.8021648205761676E-01 a       328     0    14     1     3
 -8.7557672217024027E-02 a       329     0    14     1     4
 -3.8168351177124560E-01 a       330     0    14     1     5
  1.8534084846724963E-01 a       331     0    14     1     6
 -7.7005336834858917E-01 a       332     0    14     1     7
 -3.9251575056159643E-01 a       333     0    14     1     8
  4.4699066325848363E-01 a       334     0    14     1     9
  3.0127224207245340E-01 a       335     0    14     1    10
  6.3054113669800993E-01 a       336     0    14     1    11
 -3.3273632480471826E-01 a       337     0    14     1    12
  5.5518456914362613E-01 a       338     0    14     1    13
  1.2750665599039288E-01 a       339     0    14     1    14
 -5.9948880502829260E-01 a       340     0    14     1    15
 -8.6173084682181011E-01 a       341     0    14     1    16
  4.7721638939374489E-01 a       342     0    14     1    17
 -6.0307073626738139E-01 a       343     0    14     1    18
  1.9952184104965567E-01 a       344     0    14     1    19
 -1.6182879600766273E-01 a       345     0    14     1    20
 -1.1713295484305605E-01 a       346     0    14     1    21
 -4.4833260202901615E-01 a       347     0    14     1    22
  2.4499500941225147E-01 a       348     0    14     1    23
  7.2005648279115958E-02 a       349     0    14     1    24
 -7.3273167312897813E-01 a       350     0    14     1    25
 -1.4664927179940045E-02 a       351     0    15     1     1
  8.3205284478128894E-01 a       352     0    15     1     2
  2.8930054714602340E+00 a       353     0    15     1     3
 -1.2072077446963993E-01 a       354     0    15     1     4
  8.6324764432251594E-02 a       355     0    15     1     5
 -2.7144330748677327E-03 a       356     0    15     1     6
  1.1932603047272523E+00 a       357     0    15     1     7
  1.4588429245597530E+00 a       358     0    15     1     8
  1.5863581933388267E+00 a       359     0    15     1     9
  1.1330850955010394E+00 a       360     0    15     1    10
  3.7100558955500984E-01 a       361     0    15     1    11
  1.6256234256916497E+00 a       362     0    15     1    12
  4.3685548002865054E-01 a       363     0    15     1    13
 -2.6810008904325975E+00 a       364     0    15     1    14
  3.4421661619076027E-01 a       365     0    15     1    15
 -6.3244011365258523E-01 a       366     0    15     1    16
 -5.1572036927740472E-01 a       367     0    15     1    17
  2.7887159245420419E+00 a       368     0    15     1    18
  2.2971289088066977E+00 a       369     0    15     1    19
 -8.8123947842041550E-01 a       370     0    15     1    20
  4.0038392617698457E-03 a       371     0    15     1    21
  9.6168578804354721E-01 a       372     0    15     1    22
  5.5625819420710432E-01 a       373     0    15     1    23
  1.5442010628772993E+00 a       374     0    15     1    24
  1.8014496926204338E+00 a       375     0    15     1    25
 -1.6798287649561278E-01 a       376     0    16     1     1
  7.1186117256539838E-02 a       377     0    16     1     2
  7.4404304897940088E-01 a       378     0    16     1     3
  8.3142256242240031E-02 a       379     0    16     1     4
 -1.0982475518071486E-01 a       380     0    16     1     5
 -5.3125440085501241E-01 a       381     0    16     1     6
  4.4765631178901832E-01 a       382     0    16     1     7
 -1.5730485883171119E-01 a       383     0    16     1     8
 -1.0374194666853629E+00 a       384     0    16     1     9
 -1.8970626908386692E-01 a       385     0    16     1    10
  6.5347129313020291E-01 a       386     0    16     1    11
 -1.3165035445812973E-01 a       387     0    16     1    12
  4.6992775292336059E-02 a       388     0    16     1    13
  1.5278521761760726E+00 a       389     0    16     1    14
 -7.1852270130245088E-02 a       390     0    16     1    15
  1.7404480918986880E-02 a       391     0    16     1    16
  6.7410961020580595E-01 a       392     0    16     1    17
 -2.8892622569456929E-02 a       393     0    16     1    18
 -4.0151308148183351E-01 a       394     0    16     1    19
 -6.7589605192524882E-01 a       395     0    16     1    20
 -4.3454751593533170E-01 a       396     0    16     1    21
  8.2753576447490840E-01 a       397     0    16     1    22
 -1.0447850731552282E+00 a       398     0    16     1    23
 -1.8917191636240074E-01 a       399     0    16     1    24
 -2.8891819562260118E-01 a       400     0    16     1    25
  5.4283136789281546E-02 a       401     0    17     1     1
 -1.6232752860771385E-01 a       402     0    17     1     2
 -9.8254311545538042E-01 a       403     0    17     1     3
 -6.2020153609236239E-01 a       404     0    17     1     4
  4.2670558440914530E-01 a       405     0    17     1     5
  7.2935045426588052E-01 a       406     0    17     1     6
 -3.8027017351678322E-01 a       407     0    17     1     7
  1.3946030798886963E-01 a       408     0    17     1     8
  5.7251513709569068E-01 a       409     0    17     1     9
  4.0195357013656674E-01 a       410     0    17     1    10
 -6.3739340081176099E-01 a       411     0    17     1    11
 -2.5276579357992796E-01 a       412     0    17     1    12
  3.8718802693369730E-01 a       413     0    17     1    13
  1.2233429694966003E+00 a       414     0    17     1    14
  2.1182200257818884E-01 a       415     0    17     1    15
  2.6284594004485545E-01 a       416     0    17     1    16
 -4.6825595583459539E-01 a       417     0    17     1    17
  8.9404159756312973E-01 a       418     0    17     1    18
  1.8100299594532340E-01 a       419     0    17     1    19
  5.2156451290959627E-01 a       420     0    17     1    20
  3.9693424816770956E-01 a       421     0    17     1    21
  1.3855971411654542E+00 a       422     0    17     1    22
  3.5990665929926774E-01 a       423     0    17     1    23
  4.1961683235459346E-01 a       424     0    17     1    24
  1.1104205564275249E+00 a       425     0    17     1    25
 -1.4072270081071370E+00 a       426     0    18     1     1
  4.7494991354297009E-02 a       427     0    18     1     2
 -3.0744175878927765E-01 a       428     0    18     1     3
  1.5333580225678218E+00 a       429     0    18     1     4
 -3.4519578418901198E-01 a       430     0    18     1     5
 -2.6226216080651255E-01 a       431     0    18     1     6
  3.4749342147721329E-01 a       432     0    18     1     7
 -6.3267035595556143E-01 a       433     0    18     1     8
  5.4450680550654562E-01 a       434     0    18     1     9
  1.2345331031110696E+00 a       435     0    18     1    10
 -1.7991924036393447E-01 a       436     0    18     1    11
 -3.3144299653703890E-01 a       437     0    18     1    12
 -5.6319136309528084E-01 a       438     0    18     1    13
  2.3487128619658977E+00 a       439     0    18     1    14
  1.9424453942292760E-01 a       440     0    18     1    15
  3.1843913265202894E-01 a       441     0    18     1    16
 -7.9035672295560710E-01 a       442     0    18     1    17
  7.1310023554469659E-01 a       443     0    18     1    18
 -1.1837004936007256E+00 a       444     0    18     1    19
 -7.4722040369413556E-01 a       445     0    18     1    20
 -8.8333251060165441E-01 a       446     0    18     1    21
  1.6810531383046304E-01 a       447     0    18     1    22
 -1.6789792089894360E+00 a       448     0    18     1    23
  5.8973063984833285E-01 a       449     0    18     1    24
  4.2333083463152531E-02 a       450     0    18     1    25
  4.7313812032320601E-01 a       451     0    19     1     1
 -6.8953419627745693E-01 a       452     0    19     1     2
 -3.2855491248559279E+00 a       453     0    19     1     3
 -7.1790588839679281E-01 a       454     0    19     1     4
 -8.7651742026297094E-02 a       455     0    19     1     5
 -1.1408236897689918E+00 a       456     0    19     1     6
  5.7923486803234803E-01 a       457     0    19     1     7
  1.9204714544611896E+00 a       458     0    19     1     8
  3.7185572013685236E-01 a       459     0    19     1     9
  6.5406878472439045E-01 a       460     0    19     1    10
 -3.8312651253708307E-01 a       461     0    19     1    11
  6.2337427892796837E-01 a       462     0    19     1    12
  1.1135501616389818E+00 a       463     0    19     1    13
  1.0539779700920822E+00 a       464     0    19     1    14
 -3.0344651683001900E-01 a       465     0    19     1    15
  7.3409596105906871E-01 a       466     0    19     1    16
  1.4692941533109211E-01 a       467     0    19     1    17
 -1.1664231150256927E+00 a       468     0    19     1    18
 -8.7769378837527623E-01 a       469     0    19     1    19
  2.6110771412319927E-01 a       470     0    19     1    20
  2.2394100951442578E-01 a       471     0    19     1    21
  1.3733475954303924E+00 a       472     0    19     1    22
  3.9267262705783762E-01 a       473     0    19     1    23
  7.2968339892741729E-01 a       474     0    19     1    24
  1.0925904362147234E+00 a       475     0    19     1    25
  3.5648242930548313E-01 a       476     0    20     1     1
  1.2916308805373238E+00 a       477     0    20     1     2
 -8.9596690946319590E-01 a       478     0    20     1     3
  1.6313155628496950E-01 a       479     0    20     1     4
  1.8177094520870815E-01 a       480     0    20     1     5
 -5.9274600229274599E-01 a       481     0    20     1     6
 -4.5712870123401783E-01 a       482     0    20     1     7
 -1.5028587880017724E-01 a       483     0    20     1     8
  3.1034692348059348E-02 a       484     0    20     1     9
 -7.5564631977399177E-01 a       485     0    20     1    10
 -1.8811979390411923E-01 a       486     0    20     1    11
  5.8131847263278202E-01 a       487     0    20     1    12
  4.2625056581523035E-01 a       488     0    20     1    13
 -8.7148820010846409E-02 a       489     0    20     1    14
 -1.1415406167473248E+00 a       490     0    20     1    15
 -4.4506269525074543E-01 a       491     0    20     1    16
  6.9902598829559326E-01 a       492     0    20     1    17
 -2.2586104213831284E+00 a       493     0    20     1    18
 -1.3592382570125783E+00 a       494     0    20     1    19
  4.7817281717275123E-03 a       495     0    20     1    20
  7.5019375071306815E-01 a       496     0    20     1    21
  8.4794237784404181E-01 a       497     0    20     1    22
  5.3085316465460008E-01 a       498     0    20     1    23
 -3.1278085302007652E-01 a       499     0    20     1    24
 -1.8554933310800298E-01 a       500     0    20     1    25
 -2.1843285406517926E-01 a       501     0    21     1     1
  5.3872171239824118E-01 a       502     0    21     1     2
 -9.7509772480232870E-01 a       503     0    21     1     3
  1.4419117796218681E+00 a       504     0    21     1     4
  2.0844271290799471E-01 a       505     0    21     1     5
 -1.3105887517129758E-01 a       506     0    21     1     6
 -2.4775474468891776E-01 a       507     0    21     1     7
 -9.7022524860112169E-01 a       508     0    21     1     8
 -1.4180300047890388E+00 a       509     0    21     1     9
 -9.2123858462861097E-01 a       510     0    21     1    10
 -1.8959986571676010E-01 a       511     0    21     1    11
  1.8501842547172972E-01 a       512     0    21     1    12
  9.6565211689243050E-02 a       513     0    21     1    13
  1.2328019622116904E+00 a       514     0    21     1    14
  4.1416360985618142E-02 a       515     0    21     1    15
 -1.0296755756181071E+00 a       516     0    21     1    16
  3.0097993340651341E-01 a       517     0    21     1    17
 -2.0581153454745253E+00 a       518     0    21     1    18
 -1.3032286007432199E+00 a       519     0    21     1    19
 -2.4964655513590914E-01 a       520     0    21     1    20
 -8.0662486726951443E-01 a       521     0    21     1    21
  1.1618911823939595E+00 a       522     0    21     1    22
 -4.8482983578361405E-01 a       523     0    21     1    23
  1.4117109931166409E-02 a       524     0    21     1    24
 -1.7131018022247330E-01 a       525     0    21     1    25
 -4.7196876027554041E-01 a       526     0    22     1     1
 -1.9976207352645781E-01 a       527     0    22     1     2
 -5.7162061423583113E-02 a       528     0    22     1     3
 -3.2045949981025318E-01 a       529     0    22     1     4
  2.2467485736550979E-01 a       530     0    22     1     5
  2.9411565058701866E-01 a       531     0    22     1     6
 -2.7577875484033787E-01 a       532     0    22     1     7
 -3.2123587538689498E-02 a       533     0    22     1     8
 -5.8645749517153227E-02 a       534     0    22     1     9
 -2.1075046097144029E-01 a       535     0    22     1    10
  4.0919799969092568E-01 a       536     0    22     1    11
  9.6475784936307554E-02 a       537     0    22     1    12
 -2.2423573384366888E-01 a       538     0    22     1    13
 -9.7810851433943780E-01 a       539     0    22     1    14
  4.9511442142818995E-02 a       540     0    22     1    15
  7.5038897425318118E-01 a       541     0    22     1    16
  4.3456454288405902E-02 a       542     0    22     1    17
 -1.2427189586319225E+00 a       543     0    22     1    18
  1.0225543252150120E+00 a       544     0    22     1    19
 -1.7203099459747487E-01 a       545     0    22     1    20
  2.2810383566615081E-01 a       546     0    22     1    21
  7.2774088824874483E-01 a       547     0    22     1    22
 -8.1301966995978814E-01 a       548     0    22     1    23
  8.2394024810888045E-01 a       549     0    22     1    24
 -1.8346967914568766E+00 a       550     0    22     1    25
  5.9812668196747598E-01 a       551     0    23     1     1
  3.5685670404707137E-01 a       552     0    23     1     2
  6.0382402304594662E-01 a       553     0    23     1     3
  7.6240975329835392E-01 a       554     0    23     1     4
  5.1954137687586932E-01 a       555     0    23     1     5
  1.3859341213068083E-01 a       556     0    23     1     6
 -3.5643205162004249E-01 a       557     0    23     1     7
  3.9568005131191647E-01 a       558     0    23     1     8
 -1.0449579451652518E+00 a       559     0    23     1     9
  2.1935680985099082E-01 a       560     0    23     1    10
 -4.2048194997003924E-01 a       561     0    23     1    11
 -5.6863692003925637E-01 a       562     0    23     1    12
  2.1582412638815143E-01 a       563     0    23     1    13
 -2.7388896818614417E-01 a       564     0    23     1    14
  4.2549711111119876E-01 a       565     0    23     1    15
 -5.7664663862207144E-01 a       566     0    23     1    16
  5.2485389259774196E-01 a       567     0    23     1    17
 -5.5849220359055807E-01 a       568     0    23     1    18
  1.2884017806198544E-01 a       569     0    23     1    19
 -2.3209211782312214E-01 a       570     0    23     1    20
  6.8872864131033051E-01 a       571     0    23     1    21
 -6.4793356530822310E-01 a       572     0    23     1    22
 -4.3062579527551670E-01 a       573     0    23     1    23
 -1.5107353326596174E-02 a       574     0    23     1    24
 -1.3972886778387700E-01 a       575     0    23     1    25
  1.7806511718020804E-01 a       576     0    24     1     1
  2.2537673391316861E+00 a       577     0    24     1     2
  1.5956370980588288E+00 a       578     0    24     1     3
  1.1445504842986336E+00 a       579     0    24     1     4
 -2.7710040901686062E-01 a       580     0    24     1     5
 -4.4439692211438531E-01 a       581     0    24     1     6
  2.1977576560677481E-01 a       582     0    24     1     7
  1.6043797483209259E+00 a       583     0    24     1     8
  3.8187931612251008E-01 a       584     0    24     1     9
 -5.6377203049271518E-01 a       585     0    24     1    10
  5.9542191267730615E-01 a       586     0    24     1    11
  3.5920796515089920E-01 a       587     0    24     1    12
 -9.5693005190336383E-02 a       588     0    24     1    13
 -1.9183434622391606E+00 a       589     0    24     1    14
 -9.7318700685142534E-02 a       590     0    24     1    15
 -2.9635124900875360E+00 a       591     0    24     1    16
  6.9267258476386384E-01 a       592     0    24     1    17
  1.3010923346192853E+00 a       593     0    24     1    18
  1.4622204238608201E+00 a       594     0    24     1    19
 -2.0003570740985913E-01 a       595     0    24     1    20
 -5.6502461475789134E-01 a       596     0    24     1    21
  2.7849697827012754E-01 a       597     0    24     1    22
 -4.9404912688338083E-02 a       598     0    24     1    23
 -4.8787976756606194E-01 a       599     0    24     1    24
  4.5018284316293139E-01 a       600     0    24     1    25
  1.5314735848382074E-01 a       601     0    25     1     1
 -7.1045774909133008E-01 a       602     0    25     1     2
  7.8424468474802189E-01 a       603     0    25     1     3
 -7.0576174560814908E-01 a       604     0    25     1     4
  5.5837609518355459E-02 a       605     0    25     1     5
 -6.6045950767868900E-01 a       606     0    25     1     6
 -8.0208562837337272E-01 a       607     0    25     1     7
  6.0967932981696937E-01 a       608     0    25     1     8
  3.0400655942151694E-01 a       609     0    25     1     9
 -2.2090093537717256E-01 a       610     0    25     1    10
 -2.4965141386304357E-01 a       611     0    25     1    11
 -2.5815650914127913E-01 a       612     0    25     1    12
  4.3557361485875506E-01 a       613     0    25     1    13
 -8.5441717096210706E-02 a       614     0    25     1    14
  5.6542217854850918E-01 a       615     0    25     1    15
 -1.8260737312387640E-01 a       616     0    25     1    16
  5.9159656619053858E-01 a       617     0    25     1    17
 -3.4048839624926541E-01 a       618     0    25     1    18
  4.2450823661900811E-01 a       619     0    25     1    19
  1.9378502551247681E-01 a       620     0    25     1    20
 -2.7654576336242298E-01 a       621     0    25     1    21
  1.2136074248432167E+00 a       622     0    25     1    22
 -1.5352553550252729E-01 a       623     0    25     1    23
  5.5259083194412950E-01 a       624     0    25     1    24
 -9.1833353343959767E-01 a       625     0    25     1    25
 -1.3479968250522487E-01 a       626     0    26     1     1
 -7.2770102545004167E-01 a       627     0    26     1     2
  7.2833241313212815E-01 a       628     0    26     1     3
  3.0129378144406288E-01 a       629     0    26     1     4
  5.8772961858847128E-01 a       630     0    26     1     5
 -1.3219783002850001E+00 a       631     0    26     1     6
  1.0070725680910409E-02 a       632     0    26     1     7
  3.0626330818535247E-01 a       633     0    26     1     8
 -2.0026735485588817E-01 a       634     0    26     1     9
  4.2215304561934103E-01 a       635     0    26     1    10
  2.1932835693916139E-01 a       636     0    26     1    11
 -7.7892817790264168E-01 a       637     0    26     1    12
 -2.8443167197703256E-01 a       638     0    26     1    13
  1.3770835752001325E+00 a       639     0    26     1    14
 -6.5647080930316692E-01 a       640     0    26     1    15
  3.5822316783164254E-01 a       641     0    26     1    16
 -8.8033499703215301E-01 a       642     0    26     1    17
  9.7145974158435366E-01 a       643     0    26     1    18
  1.4119352784857353E+00 a       644     0    26     1    19
 -2.3149759809643417E-01 a       645     0    26     1    20
 -6.0925347203911084E-01 a       646     0    26     1    21
  1.0234006088997898E+00 a       647     0    26     1    22
  1.4202370399064973E-01 a       648     0    26     1    23
 -2.4529140319762008E-01 a       649     0    26     1    24
  2.4237879949848637E-01 a       650     0    26     1    25
 -1.4450060985732842E+00 a       651     0    27     1     1
 -1.5844382525366627E+00 a       652     0    27     1     2
 -1.3814287177965172E+00 a       653     0    27     1     3
  1.6853222600566005E+00 a       654     0    27     1     4
 -1.1854754775678022E+00 a       655     0    27     1     5
 -1.3586696499815984E+00 a       656     0    27     1     6
  3.2825955571368796E-02 a       657     0    27     1     7
 -3.2447862372967035E-01 a       658     0    27     1     8
 -1.9190246110785728E-01 a       659     0    27     1     9
  1.1409882482406617E+00 a       660     0    27     1    10
  7.3530618930391436E-02 a       661     0    27     1    11
 -2.0319284894873917E+00 a       662     0    27     1    12
  4.8579999651964589E-01 a       663     0    27     1    13
  1.7146604405306769E+00 a       664     0    27     1    14
  3.0680719558165753E-01 a       665     0    27     1    15
  1.3700467312424916E-01 a       666     0    27     1    16
 -1.3147434182770390E+00 a       667     0    27     1    17
  1.3659416251962826E+00 a       668     0    27     1    18
 -2.5065935956217622E+00 a       669     0    27     1    19
 -6.6811043519889013E-01 a       670     0    27     1    20
 -1.0498761528205487E+00 a       671     0    27     1    21
  1.7976955394701346E+00 a       672     0    27     1    22
 -1.3511043612282247E+00 a       673     0    27     1    23
  2.3460228049963789E+00 a       674     0    27     1    24
  2.3936672065573503E-01 a       675     0    27     1    25
 -4.2388377566458091E-01 a       676     0    28     1     1
  1.1176895365440025E+00 a       677     0    28     1     2
  4.9621044805251974E-01 a       678     0    28     1     3
 -1.2919366738771627E-02 a       679     0    28     1     4
 -7.4104070941268241E-01 a       680     0    28     1     5
 -3.2166005374625026E+00 a       681     0    28     1     6
  2.2351512071307124E-02 a       682     0    28     1     7
 -7.9070989360197200E-02 a       683     0    28     1     8
 -1.9366536730779958E-02 a       684     0    28     1     9
 -3.7973849490196321E-01 a       685     0    28     1    10
 -6.0986652792772739E-02 a       686     0    28     1    11
  1.5681649800443771E+00 a       687     0    28     1    12
  3.4456174723118205E-01 a       688     0    28     1    13
 -6.5614492361059795E-01 a       689     0    28     1    14
 -1.3027184063078262E-01 a       690     0    28     1    15
  4.9438438689639391E-01 a       691     0    28     1    16
 -6.4756994293594283E-01 a       692     0    28     1    17
 -8.4144819753710942E-01 a       693     0    28     1    18
  4.5491833536017240E-02 a       694     0    28     1    19
  2.2480325255979702E-02 a       695     0    28     1    20
 -1.2815064004878789E+00 a       696     0    28     1    21
 -2.8786878743580663E-01 a       697     0    28     1    22
  1.2563203476096247E+00 a       698     0    28     1    23
  2.3686987647210941E-01 a       699     0    28     1    24
 -8.6822107265004012E-01 a       700     0    28     1    25
 -1.7224183971373508E-01 a       701     0    29     1     1
 -1.0080611092700889E+00 a       702     0    29     1     2
  3.5387673264408964E-01 a       703     0    29     1     3
  1.4085253190448502E-04 a       704     0    29     1     4
 -4.6327843385501805E-02 a       705     0    29     1     5
 -2.0527953704224133E-01 a       706     0    29     1     6
  4.8160937509423751E-01 a       707     0    29     1     7
  3.1517388244061489E-01 a       708     0    29     1     8
 -3.0349972288689542E-01 a       709     0    29     1     9
  1.0036720195226816E-01 a       710     0    29     1    10
 -1.0917326139759267E-01 a       711     0    29     1    11
 -4.0894937423679784E-01 a       712     0    29     1    12
  4.9055559677833460E-01 a       713     0    29     1    13
  6.1178963552870302E-01 a       714     0    29     1    14
  8.3397495265393695E-01 a       715     0    29     1    15
 -2.8748089807785548E-01 a       716     0    29     1    16
  2.6546888688290821E-01 a       717     0    29     1    17
 -7.2561735408860434E-02 a       718     0    29     1    18
  7.6800452021669807E-01 a       719     0    29     1    19
 -5.7402300351663771E-01 a       720     0    29     1    20
  1.9981598353016353E-01 a       721     0    29     1    21
  3.0920501834514591E-01 a       722     0    29     1    22
 -4.9915417263297879E-01 a       723     0    29     1    23
  2.9049604405903101E-01 a       724     0    29     1    24
  3.2529222891797166E-01 a       725     0    29     1    25
 -1.4239582359669434E-02 a       726     0    30     1     1
 -5.8732475828167052E-01 a       727     0    30     1     2
  4.2438274844774304E-01 a       728     0    30     1     3
 -3.6381449012256645E-01 a       729     0    30     1     4
 -3.7102913442239549E-01 a       730     0    30     1     5
  4.4407134498310885E-01 a       731     0    30     1     6
  5.7821483942652108E-01 a       732     0    30     1     7
 -5.8398494555734715E-01 a       733     0    30     1     8
 -9.0104707113773844E-02 a       734     0    30     1     9
  3.2385177769308165E-01 a       735     0    30     1    10
  7.6957446699082596E-02 a       736     0    30     1    11
  4.3178842774800413E-01 a       737     0    30     1    12
 -5.4807785780143958E-01 a       738     0    30     1    13
 -1.1982481396901669E-01 a       739     0    30     1    14
  1.6638037968401645E-01 a       740     0    30     1    15
  1.0041958634757118E+00 a       741     0    30     1    16
  4.3627630301729378E-02 a       742     0    30     1    17
  1.0835619753871899E+00 a       743     0    30     1    18
  2.0026841963781377E+00 a       744     0    30     1    19
  4.8669396353490640E-01 a       745     0    30     1    20
 -3.9893376437448241E-01 a       746     0    30     1    21
 -3.3299698829859281E-01 a       747     0    30     1    22
  3.5204202842390708E-01 a       748     0    30     1    23
 -3.9010601327529204E-01 a       749     0    30     1    24
 -2.3471761797652077E-02 a       750     0    30     1    25
 -3.2662067263108779E-01 a       751     0    31     1     1
  1.1180035699074808E+00 a       752     0    31     1     2
  3.3484866836342658E-01 a       753     0    31     1     3
 -3.2231882828892883E-01 a       754     0    31     1     4
  4.8517820627912023E-01 a       755     0    31     1     5
 -9.0509200496409470E-01 a       756     0    31     1     6
  3.3257746979492721E-02 a       757     0    31     1     7
 -2.1800636587817321E-02 a       758     0    31     1     8
 -2.6178193922766185E-01 a       759     0    31     1     9
  6.0682175618864542E-01 a       760     0    31     1    10
 -5.0355237150077414E-01 a       761     0    31     1    11
 -5.5577357839123354E-01 a       762     0    31     1    12
  4.0632792289703651E-01 a       763     0    31     1    13
 -6.4404904829522311E-02 a       764     0    31     1    14
  6.1217912365820293E-01 a       765     0    31     1    15
  3.1365603534604169E-01 a       766     0    31     1    16
 -4.8715150387026340E-01 a       767     0    31     1    17
  2.6804077597554071E-01 a       768     0    31     1    18
  5.2539940551390074E-01 a       769     0    31     1    19
  1.2055739467839430E-01 a       770     0    31     1    20
 -3.4190865321317765E-01 a       771     0    31     1    21
 -7.7813911257930010E-02 a       772     0    31     1    22
  1.0037889848436556E+00 a       773     0    31     1    23
 -4.9690342793297165E-01 a       774     0    31     1    24
  8.2618358823946947E-01 a       775     0    31     1    25
 -1.7483220182522755E-01 a       776     0    32     1     1
 -4.9845354220862154E-01 a       777     0    32     1     2
  2.6044918497112612E-01 a       778     0    32     1     3
 -3.7135664387698102E-03 a       779     0    32     1     4
 -3.9854066336981953E-01 a       780     0    32     1     5
 -3.0531681264823024E-01 a       781     0    32     1     6
  3.1177185000204427E-01 a       782     0    32     1     7
 -7.9411946048655285E-02 a       783     0    32     1     8
  8.5661281234119668E-01 a       784     0    32     1     9
  7.2427338765508401E-02 a       785     0    32     1    10
  2.6963223670053471E-01 a       786     0    32     1    11
  7.2554420698961186E-01 a       787     0    32     1    12
 -2.9866719473136816E-01 a       788     0    32     1    13
 -6.1661596857608664E-02 a       789     0    32     1    14
  1.2032057470461753E-02 a       790     0    32     1    15
 -4.1629329090710210E-01 a       791     0    32     1    16
  4.1147317381908888E-01 a       792     0    32     1    17
 -2.3493816312984600E-01 a       793     0    32     1    18
  5.6419796450718485E-01 a       794     0    32     1    19
 -7.4887766563292768E-01 a       795     0    32     1    20
 -4.0996797471681190E-01 a       796     0    32     1    21
  4.8326000197799979E-01 a       797     0    32     1    22
  4.9725585011156198E-01 a       798     0    32     1    23
 -3.1893493659648653E-01 a       799     0    32     1    24
  6.6119443810660639E-01 a       800     0    32     1    25
 -1.4110706508085147E-01 a       801     0    33     1     1
 -2.0676907734808294E+00 a       802     0    33     1     2
 -1.5480401655059464E+00 a       803     0    33     1     3
 -5.3208110263772890E-01 a       804     0    33     1     4
 -1.9689754384101152E-01 a       805     0    33     1     5
 -1.1880722731164298E-01 a       806     0    33     1     6
 -2.6757159970775635E-01 a       807     0    33     1     7
 -1.0695960625425383E+00 a       808     0    33     1     8
 -6.5179823378214130E-01 a       809     0    33     1     9
 -4.4280012520360545E-01 a       810     0    33     1    10
 -3.0393234480220638E-01 a       811     0    33     1    11
 -3.4955909703863264E-01 a       812     0    33     1    12
 -2.9689368054503029E-01 a       813     0    33     1    13
  7.5235037748579048E-01 a       814     0    33     1    14
 -1.5749082926528440E-01 a       815     0    33     1    15
  2.2090645383779712E+00 a       816     0    33     1    16
 -5.8715970904993164E-01 a       817     0    33     1    17
 -1.0063963708453669E+00 a       818     0    33     1    18
 -1.8325322107616056E+00 a       819     0    33     1    19
  3.7800840928202067E-01 a       820     0    33     1    20
  2.3184045585154053E-01 a       821     0    33     1    21
 -1.0379128560858393E+00 a       822     0    33     1    22
 -2.1873692890151378E-01 a       823     0    33     1    23
 -5.7246351548484109E-01 a       824     0    33     1    24
 -1.0386194087314948E+00 a       825     0    33     1    25
 -3.4290487979765544E-01 a       826     0    34     1     1
  7.8128488112496688E-02 a       827     0    34     1     2
  7.4714533671186767E-01 a       828     0    34     1     3
  5.6513990997622965E-01 a       829     0    34     1     4
 -5.8494326072584424E-01 a       830     0    34     1     5
  7.6809356263290873E-01 a       831     0    34     1     6
 -3.6507218786712775E-01 a       832     0    34     1     7
  6.8397714987859215E-01 a       833     0    34     1     8
  2.4029314808376923E-01 a       834     0    34     1     9
 -3.3400428209474031E-01 a       835     0    34     1    10
 -7.8964779284963726E-01 a       836     0    34     1    11
 -1.4436310712164002E-01 a       837     0    34     1    12
  1.0944519277733908E-01 a       838     0    34     1    13
 -5.5024468995710396E-02 a       839     0    34     1    14
 -2.2273353258427805E-01 a       840     0    34     1    15
 -2.7442023154205630E-01 a       841     0    34     1    16
  1.6118987790939918E-01 a       842     0    34     1    17
  5.0162729211909417E-02 a       843     0    34     1    18
  3.8091437342613121E-01 a       844     0    34     1    19
  9.8033286621191418E-01 a       845     0    34     1    20
 -5.1338095967397119E-03 a       846     0    34     1    21
 -4.1944391001049525E-01 a       847     0    34     1    22
 -3.1256730569803692E-01 a       848     0    34     1    23
  1.6514718830174052E-02 a       849     0    34     1    24
 -9.7771477168589541E-02 a       850     0    34     1    25
  5.7310975149684618E-01 a       851     0    35     1     1
  3.9631569789821308E-01 a       852     0    35     1     2
 -8.8020728283094674E-01 a       853     0    35     1     3
 -3.5256179864166015E-01 a       854     0    35     1     4
  7.9435675207648146E-02 a       855     0    35     1     5
 -2.3163919714269149E-01 a       856     0    35     1     6
  6.3351230147854298E-01 a       857     0    35     1     7
 -7.0665919176285841E-01 a       858     0    35     1     8
 -3.9049054905293107E-01 a       859     0    35     1     9
  2.6761575686589739E-01 a       860     0    35     1    10
  9.2743768226850654E-01 a       861     0    35     1    11
  3.2617840221988126E-01 a       862     0    35     1    12
 -1.6548942920653004E-01 a       863     0    35     1    13
 -1.0558694760801181E-01 a       864     0    35     1    14
 -2.2542049206350490E-02 a       865     0    35     1    15
  4.0558530162056994E-01 a       866     0    35     1    16
 -4.5979295844023903E-02 a       867     0    35     1    17
 -6.9649180177257142E-01 a       868     0    35     1    18
 -3.9752757866029581E-01 a       869     0    35     1    19
 -7.1959102350897985E-01 a       870     0    35     1    20
  2.1025050473804521E-01 a       871     0    35     1    21
 -4.3893775623880282E-01 a       872     0    35     1    22
  3.2103142798449907E-01 a       873     0    35     1    23
 -8.1400747594575024E-02 a       874     0    35     1    24
  6.4330825290005236E-03 a       875     0    35     1    25
  1.2605232765561454E+00 a       876     0    36     1     1
 -4.3427937272786987E-01 a       877     0    36     1     2
  5.1637808910760885E-01 a       878     0    36     1     3
 -2.0821843212372357E+00 a       879     0    36     1     4
  4.3881341918141770E-01 a       880     0    36     1     5
  5.6357841098653098E-02 a       881     0    36     1     6
 -2.0346890356424263E-01 a       882     0    36     1     7
 -4.7163310860796455E-02 a       883     0    36     1     8
 -7.4849442201432956E-02 a       884     0    36     1     9
 -7.5741370044188427E-01 a       885     0    36     1    10
  1.9973480580195282E-01 a       886     0    36     1    11
  6.1646028745988601E-01 a       887     0    36     1    12
  5.8954366227569366E-01 a       888     0    36     1    13
 -5.6995119599510380E-01 a       889     0    36     1    14
 -1.1810613012844969E-01 a       890     0    36     1    15
 -4.9315390804320580E-01 a       891     0    36     1    16
 -3.4037986146458504E-01 a       892     0    36     1    17
 -7.4866253174507635E-01 a       893     0    36     1    18
  1.0897464943296371E+00 a       894     0    36     1    19
  5.3656140359275728E-01 a       895     0    36     1    20
  7.7298671975055966E-01 a       896     0    36     1    21
 -1.1991148167055478E-01 a       897     0    36     1    22
  1.1871080274098273E+00 a       898     0    36     1    23
 -1.4346319349444583E+00 a       899     0    36     1    24
 -6.8296954919106312E-01 a       900     0    36     1    25
  4.3716162999178532E-01 a       901     0    37     1     1
  2.5097835393452955E-01 a       902     0    37     1     2
 -7.5698158663666293E-01 a       903     0    37     1     3
 -1.6247391328352443E+00 a       904     0    37     1     4
  3.7767019863014661E-01 a       905     0    37     1     5
  1.1698776327969023E+00 a       906     0    37     1     6
 -2.7107544168943282E-01 a       907     0    37     1     7
 -1.2089019049338631E-01 a       908     0    37     1     8
 -2.2582827640034352E-02 a       909     0    37     1     9
 -2.5444299440937501E-01 a       910     0    37     1    10
 -6.1575883389355941E-02 a       911     0    37     1    11
 -6.6128688003735170E-01 a       912     0    37     1    12
  1.7645382292605125E-01 a       913     0    37     1    13
 -7.9199485233786060E-01 a       914     0    37     1    14
  1.0843483481142484E-01 a       915     0    37     1    15
 -4.2560802625967398E-02 a       916     0    37     1    16
  4.4158010694733130E-01 a       917     0    37     1    17
  1.3027022140713123E+00 a       918     0    37     1    18
  7.3200827268861823E-01 a       919     0    37     1    19
  2.8687384972877178E-01 a       920     0    37     1    20
  7.2190005562071524E-01 a       921     0    37     1    21
  1.5401543354146524E-01 a       922     0    37     1    22
  5.2709070054673213E-01 a       923     0    37     1    23
  2.8234407196881828E-01 a       924     0    37     1    24
  1.2667205305160253E-01 a       925     0    37     1    25
 -1.8371949305619356E-01 a       926     0    38     1     1
 -2.9330162435830781E-01 a       927     0    38     1     2
  6.5611973756525999E-01 a       928     0    38     1     3
  2.5431996429473545E+00 a       929     0    38     1     4
 -4.5922624135066292E-01 a       930     0    38     1     5
 -4.5310398224523402E-02 a       931     0    38     1     6
 -1.7347869364137289E-01 a       932     0    38     1     7
  3.4689958448105779E-01 a       933     0    38     1     8
  5.9691852873896216E-02 a       934     0    38     1     9
  2.5079288363811969E-01 a       935     0    38     1    10
  1.1266378013300614E-01 a       936     0    38     1    11
  2.9717806400776697E-01 a       937     0    38     1    12
  6.3366403562559626E-02 a       938     0    38     1    13
 -9.5023293778667817E-01 a       939     0    38     1    14
 -1.0153035553488847E+00 a       940     0    38     1    15
 -6.4296768107629609E-01 a       941     0    38     1    16
  5.5475768412841753E-01 a       942     0    38     1    17
 -2.7208227273534118E+00 a       943     0    38     1    18
 -4.7206213604458688E-02 a       944     0    38     1    19
  6.7242035924050225E-01 a       945     0    38     1    20
 -1.1409074689516265E+00 a       946     0    38     1    21
  4.0409254629903157E-01 a       947     0    38     1    22
 -1.2490683204538708E+00 a       948     0    38     1    23
 -1.1691159103794186E+00 a       949     0    38     1    24
  7.8131172069264543E-01 a       950     0    38     1    25
  5.9579956196704797E-01 a       951     0    39     1     1
  4.0234787307380937E-01 a       952     0    39     1     2
 -1.3684350231245734E+00 a       953     0    39     1     3
 -6.9286861581678227E-01 a       954     0    39     1     4
 -2.0575322545831665E-01 a       955     0    39     1     5
 -5.3267269035644493E-01 a       956     0    39     1     6
  3.6457919696497802E-02 a       957     0    39     1     7
 -5.4686896465809109E-01 a       958     0    39     1     8
 -5.4612425841251344E-01 a       959     0    39     1     9
 -6.2279512421388850E-01 a       960     0    39     1    10
  1.9791445877941791E-01 a       961     0    39     1    11
 -2.6514011377426200E-01 a       962     0    39     1    12
  6.7609242578296758E-01 a       963     0    39     1    13
  1.1296265308584617E+00 a       964     0    39     1    14
  6.4239384649410636E-01 a       965     0    39     1    15
  8.2130499000979440E-01 a       966     0    39     1    16
  1.1010257435346440E+00 a       967     0    39     1    17
 -6.0007556166320397E-01 a       968     0    39     1    18
  1.4336164559585871E-01 a       969     0    39     1    19
  1.8657129191185187E-01 a       970     0    39     1    20
 -1.5068829593586572E-01 a       971     0    39     1    21
  7.8118538715839647E-01 a       972     0    39     1    22
  1.4266483300115678E+00 a       973     0    39     1    23
  1.3276973845742444E+00 a       974     0    39     1    24
 -2.0820374666900952E+00 a       975     0    39     1    25
  3.1033230379448595E-01 a       976     0    40     1     1
 -2.2058872143712365E+00 a       977     0    40     1     2
  1.2100644604929267E+00 a       978     0    40     1     3
  1.5818360965139056E-01 a       979     0    40     1     4
 -1.1331373261767824E-01 a       980     0    40     1     5
 -8.1928558305371668E-01 a       981     0    40     1     6
  4.6568856956983096E-02 a       982     0    40     1     7
 -3.1260240553325977E-02 a       983     0    40     1     8
 -7.2270727929484313E-01 a       984     0    40     1     9
  3.4360073430000904E-01 a       985     0    40     1    10
  9.4511927558621500E-01 a       986     0    40     1    11
 -6.3499388961891512E-01 a       987     0    40     1    12
 -2.7356189661086755E-01 a       988     0    40     1    13
  1.0775280762402486E+00 a       989     0    40     1    14
 -5.4028302773681847E-01 a       990     0    40     1    15
 -3.6216360893086308E-01 a       991     0    40     1    16
 -8.5887130713418469E-01 a       992     0    40     1    17
 -2.2711205187838257E-01 a       993     0    40     1    18
 -7.5709208673566553E-01 a       994     0    40     1    19
  3.3948271868247315E-01 a       995     0    40     1    20
 -9.5360563258499875E-01 a       996     0    40     1    21
 -4.2716288276917419E-01 a       997     0    40     1    22
 -1.5332185279568642E+00 a       998     0    40     1    23
 -2.3163016491346236E+00 a       999     0    40     1    24
 -6.7048287278306984E-01 a      1000     0    40     1    25
 -7.0634045710780594E-02 a      1001     0    41     1     1
 -1.2273997545846083E+00 a      1002     0    41     1     2
  6.0083058775503373E-01 a      1003     0    41     1     3
 -1.5363444353043061E+00 a      1004     0    41     1     4
 -2.2228712807642104E-01 a      1005     0    41     1     5
 -3.8167149651392074E-01 a      1006     0    41     1     6
 -2.1884969346968663E-02 a      1007     0    41     1     7
  4.3519267449299924E-02 a      1008     0    41     1     8
  4.9566673328686034E-01 a      1009     0    41     1     9
  5.3144844659339961E-02 a      1010     0    41     1    10
  5.4567396797829393E-01 a      1011     0    41     1    11
  3.6461728239236058E-01 a      1012     0    41     1    12
 -3.6913503768026740E-01 a      1013     0    41     1    13
  6.4525384166750721E-01 a      1014     0    41     1    14
 -5.9818263191526388E-01 a      1015     0    41     1    15
  1.9587309864796715E-01 a      1016     0    41     1    16
 -1.3386296825356376E+00 a      1017     0    41     1    17
  1.0691065215079296E+00 a      1018     0    41     1    18
 -3.1649357387943361E-01 a      1019     0    41     1    19
  6.8271529510127094E-01 a      1020     0    41     1    20
 -4.5827026927104948E-02 a      1021     0    41     1    21
 -8.2296744394760452E-02 a      1022     0    41     1    22
  2.8028160055352919E-01 a      1023     0    41     1    23
  3.1879656160684333E-01 a      1024     0    41     1    24
  2.7524189636706203E-01 a      1025     0    41     1    25
 -7.6702022133985770E-01 a      1026     0    42     1     1
  4.8653405663153571E-01 a      1027     0    42     1     2
 -5.3926985304606578E-01 a      1028     0    42     1     3
 -5.3263361364407891E-01 a      1029     0    42     1     4
 -4.6121508108222969E-01 a      1030     0    42     1     5
 -6.4449221571414284E-01 a      1031     0    42     1     6
  1.3960409491556736E-02 a      1032     0    42     1     7
 -3.7765370866808112E-01 a      1033     0    42     1     8
 -3.0512733427026945E-01 a      1034     0    42     1     9
  2.4540999801865943E-01 a      1035     0    42     1    10
  7.9177616226417141E-02 a      1036     0    42     1    11
  1.8746980807405650E-01 a      1037     0    42     1    12
 -1.0245992324990492E+00 a      1038     0    42     1    13
  1.1723229470844532E+00 a      1039     0    42     1    14
 -4.5674384078776087E-01 a      1040     0    42     1    15
  1.3327917434437214E-02 a      1041     0    42     1    16
 -1.3706800033850577E+00 a      1042     0    42     1    17
  1.1742515923112278E-02 a      1043     0    42     1    18
 -7.6244392524777960E-01 a      1044     0    42     1    19
  3.7439311606230480E-01 a      1045     0    42     1    20
 -3.4632241548720527E-01 a      1046     0    42     1    21
 -1.8459149796959302E+00 a      1047     0    42     1    22
  3.8364294871080207E-01 a      1048     0    42     1    23
  4.7271717916480144E-01 a      1049     0    42     1    24
  3.7933025273819793E-01 a      1050     0    42     1    25
  1.9870897681879557E-01 a      1051     0    43     1     1
 -3.7875606848363347E-01 a      1052     0    43     1     2
  4.0253296904783720E-01 a      1053     0    43     1     3
  4.6796535898146246E-01 a      1054     0    43     1     4
  2.0022516155659489E-01 a      1055     0    43     1     5
  3.7996127152983561E-01 a      1056     0    43     1     6
 -8.7055437727213442E-02 a      1057     0    43     1     7
 -8.3706908727787258E-02 a      1058     0    43     1     8
 -7.3523028302550794E-02 a      1059     0    43     1     9
 -2.2546931885097857E-01 a      1060     0    43     1    10
  3.5124856961225630E-02 a      1061     0    43     1    11
  2.3870116769986596E-01 a      1062     0    43     1    12
  5.2323756566939617E-01 a      1063     0    43     1    13
  4.7657918146462624E-01 a      1064     0    43     1    14
  1.2794324256227727E-01 a      1065     0    43     1    15
  3.0322729489045236E-01 a      1066     0    43     1    16
  6.1218892165519678E-01 a      1067     0    43     1    17
 -1.4129049204766411E-01 a      1068     0    43     1    18
  5.0522422955926660E-01 a      1069     0    43     1    19
  1.8180129584115667E-01 a      1070     0    43     1    20
  1.9153063254474462E-01 a      1071     0    43     1    21
  8.5824956816723130E-01 a      1072     0    43     1    22
 -1.7404390195602348E-01 a      1073     0    43     1    23
 -2.1385284059011539E-01 a      1074     0    43     1    24
 -1.7372941256227965E-02 a      1075     0    43     1    25
 -9.1575805409663535E-02 a      1076     0    44     1     1
 -1.9738619796180035E-01 a      1077     0    44     1     2
  6.8911429079518838E-01 a      1078     0    44     1     3
 -2.0335385463813642E+00 a      1079     0    44     1     4
  4.6164426851318274E-01 a      1080     0    44     1     5
 -6.9301040193214691E-01 a      1081     0    44     1     6
 -2.9971766733211974E-01 a      1082     0    44     1     7
  4.8694081338525258E-01 a      1083     0    44     1     8
 -1.9458726411581535E+00 a      1084     0    44     1     9
 -6.0204144376385127E-01 a      1085     0    44     1    10
  3.6978386065697408E-02 a      1086     0    44     1    11
 -2.3733507526912376E-01 a      1087     0    44     1    12
 -4.4354390570400948E-01 a      1088     0    44     1    13
 -4.0761426485206564E-01 a      1089     0    44     1    14
  1.5525907039426742E-01 a      1090     0    44     1    15
 -6.6656715079424522E-01 a      1091     0    44     1    16
 -1.7182919077079375E+00 a      1092     0    44     1    17
  6.3200944796914027E-01 a      1093     0    44     1    18
  6.5750199858530756E-01 a      1094     0    44     1    19
 -4.1834419365448211E-01 a      1095     0    44     1    20
  3.5689168959657952E-01 a      1096     0    44     1    21
 -1.1685559557672873E+00 a      1097     0    44     1    22
 -4.9551790920162048E-01 a      1098     0    44     1    23
 -8.9364225295146194E-01 a      1099     0    44     1    24
 -1.3866632986705754E+00 a      1100     0    44     1    25
  5.7382982241699590E-02 b      1101     1     1
 -1.7823383513534856E+00 b      1102     1     2
 -6.4172105224017773E-01 b      1103     1     3
  1.1682318961853473E-01 b      1104     1     4
  4.2208553856673309E-01 b      1105     1     5
 -3.3720843046319851E-02 b      1106     1     6
  9.9879481162543526E-01 b      1107     1     7
  3.4289889545048614E-02 b      1108     1     8
  6.2335673841445804E-01 b      1109     1     9
  6.9212423109952448E-01 b      1110     1    10
  2.2746009340494791E-01 b      1111     1    11
  2.0386810585711240E-01 b      1112     1    12
  1.3999997785855139E-01 b      1113     1    13
  1.4200141115522838E-01 b      1114     1    14
  4.2454927741045134E-01 b      1115     1    15
 -1.5363552873759850E-01 b      1116     1    16
  2.8811967276260941E-01 b      1117     1    17
 -6.6984919196668469E-01 b      1118     1    18
  7.9537211775824757E-01 b      1119     1    19
  1.5997035949746892E+00 b      1120     1    20
 -1.5788050901616547E-02 b      1121     1    21
  2.0603992585240505E-01 b      1122     1    22
  1.7716983329935559E-01 b      1123     1    23
  5.5843451190225080E-01 b      1124     1    24
 -9.3856793271979466E-01 b      1125     1    25
  2.8991621963795078E-01 a      1126     1     1     2     1
 -1.3943981625285240E+00 a      1127     1     1     2     2
  4.4873688378457310E-01 a      1128     1     1     2     3
  1.1719526825419100E+00 a      1129     1     1     2     4
 -1.3304343178655836E-01 a      1130     1     1     2     5
 -7.7354726846061328E-01 a      1131     1     1     2     6
  3.9710181318535695E-02 a      1132     1     1     2     7
  7.1601956386207577E-01 a      1133     1     1     2     8
  7.3204181448211947E-01 a      1134     1     1     2     9
  2.7329454239082018E-01 a      1135     1     1     2    10
  3.2653851894811270E-01 a      1136     1     1     2    11
  1.0388198232500491E-01 a      1137     1     1     2    12
 -3.6907722545704580E-01 a      1138     1     1     2    13
  3.6436742929052146E-01 a      1139     1     1     2    14
  3.8572942617403078E-01 a      1140     1     1     2    15
 -7.1205430443066875E-01 a      1141     1     1     2    16
  2.5825716678811744E-01 a      1142     1     1     2    17
  4.4465829144746638E-01 a      1143     1     1     2    18
 -1.0251465404190559E-01 a      1144     1     1     2    19
  1.6837447980889897E+00 a      1145     1     1     2    20
 -7.0237560402027888E-02 a      1146     1     1     2    21
 -1.2084620414375089E+00 a      1147     1     1     2    22
 -1.1405911621553473E+00 a      1148     1     1     2    23
 -5.2533002610914273E-02 a      1149     1     1     2    24
  7.0295322773764857E-01 a      1150     1     1     2    25
  2.2054180631256728E-01 a      1151     1     2     2     1
 -7.5605663822697078E-01 a      1152     1     2     2     2
 -5.4775719274637080E-01 a      1153     1     2     2     3
 -3.8911142096943725E+00 a      1154     1     2     2     4
  5.4273159076871014E-01 a      1155     1     2     2     5
  1.4624102527293939E-01 a      1156     1     2     2     6
 -2.8663420578305537E-01 a      1157     1     2     2     7
 -4.2349820161627205E-01 a      1158     1     2     2     8
  8.8819983355475241E-03 a      1159     1     2     2     9
  8.2863062002772114E-01 a      1160     1     2     2    10
 -7.5388901180587875E-01 a      1161     1     2     2    11
 -8.2843695229947401E-01 a      1162     1     2     2    12
 -2.9572664117515185E-01 a      1163     1     2     2    13
  2.0196441081931907E-01 a      1164     1     2     2    14
 -2.9362262861119121E-01 a      1165     1     2     2    15
  2.2182023983608495E-01 a      1166     1     2     2    16
 -6.6872300301799403E-01 a      1167     1     2     2    17
  6.4946398943543782E-01 a      1168     1     2     2    18
  3.3671519024676622E-01 a      1169     1     2     2    19
 -3.5301161069231107E-01 a      1170     1     2     2    20
 -4.4061631598648821E-01 a      1171     1     2     2    21
  2.5664147312703361E-01 a      1172     1     2     2    22
 -6.2003897572437350E-01 a      1173     1     2     2    23
 -4.2706931701345402E-01 a      1174     1     2     2    24
 -6.2439033485416476E-02 a      1175     1     2     2    25
  7.6707436141545449E-01 a      1176     1     3     2     1
  2.0129992495222562E-01 a      1177     1     3     2     2
 -2.9698319793180544E-01 a      1178     1     3     2     3
 -1.0949212300413394E-01 a      1179     1     3     2     4
  6.7445563602899522E-02 a      1180     1     3     2     5
  7.7971043580758348E-02 a      1181     1     3     2     6
 -1.9660417345141104E-01 a      1182     1     3     2     7
 -2.2138580298072083E-01 a      1183     1     3     2     8
  3.1648165365767533E-01 a      1184     1     3     2     9
  1.2453784966045154E+00 a      1185     1     3     2    10
 -5.6121953759300136E-01 a      1186     1     3     2    11
 -1.6105116827130450E-01 a      1187     1     3     2    12
 -2.3116315776718371E-01 a      1188     1     3     2    13
 -3.4477500558701191E-02 a      1189     1     3     2    14
 -9.6178292039627009E-02 a      1190     1     3     2    15
 -1.5828170717102247E-01 a      1191     1     3     2    16
 -8.5914373068308869E-01 a      1192     1     3     2    17
 -2.3976126944502624E-01 a      1193     1     3     2    18
  6.1707024889286433E-01 a      1194     1     3     2    19
  5.2193011033992720E-01 a      1195     1     3     2    20
 -9.1584005913795882E-02 a      1196     1     3     2    21
  2.5700168787460335E-02 a      1197     1     3     2    22
 -4.2352881338167525E-01 a      1198     1     3     2    23
 -1.7880049778262602E-01 a      1199     1     3     2    24
 -1.1638967481822891E-01 a      1200     1     3     2    25
  7.7851490566245088E-02 a      1201     1     4     2     1
 -3.1981844836365231E-01 a      1202     1     4     2     2
  8.5854378202588733E-01 a      1203     1     4     2     3
  3.4383622563752031E-01 a      1204     1     4     2     4
 -7.1455085094486614E-01 a      1205     1     4     2     5
 -4.4484582924539123E-01 a      1206     1     4     2     6
  4.4600493477937725E-01 a      1207     1     4     2     7
 -1.1783536725606336E-01 a      1208     1     4     2     8
 -2.4409816652753000E-01 a      1209     1     4     2     9
 -3.5357896981665382E-01 a      1210     1     4     2    10
  8.4397853230820452E-01 a      1211     1     4     2    11
  3.1742403182541123E-02 a      1212     1     4     2    12
  6.4594928089121983E-01 a      1213     1     4     2    13
 -2.0562006232167659E-01 a      1214     1     4     2    14
  3.5377184289017771E-01 a      1215     1     4     2    15
 -1.0085371730951599E-01 a      1216     1     4     2    16
 -1.3155404385044960E+00 a      1217     1     4     2    17
 -5.8996972435602901E-01 a      1218     1     4     2    18
 -5.9743375430168992E-02 a      1219     1     4     2    19
  2.5896668046726956E-01 a      1220     1     4     2    20
  2.1166957117278239E-02 a      1221     1     4     2    21
 -4.2883137217171532E-02 a      1222     1     4     2    22
  3.8900098278034484E-01 a      1223     1     4     2    23
 -2.8160062396635099E-01 a      1224     1     4     2    24
  4.3294166877445328E-01 a      1225     1     4     2    25
 -1.6175616649612851E-01 a      1226     1     5     2     1
  8.3914824271654295E-02 a      1227     1     5     2     2
  3.1957396915630276E-01 a      1228     1     5     2     3
  4.0806663826728051E-01 a      1229     1     5     2     4
  7.1915108066126054E-01 a      1230     1     5     2     5
  6.4587668173330237E-01 a      1231     1     5     2     6
  4.2543226338374596E-01 a      1232     1     5     2     7
 -8.8850377090287605E-02 a      1233     1     5     2     8
  1.3498365760729244E-02 a      1234     1     5     2     9
  1.1881109232325488E-02 a      1235     1     5     2    10
 -1.7026509414586399E+00 a      1236     1     5     2    11
  2.8576266763983860E-01 a      1237     1     5     2    12
 -3.4684865304818430E-01 a      1238     1     5     2    13
  1.8582204103788252E-01 a      1239     1     5     2    14
  2.4427563052696191E-01 a      1240     1     5     2    15
 -4.7548822246788148E-03 a      1241     1     5     2    16
 -1.1763039737014431E+00 a      1242     1     5     2    17
 -7.6092216737540286E-01 a      1243     1     5     2    18
 -2.2333832397577441E-02 a      1244     1     5     2    19
 -2.9289485285412353E-01 a      1245     1     5     2    20
  3.6933281879110186E-01 a      1246     1     5     2    21
  4.8852911347040777E-02 a      1247     1     5     2    22
 -1.3651550831574169E-01 a      1248     1     5     2    23
  1.1897690693681280E-01 a      1249     1     5     2    24
 -2.1455460281700187E-01 a      1250     1     5     2    25
 -1.7696736747222888E-01 a      1251     1     6     2     1
  8.6296796104866302E-01 a      1252     1     6     2     2
 -7.1958973981950600E-02 a      1253     1     6     2     3
 -5.8041477823926013E-01 a      1254     1     6     2     4
 -5.1933429030102718E-01 a      1255     1     6     2     5
 -5.1697708817181076E-01 a      1256     1     6     2     6
 -4.1227468778729026E-01 a      1257     1     6     2     7
  2.0251844567131047E-01 a      1258     1     6     2     8
 -6.3325514823152140E-01 a      1259     1     6     2     9
 -8.1260258803167132E-02 a      1260     1     6     2    10
  1.2958516981875551E-01 a      1261     1     6     2    11
 -2.1073347961518704E-01 a      1262     1     6     2    12
  1.9925121473799812E-01 a      1263     1     6     2    13
 -1.4842423769809701E-01 a      1264     1     6     2    14
 -3.5606426419761289E-01 a      1265     1     6     2    15
  3.8116918188387600E-01 a      1266     1     6     2    16
 -4.9073600907740289E-01 a      1267     1     6     2    17
  1.7278896245069378E-01 a      1268     1     6     2    18
  4.1433877649728690E-01 a      1269     1     6     2    19
 -3.3158876915098878E-01 a      1270     1     6     2    20
 -4.1532159291873039E-01 a      1271     1     6     2    21
  9.3021979618790065E-02 a      1272     1     6     2    22
 -5.7951340446236743E-01 a      1273     1     6     2    23
  1.3531530263777787E+00 a      1274     1     6     2    24
  4.8580544655016022E-01 a      1275     1     6     2    25
  1.7523162834150990E-01 a      1276     1     7     2     1
  5.4330310618103361E-01 a      1277     1     7     2     2
  9.9568654777992677E-02 a      1278     1     7     2     3
 -3.0036926478317699E-01 a      1279     1     7     2     4
  2.3404023200354968E-01 a      1280     1     7     2     5
 -4.2426757445425184E-01 a      1281     1     7     2     6
  5.8899550647706700E-01 a      1282     1     7     2     7
  1.1791013474316363E-02 a      1283     1     7     2     8
  6.6354424028786130E-01 a      1284     1     7     2     9
 -6.5920535272860414E-01 a      1285     1     7     2    10
 -1.8307034901840151E+00 a      1286     1     7     2    11
  5.9718991404346355E-01 a      1287     1     7     2    12
  5.4017715901462082E-01 a      1288     1     7     2    13
 -3.7706394979635977E-01 a      1289     1     7     2    14
  5.3328302122521254E-01 a      1290     1     7     2    15
  1.1288669457931665E-01 a      1291     1     7     2    16
 -1.8975763065066231E+00 a      1292     1     7     2    17
  3.6891421737412800E-01 a      1293     1     7     2    18
  2.0397701246104805E-01 a      1294     1     7     2    19
 -5.2824989017786605E-01 a      1295     1     7     2    20
 -1.0882360689059895E-01 a      1296     1     7     2    21
 -1.8766393448705582E-02 a      1297     1     7     2    22
  2.9283856945176373E-01 a      1298     1     7     2    23
  1.3479058520773954E+00 a      1299     1     7     2    24
  1.7701785537394196E-01 a      1300     1     7     2    25
  1.0571551956595185E-01 a      1301     1     8     2     1
  4.0761274930687963E-01 a      1302     1     8     2     2
 -5.9922390938294678E-01 a      1303     1     8     2     3
  4.7839817230949820E-03 a      1304     1     8     2     4
  8.5828286048220770E-01 a      1305     1     8     2     5
 -3.1457482620058641E-01 a      1306     1     8     2     6
 -7.2232610741492898E-01 a      1307     1     8     2     7
  2.6049633934135263E-01 a      1308     1     8     2     8
  7.5003337615795895E-01 a      1309     1     8     2     9
  3.3166455194100047E-01 a      1310     1     8     2    10
  5.0347360918814410E-01 a      1311     1     8     2    11
 -1.7372602797176379E-01 a      1312     1     8     2    12
  7.9989812959004869E-01 a      1313     1     8     2    13
  4.2738802274718302E-01 a      1314     1     8     2    14
 -6.8879614461805239E-01 a      1315     1     8     2    15
 -2.9749119215832459E-01 a      1316     1     8     2    16
  9.6346098864865715E-01 a      1317     1     8     2    17
  6.6031221675731289E-01 a      1318     1     8     2    18
 -3.7083947117250510E-01 a      1319     1     8     2    19
  7.6160939710800679E-02 a      1320     1     8     2    20
  7.0017123202801912E-01 a      1321     1     8     2    21
 -3.0896343143498173E-01 a      1322     1     8     2    22
 -1.2030627170268218E-01 a      1323     1     8     2    23
 -1.4649684552812092E-01 a      1324     1     8     2    24
 -3.2870042865344917E-01 a      1325     1     8     2    25
  1.5584693358773319E-01 a      1326     1     9     2     1
 -4.5730598529132938E-01 a      1327     1     9     2     2
  5.7492320111319939E-01 a      1328     1     9     2     3
 -6.5705799407481461E-02 a      1329     1     9     2     4
 -2.1945176957633272E+00 a      1330     1     9     2     5
  8.3371212366570502E-01 a      1331     1     9     2     6
  8.5145513674833417E-02 a      1332     1     9     2     7
 -6.2586010733018838E-02 a      1333     1     9     2     8
 -3.5776525166091117E-01 a      1334     1     9     2     9
  3.3743663011457403E-01 a      1335     1     9     2    10
  1.1777476289355411E+00 a      1336     1     9     2    11
 -5.5474485985831079E-01 a      1337     1     9     2    12
 -6.7075334515977381E-01 a      1338     1     9     2    13
 -3.8103966423742808E-01 a      1339     1     9     2    14
  1.3941703492612803E-01 a      1340     1     9     2    15
  1.8925390497872704E-01 a      1341     1     9     2    16
  3.8129091607504950E-01 a      1342     1     9     2    17
 -3.8764805702310567E-01 a      1343     1     9     2    18
  5.4110368882318571E-01 a      1344     1     9     2    19
  4.0169306106805469E-01 a      1345     1     9     2    20
 -4.7828196992187538E-01 a      1346     1     9     2    21
  4.5713628584792193E-01 a      1347     1     9     2    22
 -6.5897077724816688E-01 a      1348     1     9     2    23
 -2.9304979305089562E-01 a      1349     1     9     2    24
  1.2797579745727294E-01 a      1350     1     9     2    25
  4.8961370128118897E-01 a      1351     1    10     2     1
  2.3004795941445589E-03 a      1352     1    10     2     2
 -1.4629259861652880E-01 a      1353     1    10     2     3
 -5.9677506763112377E-02 a      1354     1    10     2     4
 -1.3883348393478773E-01 a      1355     1    10     2     5
 -3.5584777571799986E-01 a      1356     1    10     2     6
  1.4230325514763650E-01 a      1357     1    10     2     7
  6.0490255443398488E-01 a      1358     1    10     2     8
 -3.2178969912019439E-01 a      1359     1    10     2     9
 -3.5463593261294507E-01 a      1360     1    10     2    10
  3.0479333543994330E-01 a      1361     1    10     2    11
 -5.0033348125675656E-02 a      1362     1    10     2    12
  3.0471452940134808E-01 a      1363     1    10     2    13
 -1.0481989942455758E-01 a      1364     1    10     2    14
  2.4553105759626870E-01 a      1365     1    10     2    15
  3.0747738097305316E-01 a      1366     1    10     2    16
  6.4657605847374833E-01 a      1367     1    10     2    17
 -5.2345148089242122E-02 a      1368     1    10     2    18
  4.2550147078688989E-02 a      1369     1    10     2    19
  2.5048024581877454E-01 a      1370     1    10     2    20
  3.1364309305862459E-01 a      1371     1    10     2    21
  4.9503532002893536E-01 a      1372     1    10     2    22
  9.4388434495871393E-02 a      1373     1    10     2    23
  6.0634117227596196E-01 a      1374     1    10     2    24
  9.0403755905415148E-02 a      1375     1    10     2    25
 -1.5667932756593985E+00 a      1376     1    11     2     1
  6.2496211383259903E-01 a      1377     1    11     2     2
 -2.8750594784928513E-01 a      1378     1    11     2     3
  2.9213392005453479E-02 a      1379     1    11     2     4
 -1.6335671915865768E+00 a      1380     1    11     2     5
 -5.5395474845217008E-01 a      1381     1    11     2     6
 -2.3720086445158337E-01 a      1382     1    11     2     7
  6.3279115018926213E-01 a      1383     1    11     2     8
 -1.0363138256710465E+00 a      1384     1    11     2     9
 -3.6171829033010150E-01 a      1385     1    11     2    10
  2.3976073723683722E-01 a      1386     1    11     2    11
  1.3280595620093152E+00 a      1387     1    11     2    12
  1.3169790092616326E-01 a      1388     1    11     2    13
 -5.8004254441949188E-01 a      1389     1    11     2    14
 -4.6029145941006461E-01 a      1390     1    11     2    15
  5.8811751579844929E-01 a      1391     1    11     2    16
  3.1694592747709421E-01 a      1392     1    11     2    17
  1.9088791592398446E-01 a      1393     1    11     2    18
 -1.7599489423872147E-01 a      1394     1    11     2    19
 -1.0582524440136447E+00 a      1395     1    11     2    20
  4.0568605270641600E-01 a      1396     1    11     2    21
  3.8353077764643323E-01 a      1397     1    11     2    22
  1.6827935587680818E+00 a      1398     1    11     2    23
  2.9170316295153532E-02 a      1399     1    11     2    24
  3.0004836821040543E-01 a      1400     1    11     2    25
 -3.0237679283005370E-01 a      1401     1    12     2     1
 -5.1456866035912197E-01 a      1402     1    12     2     2
  5.4975509838153835E-01 a      1403     1    12     2     3
  7.7627285572656923E-01 a      1404     1    12     2     4
 -8.8989825104918019E-01 a      1405     1    12     2     5
 -3.7507214618584028E-01 a      1406     1    12     2     6
 -6.0266652438046256E-02 a      1407     1    12     2     7
  8.2331366309937135E-02 a      1408     1    12     2     8
 -7.9394047791462052E-01 a      1409     1    12     2     9
 -9.6596511666377494E-01 a      1410     1    12     2    10
  5.8724045361712873E-01 a      1411     1    12     2    11
  2.5669799416274863E-01 a      1412     1    12     2    12
  1.6853068923235881E-01 a      1413     1    12     2    13
 -2.6400493098389927E-01 a      1414     1    12     2    14
 -6.3478395482437805E-02 a      1415     1    12     2    15
  6.8352759570802046E-01 a      1416     1    12     2    16
  1.1571683705024338E-01 a      1417     1    12     2    17
  6.9506356409744577E-02 a      1418     1    12     2    18
 -4.2861167824977825E-01 a      1419     1    12     2    19
 -2.3099351240412180E-01 a      1420     1    12     2    20
  1.9992972938297934E-01 a      1421     1    12     2    21
  2.2966246595969098E-01 a      1422     1    12     2    22
  1.9868373633093334E-01 a      1423     1    12     2    23
  1.7465422173264209E+00 a      1424     1    12     2    24
  1.4829162845599472E-02 a      1425     1    12     2    25
  2.9296430432531906E-01 a      1426     1    13     2     1
  1.8710418013365288E-01 a      1427     1    13     2     2
 -4.3572186419439418E-01 a      1428     1    13     2     3
 -9.3179250973077277E-01 a      1429     1    13     2     4
  1.6068878046355128E-01 a      1430     1    13     2     5
  4.6534610319459652E-01 a      1431     1    13     2     6
  2.2169884627258954E-01 a      1432     1    13     2     7
 -5.9363217393925138E-01 a      1433     1    13     2     8
  1.8239555709168023E-01 a      1434     1    13     2     9
  3.5099095417015447E-01 a      1435     1    13     2    10
  3.1605532935247860E-01 a      1436     1    13     2    11
 -4.0530307045821262E-01 a      1437     1    13     2    12
 -1.0557865716828137E-01 a      1438     1    13     2    13
 -1.1064863725643681E+00 a      1439     1    13     2    14
 -1.2944784840302620E-01 a      1440     1    13     2    15
  5.8339752125906051E-02 a      1441     1    13     2    16
  8.1849228506483318E-01 a      1442     1    13     2    17
 -9.0826106022340661E-03 a      1443     1    13     2    18
 -8.4529535498161157E-01 a      1444     1    13     2    19
 -5.2974436536755343E-01 a      1445     1    13     2    20
  4.2967948593340954E-01 a      1446     1    13     2    21
  4.7312542146651898E-01 a      1447     1    13     2    22
  1.3451172546412562E+00 a      1448     1    13     2    23
 -1.8020614088321636E+00 a      1449     1    13     2    24
 -1.2273567775308838E+00 a      1450     1    13     2    25
  1.4679832016711528E-01 a      1451     1    14     2     1
 -2.6127800422613512E-01 a      1452     1    14     2     2
 -8.4705411522056392E-02 a      1453     1    14     2     3
 -3.5960707595964939E-02 a      1454     1    14     2     4
  2.6363227054076838E-01 a      1455     1    14     2     5
  1.3704824879148100E-01 a      1456     1    14     2     6
 -2.5803527722952840E-01 a      1457     1    14     2     7
 -1.3713239368351191E-01 a      1458     1    14     2     8
  2.5694665634969027E-01 a      1459     1    14     2     9
  2.6873463656232893E-01 a      1460     1    14     2    10
  3.1880040992006609E-01 a      1461     1    14     2    11
 -1.7111769617889422E-01 a      1462     1    14     2    12
 -4.8601551053629503E-02 a      1463     1    14     2    13
 -5.4775298130828390E-02 a      1464     1    14     2    14
 -2.1159602013481335E-01 a      1465     1    14     2    15
  1.1035417930466648E-01 a      1466     1    14     2    16
  7.0534712367515184E-02 a      1467     1    14     2    17
  4.5137139787792258E-01 a      1468     1    14     2    18
 -3.3118239648154045E-02 a      1469     1    14     2    19
 -6.4023140211070764E-02 a      1470     1    14     2    20
  1.3464139466299216E-01 a      1471     1    14     2    21
  2.8277905277591076E-01 a      1472     1    14     2    22
  2.2946341509290458E-01 a      1473     1    14     2    23
 -1.9586863848827860E-01 a      1474     1    14     2    24
 -1.2530585939858760E-01 a      1475     1    14     2    25
 -1.3376823378294964E-01 a      1476     1    15     2     1
 -5.8794687217661279E-01 a      1477     1    15     2     2
  4.8700049093665726E-01 a      1478     1    15     2     3
  2.0909009615620830E-01 a      1479     1    15     2     4
 -2.9769873825819448E-01 a      1480     1    15     2     5
 -2.8485410258813935E-02 a      1481     1    15     2     6
 -3.0601491014957583E-01 a      1482     1    15     2     7
  8.0677667562153929E-02 a      1483     1    15     2     8
  4.8025280641874772E-02 a      1484     1    15     2     9
 -5.4892231545757098E-01 a      1485     1    15     2    10
  2.6795037944682176E-01 a      1486     1    15     2    11
 -7.2812523418938430E-02 a      1487     1    15     2    12
  4.8870001511709676E-01 a      1488     1    15     2    13
  3.3136278601657532E-01 a      1489     1    15     2    14
 -3.8848572409943732E-01 a      1490     1    15     2    15
  3.5888758943138604E-01 a      1491     1    15     2    16
  2.8595264409103477E-01 a      1492     1    15     2    17
  1.1377979235066889E-01 a      1493     1    15     2    18
  4.9059745631788998E-01 a      1494     1    15     2    19
  8.9390263286569027E-01 a      1495     1    15     2    20
 -2.6916900630499568E-01 a      1496     1    15     2    21
  5.5003497484079722E-01 a      1497     1    15     2    22
 -6.9803861318127980E-01 a      1498     1    15     2    23
 -1.8604964861837955E-01 a      1499     1    15     2    24
  2.5679561936159451E-01 a      1500     1    15     2    25
 -3.3961388325639841E-01 a      1501     1    16     2     1
  1.3203322914015536E+00 a      1502     1    16     2     2
  2.8388671203357990E-01 a      1503     1    16     2     3
 -1.8396334683084796E+00 a      1504     1    16     2     4
  1.4242753250271062E-01 a      1505     1    16     2     5
  4.0044126470307101E-01 a      1506     1    16     2     6
  6.7908309310960524E-01 a      1507     1    16     2     7
 -6.1830565496809438E-02 a      1508     1    16     2     8
 -4.8839483498419234E-01 a      1509     1    16     2     9
  9.0200169755772941E-02 a      1510     1    16     2    10
  6.9706615168847208E-01 a      1511     1    16     2    11
  1.7019041300948870E-01 a      1512     1    16     2    12
 -3.5481254823977748E-01 a      1513     1    16     2    13
  1.7033122954538379E-01 a      1514     1    16     2    14
  6.2396757311555795E-01 a      1515     1    16     2    15
 -3.9056197316885927E-01 a      1516     1    16     2    16
  1.6153718146796958E+00 a      1517     1    16     2    17
 -4.2291896615489172E-01 a      1518     1    16     2    18
  3.8579174103243324E-01 a      1519     1    16     2    19
  4.5199698710243169E-01 a      1520     1    16     2    20
  7.0003975852940326E-02 a      1521     1    16     2    21
 -2.2698251203486365E-03 a      1522     1    16     2    22
 -1.9564943774736254E-01 a      1523     1    16     2    23
 -7.3279793981279859E-02 a      1524     1    16     2    24
  1.8149178533993687E-01 a      1525     1    16     2    25
  1.2846928425000889E-01 a      1526     1    17     2     1
  2.4077049250588736E-01 a      1527     1    17     2     2
 -1.0252033747282290E+00 a      1528     1    17     2     3
  2.9927141445655420E-01 a      1529     1    17     2     4
  7.7803274771636333E-01 a      1530     1    17     2     5
  2.5021624603067216E-01 a      1531     1    17     2     6
 -6.3311150866688504E-01 a      1532     1    17     2     7
  2.8421103550405430E-01 a      1533     1    17     2     8
  5.1569044645557716E-01 a      1534     1    17     2     9
  5.5023582622772005E-01 a      1535     1    17     2    10
 -7.7004162644978458E-01 a      1536     1    17     2    11
  1.2393775388207849E-01 a      1537     1    17     2    12
 -4.2371204435213516E-01 a      1538     1    17     2    13
  2.2286451943887658E-01 a      1539     1    17     2    14
 -5.1186320199136870E-01 a      1540     1    17     2    15
  1.3088043545677844E-01 a      1541     1    17     2    16
 -1.1877848036412453E+00 a      1542     1    17     2    17
  8.5789705395641380E-01 a      1543     1    17     2    18
 -1.6434691613974267E-01 a      1544     1    17     2    19
 -3.3209596937553759E-01 a      1545     1    17     2    20
 -2.5880234620739559E-02 a      1546     1    17     2    21
 -7.5703458116279931E-02 a      1547     1    17     2    22
 -3.1744016646414852E-01 a      1548     1    17     2    23
  2.9853924901778500E-01 a      1549     1    17     2    24
 -5.0114931961859510E-01 a      1550     1    17     2    25
  1.6791089728467531E-02 a      1551     1    18     2     1
  5.0996263853254703E-02 a      1552     1    18     2     2
  1.7590455793994328E-01 a      1553     1    18     2     3
  3.8156999710582579E-01 a      1554     1    18     2     4
  1.5536231790504390E-01 a      1555     1    18     2     5
 -1.0963483017074817E-01 a      1556     1    18     2     6
  3.6062189894552677E-03 a      1557     1    18     2     7
  1.3420511235337934E-01 a      1558     1    18     2     8
 -1.4989890014872193E-01 a      1559     1    18     2     9
 -4.5147472095356500E-01 a      1560     1    18     2    10
 -5.9041661450043470E-01 a      1561     1    18     2    11
  9.6805683214102087E-02 a      1562     1    18     2    12
  2.5604008969014480E-01 a      1563     1    18     2    13
  1.2063454914724427E-01 a      1564     1    18     2    14
  4.4666761635780497E-02 a      1565     1    18     2    15
  2.5958452928285358E-01 a      1566     1    18     2    16
 -1.7596969482841323E+00 a      1567     1    18     2    17
 -9.6486372486351057E-02 a      1568     1    18     2    18
 -3.4541050824289682E-01 a      1569     1    18     2    19
 -1.0199706092199308E-01 a      1570     1    18     2    20
  4.1721068695986929E-01 a      1571     1    18     2    21
  5.7188930634920432E-01 a      1572     1    18     2    22
 -2.4754394132183344E-01 a      1573     1    18     2    23
  1.7442929955941125E-01 a      1574     1    18     2    24
 -9.3681237121756522E-02 a      1575     1    18     2    25
 -1.2018293094411134E-01 a      1576     1    19     2     1
 -4.4335064325662377E-01 a      1577     1    19     2     2
  3.3494494807302660E-01 a      1578     1    19     2     3
 -3.1702474328162372E-01 a      1579     1    19     2     4
 -3.9314240333482753E-01 a      1580     1    19     2     5
  7.1579161748888273E-02 a      1581     1    19     2     6
  2.6836324035048614E-01 a      1582     1    19     2     7
  3.1575449378331721E-01 a      1583     1    19     2     8
 -1.6168411921150816E-02 a      1584     1    19     2     9
 -6.6803120308203123E-01 a      1585     1    19     2    10
  5.1490812392136243E-01 a      1586     1    19     2    11
  4.9189156284266461E-03 a      1587     1    19     2    12
  9.5009087111334461E-02 a      1588     1    19     2    13
 -2.3371877602794863E-01 a      1589     1    19     2    14
  1.8059196722666096E-01 a      1590     1    19     2    15
 -8.7665030505008887E-02 a      1591     1    19     2    16
  2.9464454439802512E-01 a      1592     1    19     2    17
  2.0301410602452480E-01 a      1593     1    19     2    18
 -3.2292214878159958E-01 a      1594     1    19     2    19
 -1.7866105489359893E-01 a      1595     1    19     2    20
  6.6562335948900930E-02 a      1596     1    19     2    21
 -1.6959946951469718E-01 a      1597     1    19     2    22
  2.5834595429524432E-01 a      1598     1    19     2    23
 -7.6431181112007029E-02 a      1599     1    19     2    24
  5.5797080277250062E-02 a      1600     1    19     2    25
 -5.1390699438579368E-01 a      1601     1    20     2     1
 -5.4805592836549455E-01 a      1602     1    20     2     2
 -9.1008897611267836E-01 a      1603     1    20     2     3
 -3.2513363277790325E-01 a      1604     1    20     2     4
  8.6492392990793365E-02 a      1605     1    20     2     5
  4.4123511515635999E-01 a      1606     1    20     2     6
  1.6527374155749575E-01 a      1607     1    20     2     7
 -7.7098983503047536E-01 a      1608     1    20     2     8
 -1.5803631968533924E-01 a      1609     1    20     2     9
 -3.3357459068198719E-01 a      1610     1    20     2    10
  1.0245931469699947E-02 a      1611     1    20     2    11
  1.4386790080431774E-01 a      1612     1    20     2    12
 -1.7534465358381995E-01 a      1613     1    20     2    13
 -1.7901669661109506E-02 a      1614     1    20     2    14
  1.0304308523634370E-01 a      1615     1    20     2    15
  1.4399705660753245E-01 a      1616     1    20     2    16
 -1.7767635410433276E+00 a      1617     1    20     2    17
 -1.8188307620230973E-01 a      1618     1    20     2    18
 -3.3253108901727818E-01 a      1619     1    20     2    19
  6.8491722145545342E-01 a      1620     1    20     2    20
  1.1950069809146149E-01 a      1621     1    20     2    21
  3.4679420463354321E-01 a      1622     1    20     2    22
  1.8148191440505893E-01 a      1623     1    20     2    23
 -2.6048682804208562E-01 a      1624     1    20     2    24
 -4.6555391613580488E-01 a      1625     1    20     2    25
  1.7815734807373224E-01 a      1626     1    21     2     1
 -1.5034234669748243E+00 a      1627     1    21     2     2
 -9.7312348944101201E-01 a      1628     1    21     2     3
